svm_type c_svc
kernel_type rbf
gamma 0.03125
nr_class 3
total_sv 1014
rho 1.2514 0.435807 -0.850868
label 2 3 1
nr_sv 278 444 292
SV
1.178505708823438 0.5357926292117817 1:1 5:1 11:1 13:1 17:1 24:1 25:1 30:1 31:1 35:1 37:1 42:1 47:1 60:1 71:1 77:1 80:1 85:1 90:1 93:1 96:1 98:1 100:1 104:1 106:1 111:1 116:1 120:1 124:1 129:1 135:1 137:1 140:1 142:1 145:1 149:1 155:1 162:1 165:1 166:1 170:1 176:1 
0.8047375960883953 0.6539898496366514 2:1 4:1 9:1 10:1 17:1 26:1 29:1 35:1 38:1 44:1 50:1 53:1 56:1 58:1 61:1 64:1 67:1 71:1 74:1 80:1 83:1 85:1 90:1 96:1 100:1 108:1 110:1 113:1 115:1 119:1 123:1 132:1 133:1 138:1 141:1 144:1 145:1 149:1 152:1 159:1 160:1 163:1 166:1 169:1 173:1 175:1 179:1 
0.7496024306132627 0.8120266805851902 3:1 6:1 9:1 14:1 17:1 20:1 27:1 33:1 34:1 38:1 40:1 48:1 51:1 57:1 59:1 62:1 65:1 69:1 71:1 74:1 81:1 83:1 85:1 90:1 91:1 102:1 105:1 106:1 110:1 112:1 117:1 119:1 122:1 125:1 127:1 131:1 133:1 137:1 144:1 146:1 153:1 155:1 162:1 166:1 174:1 180:1 
0.885696737689878 0.7670680751553247 6:1 7:1 10:1 13:1 21:1 38:1 41:1 51:1 57:1 61:1 76:1 79:1 83:1 85:1 90:1 93:1 96:1 98:1 105:1 106:1 109:1 114:1 115:1 119:1 121:1 130:1 138:1 141:1 142:1 147:1 148:1 151:1 154:1 159:1 160:1 164:1 171:1 174:1 175:1 178:1 
0.1166783969754532 0 11:1 14:1 16:1 20:1 26:1 29:1 35:1 38:1 48:1 53:1 62:1 68:1 74:1 81:1 83:1 85:1 90:1 96:1 98:1 101:1 104:1 111:1 114:1 117:1 118:1 123:1 125:1 132:1 137:1 139:1 150:1 152:1 155:1 158:1 164:1 167:1 174:1 176:1 
0.4475172960134918 0.1286736647494219 6:1 20:1 26:1 35:1 40:1 50:1 53:1 56:1 66:1 69:1 71:1 77:1 79:1 83:1 85:1 90:1 93:1 96:1 97:1 101:1 104:1 107:1 111:1 112:1 117:1 123:1 127:1 133:1 138:1 140:1 143:1 146:1 152:1 155:1 157:1 162:1 163:1 168:1 174:1 177:1 178:1 
0.6189456973060015 1.45282082602539 8:1 14:1 17:1 19:1 32:1 44:1 54:1 57:1 60:1 63:1 68:1 74:1 81:1 83:1 85:1 90:1 93:1 97:1 101:1 105:1 106:1 111:1 113:1 117:1 118:1 121:1 124:1 128:1 130:1 141:1 142:1 145:1 148:1 151:1 156:1 157:1 163:1 170:1 173:1 175:1 
0.08143855689402879 0.4423220900620091 7:1 23:1 29:1 32:1 34:1 45:1 50:1 58:1 62:1 65:1 79:1 83:1 85:1 90:1 93:1 99:1 106:1 109:1 115:1 121:1 126:1 132:1 133:1 136:1 139:1 142:1 147:1 150:1 151:1 154:1 159:1 161:1 171:1 173:1 175:1 180:1 
0 0.1136166904877133 2:1 5:1 10:1 13:1 17:1 20:1 22:1 26:1 28:1 31:1 36:1 37:1 41:1 44:1 47:1 50:1 53:1 62:1 74:1 83:1 85:1 90:1 96:1 99:1 105:1 113:1 119:1 122:1 124:1 132:1 137:1 140:1 153:1 157:1 161:1 163:1 166:1 171:1 174:1 175:1 180:1 
0.7323217376673219 1.395166253091597 2:1 9:1 16:1 20:1 22:1 26:1 30:1 32:1 42:1 46:1 49:1 60:1 61:1 65:1 71:1 80:1 85:1 90:1 93:1 99:1 100:1 105:1 107:1 110:1 113:1 115:1 126:1 129:1 131:1 133:1 138:1 141:1 144:1 147:1 151:1 155:1 158:1 160:1 163:1 166:1 171:1 177:1 178:1 
0.00808780655334999 0 2:1 5:1 12:1 14:1 21:1 24:1 25:1 28:1 32:1 38:1 40:1 44:1 46:1 50:1 57:1 68:1 74:1 77:1 79:1 83:1 85:1 90:1 92:1 96:1 98:1 100:1 108:1 109:1 114:1 115:1 120:1 122:1 125:1 128:1 130:1 135:1 137:1 140:1 143:1 147:1 150:1 152:1 154:1 158:1 161:1 164:1 167:1 174:1 180:1 
0.2589919381824884 1.022409845685069 2:1 5:1 8:1 10:1 15:1 18:1 19:1 23:1 29:1 31:1 35:1 37:1 41:1 43:1 56:1 63:1 65:1 71:1 74:1 83:1 85:1 90:1 93:1 96:1 105:1 108:1 111:1 114:1 117:1 123:1 125:1 128:1 131:1 133:1 137:1 141:1 144:1 150:1 151:1 155:1 157:1 162:1 164:1 167:1 169:1 173:1 176:1 178:1 
0.63715600754232 0.7360046844584042 2:1 11:1 13:1 18:1 20:1 23:1 29:1 32:1 35:1 37:1 40:1 45:1 49:1 54:1 56:1 63:1 66:1 70:1 74:1 79:1 83:1 85:1 90:1 93:1 96:1 98:1 100:1 104:1 106:1 110:1 114:1 120:1 131:1 133:1 137:1 141:1 150:1 151:1 155:1 157:1 162:1 165:1 177:1 179:1 
0.508599161401783 0 1:1 5:1 9:1 20:1 22:1 30:1 31:1 34:1 39:1 49:1 66:1 68:1 71:1 80:1 83:1 85:1 90:1 92:1 101:1 104:1 106:1 112:1 123:1 126:1 127:1 137:1 145:1 149:1 152:1 154:1 157:1 165:1 169:1 173:1 180:1 
0.6500147665688785 0.5172202917168093 4:1 9:1 11:1 13:1 17:1 19:1 27:1 33:1 34:1 38:1 45:1 48:1 49:1 53:1 59:1 62:1 68:1 74:1 77:1 80:1 83:1 85:1 90:1 93:1 98:1 102:1 107:1 109:1 114:1 120:1 121:1 126:1 129:1 131:1 134:1 136:1 140:1 142:1 146:1 148:1 153:1 155:1 157:1 162:1 164:1 166:1 171:1 173:1 175:1 
0.04423767324281357 0 4:1 7:1 14:1 18:1 27:1 28:1 38:1 41:1 44:1 53:1 56:1 59:1 65:1 68:1 71:1 77:1 79:1 83:1 85:1 90:1 91:1 94:1 97:1 102:1 104:1 106:1 113:1 116:1 119:1 126:1 129:1 130:1 135:1 136:1 139:1 143:1 145:1 150:1 152:1 155:1 162:1 165:1 166:1 171:1 174:1 175:1 180:1 
0 0.5263822595664072 2:1 4:1 9:1 11:1 18:1 23:1 29:1 36:1 41:1 44:1 47:1 50:1 52:1 56:1 59:1 62:1 64:1 68:1 71:1 74:1 80:1 83:1 85:1 90:1 91:1 96:1 97:1 100:1 105:1 107:1 110:1 112:1 115:1 120:1 123:1 125:1 127:1 135:1 137:1 141:1 147:1 150:1 156:1 158:1 160:1 164:1 168:1 171:1 173:1 179:1 
0.3847398627596293 0.5438067569120357 2:1 5:1 12:1 13:1 20:1 27:1 30:1 33:1 38:1 44:1 47:1 50:1 53:1 59:1 62:1 65:1 67:1 71:1 74:1 77:1 83:1 85:1 90:1 93:1 96:1 97:1 102:1 104:1 107:1 109:1 114:1 117:1 119:1 125:1 129:1 132:1 134:1 136:1 149:1 156:1 159:1 161:1 163:1 168:1 170:1 172:1 175:1 180:1 
0.4939271280298578 0.5411377441393788 6:1 7:1 12:1 14:1 18:1 21:1 24:1 25:1 28:1 32:1 36:1 38:1 41:1 46:1 50:1 52:1 62:1 71:1 74:1 80:1 83:1 85:1 90:1 92:1 99:1 100:1 105:1 107:1 109:1 114:1 115:1 118:1 123:1 124:1 129:1 134:1 136:1 141:1 142:1 146:1 150:1 153:1 154:1 157:1 164:1 168:1 169:1 172:1 175:1 179:1 
0.1701258609561034 0.006342925803467523 3:1 4:1 8:1 11:1 17:1 23:1 26:1 35:1 41:1 50:1 53:1 62:1 64:1 68:1 81:1 83:1 85:1 90:1 91:1 96:1 99:1 101:1 108:1 111:1 112:1 115:1 120:1 121:1 125:1 129:1 132:1 134:1 136:1 141:1 143:1 146:1 150:1 152:1 155:1 159:1 162:1 163:1 167:1 174:1 177:1 180:1 
0.1611888394476388 0 2:1 4:1 24:1 33:1 38:1 44:1 47:1 59:1 61:1 68:1 74:1 76:1 79:1 83:1 85:1 90:1 92:1 98:1 101:1 108:1 111:1 114:1 115:1 118:1 121:1 129:1 135:1 137:1 144:1 147:1 153:1 154:1 158:1 165:1 180:1 
0.3713171498250524 0 3:1 6:1 7:1 17:1 20:1 23:1 26:1 33:1 34:1 38:1 44:1 47:1 49:1 53:1 56:1 62:1 71:1 74:1 80:1 83:1 85:1 90:1 91:1 95:1 99:1 102:1 104:1 111:1 113:1 116:1 118:1 122:1 126:1 128:1 131:1 135:1 136:1 140:1 143:1 146:1 153:1 155:1 158:1 165:1 167:1 171:1 172:1 176:1 180:1 
1.583867071133926 1.895284255330785 3:1 6:1 9:1 11:1 15:1 18:1 21:1 24:1 26:1 33:1 34:1 38:1 41:1 45:1 46:1 51:1 54:1 57:1 60:1 63:1 69:1 72:1 75:1 78:1 80:1 83:1 85:1 90:1 93:1 101:1 107:1 109:1 113:1 115:1 119:1 122:1 125:1 131:1 134:1 136:1 141:1 147:1 150:1 151:1 159:1 160:1 171:1 174:1 176:1 
0.1337132818673355 0 1:1 5:1 7:1 10:1 14:1 18:1 24:1 29:1 35:1 42:1 44:1 53:1 59:1 65:1 68:1 71:1 74:1 80:1 83:1 85:1 90:1 93:1 95:1 98:1 102:1 108:1 110:1 112:1 118:1 121:1 126:1 129:1 131:1 138:1 144:1 146:1 153:1 154:1 158:1 161:1 163:1 170:1 174:1 175:1 179:1 
0.05218861827394745 0.2588903909527295 2:1 6:1 11:1 14:1 20:1 22:1 25:1 30:1 36:1 42:1 45:1 47:1 50:1 54:1 59:1 68:1 71:1 74:1 80:1 83:1 85:1 90:1 93:1 96:1 97:1 102:1 104:1 107:1 109:1 120:1 126:1 129:1 131:1 134:1 138:1 144:1 145:1 149:1 153:1 156:1 159:1 165:1 166:1 170:1 174:1 177:1 180:1 
0.6439308277510625 0 3:1 4:1 8:1 11:1 13:1 18:1 21:1 26:1 57:1 65:1 70:1 74:1 77:1 80:1 83:1 85:1 90:1 92:1 95:1 97:1 102:1 104:1 106:1 109:1 113:1 115:1 120:1 126:1 128:1 131:1 134:1 136:1 141:1 144:1 147:1 149:1 155:1 162:1 163:1 171:1 172:1 177:1 
0.2227172820754952 0.596089039441597 6:1 7:1 11:1 14:1 16:1 21:1 24:1 29:1 39:1 57:1 65:1 70:1 74:1 77:1 80:1 83:1 85:1 90:1 93:1 96:1 97:1 102:1 104:1 108:1 109:1 113:1 115:1 120:1 126:1 128:1 131:1 134:1 136:1 141:1 144:1 147:1 150:1 155:1 162:1 163:1 168:1 173:1 179:1 
0.5535795366548484 1.407406196593733 3:1 5:1 8:1 11:1 17:1 19:1 22:1 25:1 33:1 34:1 38:1 41:1 47:1 49:1 53:1 56:1 65:1 71:1 77:1 80:1 85:1 90:1 93:1 99:1 100:1 110:1 116:1 120:1 123:1 126:1 128:1 131:1 135:1 136:1 144:1 152:1 158:1 160:1 165:1 168:1 169:1 172:1 175:1 178:1 
0 0.1346150186736916 11:1 14:1 21:1 30:1 35:1 41:1 44:1 50:1 56:1 59:1 68:1 71:1 74:1 76:1 80:1 85:1 90:1 93:1 99:1 100:1 107:1 109:1 117:1 120:1 124:1 127:1 131:1 134:1 138:1 141:1 144:1 147:1 148:1 155:1 157:1 161:1 164:1 167:1 172:1 179:1 
0.5040117794755337 0.4122080321789245 2:1 7:1 11:1 14:1 16:1 22:1 29:1 39:1 40:1 47:1 49:1 56:1 59:1 74:1 81:1 85:1 90:1 93:1 94:1 97:1 104:1 108:1 111:1 112:1 118:1 124:1 127:1 131:1 133:1 140:1 142:1 149:1 152:1 156:1 159:1 162:1 166:1 170:1 173:1 176:1 178:1 
0.2025468119923487 0.8172656866086617 5:1 7:1 10:1 14:1 19:1 23:1 25:1 30:1 33:1 36:1 37:1 41:1 44:1 47:1 51:1 53:1 55:1 62:1 68:1 71:1 74:1 79:1 83:1 85:1 90:1 93:1 96:1 105:1 108:1 110:1 113:1 116:1 119:1 122:1 124:1 129:1 131:1 133:1 136:1 141:1 144:1 146:1 152:1 154:1 159:1 162:1 163:1 167:1 169:1 174:1 176:1 178:1 
0.1682846597012278 0.015086764182249 6:1 7:1 11:1 19:1 23:1 25:1 35:1 37:1 50:1 53:1 56:1 64:1 71:1 77:1 80:1 83:1 85:1 90:1 91:1 98:1 101:1 105:1 113:1 120:1 123:1 125:1 130:1 134:1 147:1 148:1 156:1 157:1 162:1 163:1 168:1 171:1 175:1 
0.6227296597839574 0 5:1 8:1 14:1 16:1 26:1 29:1 36:1 38:1 42:1 47:1 54:1 56:1 65:1 68:1 74:1 77:1 80:1 83:1 85:1 90:1 92:1 94:1 97:1 100:1 103:1 108:1 110:1 114:1 120:1 121:1 128:1 138:1 140:1 147:1 150:1 153:1 158:1 162:1 165:1 167:1 169:1 173:1 175:1 180:1 
1.794870740367015 1.00208005421576 1:1 8:1 13:1 16:1 19:1 27:1 28:1 36:1 37:1 40:1 49:1 57:1 58:1 68:1 85:1 90:1 99:1 108:1 111:1 112:1 126:1 127:1 130:1 133:1 143:1 146:1 148:1 153:1 154:1 158:1 160:1 163:1 168:1 180:1 
0.8038887448472659 0.3578169280252906 5:1 13:1 18:1 21:1 22:1 27:1 30:1 45:1 50:1 56:1 65:1 68:1 71:1 85:1 90:1 93:1 94:1 101:1 103:1 106:1 113:1 119:1 122:1 125:1 128:1 130:1 137:1 140:1 142:1 147:1 148:1 152:1 155:1 160:1 164:1 170:1 177:1 179:1 
0.3566766589530858 0 3:1 6:1 9:1 14:1 17:1 20:1 22:1 26:1 29:1 31:1 34:1 41:1 51:1 63:1 65:1 74:1 81:1 83:1 85:1 90:1 91:1 96:1 98:1 101:1 107:1 109:1 114:1 116:1 119:1 126:1 128:1 131:1 138:1 141:1 142:1 145:1 150:1 151:1 159:1 161:1 164:1 168:1 169:1 174:1 175:1 
0.05754521711413043 0 13:1 17:1 19:1 38:1 40:1 44:1 59:1 62:1 68:1 71:1 74:1 77:1 79:1 83:1 85:1 90:1 92:1 96:1 102:1 103:1 108:1 114:1 116:1 118:1 125:1 131:1 134:1 136:1 143:1 146:1 148:1 152:1 156:1 165:1 168:1 170:1 173:1 175:1 180:1 
0.9541648936688215 0.2025674350374916 1:1 4:1 7:1 11:1 15:1 17:1 22:1 25:1 40:1 43:1 47:1 49:1 53:1 61:1 77:1 85:1 90:1 101:1 104:1 107:1 109:1 114:1 115:1 118:1 123:1 124:1 129:1 132:1 137:1 141:1 143:1 146:1 148:1 159:1 168:1 169:1 172:1 177:1 178:1 
0 0.7581432012560363 2:1 15:1 18:1 20:1 26:1 28:1 32:1 41:1 51:1 53:1 56:1 72:1 83:1 85:1 90:1 93:1 94:1 99:1 105:1 109:1 113:1 115:1 119:1 122:1 130:1 133:1 136:1 140:1 142:1 145:1 153:1 154:1 159:1 160:1 163:1 168:1 170:1 172:1 177:1 
0.07013779065706099 0 2:1 5:1 8:1 11:1 13:1 20:1 22:1 26:1 29:1 31:1 36:1 38:1 44:1 47:1 50:1 53:1 56:1 59:1 68:1 74:1 77:1 80:1 83:1 85:1 90:1 91:1 98:1 100:1 104:1 111:1 114:1 116:1 118:1 121:1 126:1 132:1 135:1 148:1 154:1 161:1 165:1 167:1 169:1 176:1 180:1 
1.237044884829649 0.8834332393805461 3:1 4:1 14:1 17:1 22:1 26:1 28:1 33:1 35:1 38:1 48:1 50:1 53:1 60:1 62:1 68:1 74:1 79:1 82:1 85:1 90:1 93:1 95:1 97:1 100:1 104:1 110:1 115:1 120:1 121:1 125:1 127:1 134:1 138:1 140:1 144:1 149:1 152:1 154:1 157:1 161:1 163:1 166:1 170:1 173:1 177:1 
0.164439508800114 0.5835789983287615 1:1 4:1 7:1 14:1 17:1 19:1 23:1 26:1 33:1 35:1 38:1 41:1 44:1 46:1 53:1 56:1 62:1 69:1 77:1 80:1 83:1 85:1 90:1 93:1 99:1 100:1 107:1 110:1 115:1 120:1 123:1 129:1 132:1 133:1 138:1 141:1 143:1 146:1 150:1 151:1 154:1 157:1 162:1 166:1 170:1 172:1 180:1 
0.8455246371725464 0.4477621687237401 2:1 5:1 9:1 10:1 15:1 20:1 22:1 26:1 32:1 35:1 42:1 47:1 49:1 53:1 61:1 65:1 68:1 71:1 78:1 79:1 83:1 85:1 90:1 93:1 95:1 98:1 103:1 108:1 109:1 113:1 119:1 122:1 125:1 129:1 130:1 135:1 138:1 140:1 149:1 152:1 158:1 171:1 174:1 176:1 179:1 
0.7271183143073546 0.04934602399990572 2:1 9:1 11:1 14:1 20:1 23:1 26:1 30:1 32:1 45:1 51:1 57:1 59:1 62:1 65:1 68:1 72:1 74:1 80:1 83:1 85:1 90:1 92:1 94:1 99:1 101:1 104:1 110:1 113:1 116:1 120:1 122:1 126:1 127:1 131:1 135:1 136:1 144:1 146:1 149:1 152:1 155:1 161:1 163:1 166:1 170:1 174:1 
1.241492147032755 1.5456287668137 2:1 5:1 12:1 13:1 18:1 20:1 22:1 26:1 28:1 33:1 34:1 38:1 42:1 45:1 47:1 54:1 62:1 68:1 80:1 82:1 85:1 90:1 93:1 100:1 104:1 106:1 109:1 114:1 116:1 119:1 126:1 127:1 135:1 136:1 139:1 144:1 147:1 150:1 151:1 154:1 157:1 161:1 165:1 166:1 171:1 174:1 177:1 180:1 
0.2975863182579617 0.6226519771854653 5:1 8:1 14:1 16:1 24:1 26:1 28:1 35:1 38:1 40:1 44:1 47:1 50:1 53:1 56:1 65:1 68:1 74:1 77:1 80:1 83:1 85:1 90:1 93:1 94:1 97:1 103:1 108:1 110:1 113:1 115:1 120:1 123:1 128:1 135:1 138:1 140:1 147:1 150:1 153:1 158:1 162:1 165:1 167:1 169:1 173:1 175:1 178:1 
1.135233422358499 0 1:1 4:1 9:1 10:1 14:1 22:1 28:1 42:1 47:1 50:1 66:1 83:1 85:1 90:1 92:1 95:1 100:1 104:1 107:1 109:1 117:1 118:1 123:1 124:1 127:1 133:1 136:1 141:1 142:1 147:1 148:1 151:1 154:1 159:1 160:1 163:1 166:1 169:1 177:1 178:1 
0.2262130186568665 0 14:1 26:1 28:1 45:1 50:1 62:1 64:1 68:1 71:1 76:1 79:1 83:1 85:1 90:1 92:1 98:1 101:1 108:1 111:1 114:1 115:1 118:1 121:1 125:1 129:1 135:1 136:1 144:1 147:1 153:1 154:1 163:1 173:1 180:1 
0.263577196654974 0.4839050104629161 5:1 7:1 11:1 15:1 17:1 19:1 26:1 29:1 35:1 42:1 44:1 56:1 59:1 65:1 71:1 80:1 83:1 85:1 90:1 91:1 95:1 97:1 100:1 105:1 109:1 113:1 118:1 122:1 125:1 129:1 130:1 135:1 140:1 142:1 145:1 152:1 161:1 165:1 167:1 169:1 173:1 175:1 179:1 
0.8870983312356667 0.3458499851371605 4:1 7:1 11:1 14:1 16:1 19:1 24:1 28:1 31:1 35:1 39:1 40:1 44:1 50:1 58:1 61:1 68:1 71:1 79:1 83:1 85:1 90:1 91:1 99:1 102:1 105:1 106:1 109:1 112:1 117:1 120:1 123:1 125:1 131:1 134:1 143:1 145:1 148:1 153:1 157:1 165:1 167:1 170:1 177:1 180:1 
0.3333102656212784 1.481658597010342 3:1 6:1 9:1 11:1 14:1 17:1 20:1 26:1 33:1 34:1 41:1 43:1 47:1 50:1 56:1 59:1 61:1 65:1 71:1 74:1 79:1 85:1 90:1 93:1 97:1 105:1 106:1 111:1 112:1 116:1 118:1 123:1 124:1 129:1 131:1 138:1 141:1 143:1 146:1 148:1 156:1 158:1 162:1 164:1 167:1 169:1 174:1 179:1 
0.1099473593616446 0.04746264118039182 1:1 5:1 12:1 17:1 19:1 22:1 25:1 29:1 36:1 44:1 54:1 59:1 61:1 64:1 71:1 77:1 79:1 83:1 85:1 90:1 93:1 95:1 101:1 104:1 111:1 114:1 123:1 128:1 133:1 137:1 140:1 143:1 145:1 153:1 156:1 157:1 161:1 164:1 167:1 169:1 174:1 175:1 180:1 
1.43240690512333 0.7125622050686474 3:1 4:1 9:1 13:1 21:1 24:1 25:1 38:1 40:1 44:1 46:1 56:1 61:1 64:1 68:1 70:1 74:1 76:1 85:1 90:1 91:1 94:1 99:1 101:1 108:1 110:1 112:1 117:1 120:1 121:1 129:1 131:1 138:1 139:1 142:1 145:1 156:1 158:1 160:1 163:1 168:1 171:1 173:1 180:1 
0.7933576222663286 0.5927171835682845 3:1 5:1 11:1 17:1 19:1 22:1 26:1 32:1 35:1 41:1 44:1 46:1 49:1 60:1 62:1 66:1 69:1 72:1 80:1 83:1 85:1 90:1 93:1 95:1 98:1 100:1 107:1 110:1 114:1 116:1 120:1 123:1 124:1 127:1 131:1 137:1 141:1 142:1 147:1 150:1 151:1 156:1 161:1 165:1 167:1 170:1 172:1 176:1 179:1 
0.5950672974773267 1.209176792621901 4:1 7:1 11:1 14:1 16:1 23:1 29:1 35:1 38:1 41:1 47:1 55:1 58:1 62:1 68:1 71:1 74:1 77:1 85:1 90:1 93:1 97:1 111:1 113:1 120:1 121:1 125:1 128:1 135:1 147:1 148:1 152:1 155:1 158:1 165:1 171:1 172:1 179:1 
0.9391523289707838 1.162740598944068 1:1 9:1 12:1 14:1 17:1 20:1 23:1 32:1 35:1 41:1 44:1 57:1 59:1 66:1 72:1 74:1 77:1 80:1 83:1 85:1 90:1 93:1 94:1 99:1 100:1 104:1 106:1 111:1 117:1 126:1 129:1 130:1 134:1 136:1 144:1 146:1 152:1 155:1 159:1 162:1 165:1 166:1 174:1 176:1 179:1 
0.0214847315235061 0 2:1 4:1 10:1 14:1 24:1 27:1 29:1 35:1 40:1 50:1 57:1 59:1 68:1 74:1 79:1 83:1 85:1 90:1 93:1 95:1 102:1 108:1 111:1 112:1 116:1 118:1 124:1 128:1 134:1 136:1 139:1 144:1 145:1 149:1 151:1 156:1 157:1 162:1 164:1 168:1 171:1 173:1 180:1 
0.117119910342757 0.1624935312075722 2:1 8:1 11:1 18:1 19:1 24:1 25:1 29:1 32:1 41:1 43:1 50:1 52:1 56:1 63:1 69:1 71:1 74:1 80:1 83:1 85:1 90:1 93:1 98:1 104:1 106:1 109:1 114:1 115:1 120:1 122:1 129:1 137:1 144:1 146:1 152:1 155:1 158:1 164:1 166:1 171:1 176:1 178:1 
0.2516672928967403 0 3:1 5:1 11:1 17:1 19:1 23:1 25:1 30:1 32:1 35:1 44:1 50:1 56:1 59:1 62:1 65:1 67:1 71:1 74:1 77:1 81:1 83:1 85:1 90:1 91:1 94:1 99:1 102:1 103:1 108:1 109:1 112:1 118:1 121:1 126:1 127:1 130:1 138:1 139:1 142:1 145:1 148:1 153:1 156:1 161:1 163:1 169:1 174:1 175:1 178:1 
0.853626733716794 0.2231080623980681 2:1 4:1 8:1 14:1 16:1 20:1 24:1 25:1 30:1 36:1 41:1 51:1 53:1 59:1 65:1 68:1 78:1 79:1 83:1 85:1 90:1 94:1 102:1 108:1 111:1 114:1 115:1 118:1 123:1 125:1 128:1 131:1 133:1 136:1 141:1 142:1 145:1 152:1 155:1 159:1 162:1 164:1 166:1 169:1 172:1 176:1 179:1 
0.9113755319335347 1.360235587185019 1:1 4:1 13:1 16:1 19:1 22:1 27:1 34:1 37:1 40:1 46:1 49:1 53:1 61:1 68:1 71:1 79:1 83:1 85:1 90:1 93:1 99:1 100:1 104:1 107:1 114:1 117:1 121:1 125:1 132:1 134:1 143:1 145:1 153:1 157:1 165:1 170:1 173:1 176:1 179:1 
0.5765989270873634 0 6:1 9:1 10:1 13:1 17:1 19:1 22:1 26:1 29:1 35:1 41:1 47:1 52:1 56:1 58:1 61:1 68:1 71:1 74:1 80:1 83:1 85:1 90:1 91:1 98:1 107:1 111:1 113:1 115:1 118:1 121:1 127:1 131:1 138:1 144:1 147:1 148:1 152:1 154:1 157:1 165:1 167:1 170:1 173:1 177:1 179:1 
0.3051899312464731 0 6:1 12:1 15:1 19:1 26:1 32:1 44:1 50:1 52:1 59:1 71:1 74:1 77:1 83:1 85:1 90:1 96:1 97:1 104:1 111:1 115:1 119:1 122:1 124:1 132:1 143:1 145:1 149:1 151:1 155:1 158:1 160:1 165:1 171:1 174:1 
0.4346847226928458 0 5:1 11:1 13:1 17:1 22:1 27:1 30:1 32:1 35:1 38:1 47:1 56:1 59:1 68:1 71:1 74:1 77:1 79:1 82:1 85:1 90:1 92:1 102:1 104:1 110:1 113:1 115:1 120:1 123:1 125:1 132:1 135:1 136:1 142:1 146:1 148:1 151:1 156:1 159:1 162:1 165:1 167:1 171:1 174:1 177:1 
0.4703457835570925 0 4:1 8:1 10:1 14:1 16:1 19:1 26:1 38:1 41:1 50:1 57:1 63:1 68:1 71:1 80:1 83:1 85:1 90:1 91:1 94:1 98:1 101:1 107:1 110:1 116:1 119:1 125:1 128:1 141:1 142:1 147:1 150:1 158:1 162:1 163:1 166:1 170:1 173:1 180:1 
0.1569591412762251 0.9675830825895417 1:1 5:1 11:1 13:1 17:1 20:1 30:1 35:1 38:1 41:1 44:1 47:1 56:1 62:1 65:1 67:1 76:1 83:1 85:1 90:1 93:1 102:1 105:1 107:1 110:1 113:1 115:1 121:1 124:1 127:1 132:1 134:1 137:1 140:1 146:1 153:1 155:1 157:1 161:1 168:1 169:1 174:1 175:1 178:1 
0.03564207814542829 0.7257668444426374 2:1 5:1 9:1 12:1 13:1 20:1 22:1 32:1 34:1 42:1 43:1 47:1 50:1 62:1 68:1 78:1 80:1 83:1 85:1 90:1 93:1 101:1 104:1 111:1 114:1 115:1 123:1 125:1 128:1 133:1 141:1 143:1 150:1 151:1 156:1 158:1 160:1 164:1 166:1 169:1 174:1 
0.3388277757073933 0 4:1 7:1 15:1 16:1 23:1 26:1 33:1 38:1 41:1 56:1 61:1 77:1 79:1 83:1 85:1 90:1 92:1 95:1 101:1 107:1 110:1 116:1 119:1 125:1 128:1 131:1 133:1 138:1 146:1 152:1 155:1 161:1 168:1 171:1 172:1 179:1 
1.173535873912629 0.994939621835776 3:1 4:1 9:1 12:1 15:1 16:1 20:1 27:1 28:1 31:1 36:1 38:1 41:1 44:1 46:1 51:1 56:1 58:1 66:1 68:1 71:1 74:1 79:1 83:1 85:1 90:1 93:1 94:1 99:1 100:1 107:1 110:1 114:1 120:1 121:1 126:1 135:1 137:1 139:1 144:1 147:1 149:1 155:1 157:1 162:1 164:1 173:1 175:1 180:1 
0 0.03233014861811805 3:1 8:1 14:1 20:1 26:1 32:1 38:1 44:1 50:1 56:1 68:1 74:1 81:1 83:1 85:1 90:1 93:1 101:1 107:1 110:1 113:1 116:1 118:1 126:1 127:1 131:1 133:1 137:1 140:1 142:1 146:1 149:1 156:1 157:1 160:1 164:1 168:1 173:1 179:1 
0.4230629773917227 0.1628546052049983 2:1 5:1 11:1 14:1 20:1 22:1 26:1 42:1 44:1 47:1 50:1 53:1 60:1 65:1 67:1 71:1 74:1 85:1 90:1 93:1 94:1 97:1 102:1 106:1 109:1 112:1 115:1 120:1 123:1 125:1 128:1 133:1 137:1 139:1 142:1 147:1 149:1 152:1 155:1 157:1 162:1 163:1 174:1 176:1 179:1 
0.7626155641581444 0.123804357002859 1:1 9:1 11:1 18:1 19:1 23:1 26:1 28:1 32:1 41:1 44:1 47:1 53:1 62:1 68:1 75:1 76:1 81:1 83:1 85:1 90:1 96:1 102:1 103:1 107:1 116:1 118:1 122:1 125:1 129:1 130:1 133:1 138:1 139:1 143:1 146:1 148:1 153:1 154:1 158:1 161:1 165:1 167:1 169:1 174:1 177:1 
0.3919393507052976 0.09678763612702612 2:1 9:1 12:1 18:1 24:1 25:1 28:1 36:1 39:1 41:1 43:1 53:1 59:1 81:1 83:1 85:1 90:1 91:1 95:1 97:1 102:1 103:1 108:1 111:1 112:1 117:1 119:1 126:1 127:1 130:1 134:1 137:1 141:1 143:1 147:1 148:1 153:1 156:1 162:1 165:1 167:1 170:1 172:1 176:1 179:1 
0.1002639942408657 0.1476916206192644 1:1 8:1 14:1 16:1 20:1 26:1 32:1 38:1 41:1 44:1 51:1 53:1 67:1 71:1 74:1 77:1 85:1 90:1 93:1 96:1 102:1 103:1 113:1 120:1 123:1 126:1 129:1 132:1 134:1 137:1 140:1 142:1 146:1 156:1 161:1 168:1 172:1 175:1 
0.2297541016760145 0.4681019547179755 1:1 5:1 7:1 11:1 18:1 20:1 23:1 25:1 33:1 41:1 48:1 50:1 53:1 56:1 63:1 68:1 71:1 77:1 79:1 83:1 85:1 90:1 93:1 96:1 97:1 102:1 104:1 110:1 112:1 117:1 119:1 122:1 125:1 129:1 131:1 138:1 141:1 142:1 146:1 154:1 160:1 163:1 171:1 173:1 176:1 178:1 
0.652387516336716 0 1:1 4:1 7:1 10:1 13:1 21:1 22:1 33:1 37:1 50:1 53:1 65:1 68:1 74:1 80:1 83:1 85:1 90:1 91:1 95:1 101:1 108:1 109:1 114:1 117:1 118:1 128:1 131:1 138:1 146:1 149:1 156:1 160:1 164:1 166:1 172:1 175:1 178:1 
1.084321002631538 0.4270411383614417 4:1 7:1 13:1 16:1 22:1 27:1 29:1 36:1 47:1 53:1 60:1 69:1 79:1 82:1 85:1 90:1 93:1 95:1 97:1 101:1 106:1 110:1 112:1 115:1 118:1 124:1 128:1 135:1 141:1 144:1 146:1 148:1 153:1 155:1 157:1 163:1 169:1 172:1 
0.4033535414381951 0 2:1 5:1 7:1 11:1 17:1 22:1 36:1 38:1 40:1 57:1 66:1 68:1 70:1 83:1 85:1 90:1 91:1 96:1 99:1 100:1 103:1 107:1 109:1 116:1 118:1 121:1 126:1 127:1 130:1 133:1 140:1 142:1 150:1 151:1 154:1 158:1 160:1 163:1 167:1 180:1 
0.192662501274586 0.0212020689783458 5:1 8:1 14:1 16:1 20:1 27:1 29:1 32:1 39:1 44:1 47:1 50:1 53:1 62:1 65:1 68:1 74:1 77:1 83:1 85:1 90:1 91:1 98:1 100:1 111:1 113:1 119:1 122:1 128:1 131:1 138:1 139:1 144:1 146:1 150:1 152:1 154:1 157:1 162:1 166:1 170:1 176:1 179:1 
0.03500622436010509 0 3:1 6:1 9:1 11:1 15:1 18:1 21:1 26:1 32:1 34:1 39:1 41:1 44:1 47:1 50:1 56:1 59:1 65:1 69:1 71:1 74:1 77:1 80:1 83:1 85:1 90:1 93:1 95:1 101:1 104:1 107:1 109:1 113:1 119:1 122:1 124:1 132:1 133:1 136:1 141:1 145:1 158:1 167:1 169:1 173:1 175:1 
0.8861914353241241 0.8467583859463232 3:1 6:1 8:1 11:1 18:1 19:1 23:1 32:1 37:1 42:1 44:1 47:1 49:1 53:1 57:1 60:1 63:1 68:1 74:1 77:1 81:1 83:1 85:1 90:1 99:1 102:1 104:1 107:1 110:1 112:1 117:1 119:1 123:1 125:1 134:1 138:1 141:1 144:1 146:1 149:1 153:1 156:1 162:1 170:1 172:1 176:1 180:1 
0 0.3010997234158011 5:1 12:1 13:1 21:1 22:1 26:1 31:1 39:1 41:1 43:1 47:1 53:1 56:1 65:1 68:1 74:1 77:1 83:1 85:1 90:1 93:1 99:1 102:1 103:1 109:1 112:1 116:1 122:1 124:1 131:1 134:1 142:1 145:1 149:1 151:1 156:1 159:1 160:1 165:1 166:1 171:1 176:1 180:1 
1.292746919180743 0.1853131788271663 2:1 5:1 12:1 13:1 17:1 23:1 29:1 31:1 36:1 38:1 41:1 48:1 51:1 53:1 58:1 65:1 72:1 80:1 85:1 90:1 91:1 94:1 102:1 107:1 110:1 117:1 119:1 122:1 129:1 132:1 134:1 141:1 147:1 150:1 152:1 161:1 167:1 170:1 177:1 
0.990314825258707 1.271267574955474 1:1 6:1 8:1 11:1 18:1 21:1 24:1 26:1 33:1 34:1 38:1 41:1 44:1 47:1 49:1 53:1 57:1 62:1 69:1 72:1 74:1 77:1 79:1 83:1 85:1 90:1 93:1 95:1 98:1 101:1 105:1 107:1 111:1 117:1 119:1 126:1 128:1 131:1 134:1 137:1 141:1 144:1 145:1 148:1 153:1 158:1 163:1 171:1 173:1 177:1 
0.3193921226134746 0.1587910422992313 2:1 6:1 8:1 11:1 14:1 19:1 22:1 26:1 30:1 32:1 36:1 39:1 41:1 44:1 47:1 50:1 53:1 59:1 63:1 65:1 68:1 71:1 74:1 81:1 83:1 85:1 90:1 92:1 95:1 100:1 103:1 111:1 114:1 116:1 118:1 122:1 128:1 132:1 133:1 138:1 144:1 146:1 149:1 152:1 154:1 162:1 165:1 166:1 169:1 174:1 180:1 
1.150925165013194 0.2860957295617026 3:1 9:1 10:1 15:1 20:1 22:1 26:1 29:1 36:1 42:1 43:1 47:1 50:1 52:1 56:1 62:1 72:1 83:1 85:1 90:1 93:1 94:1 102:1 103:1 109:1 112:1 117:1 120:1 121:1 129:1 131:1 134:1 143:1 148:1 156:1 162:1 165:1 167:1 169:1 174:1 175:1 179:1 
0.5412098629995504 0.3269857400965568 9:1 17:1 20:1 23:1 25:1 28:1 32:1 35:1 38:1 41:1 53:1 62:1 65:1 68:1 77:1 80:1 83:1 85:1 90:1 93:1 96:1 99:1 101:1 108:1 110:1 113:1 117:1 120:1 123:1 124:1 129:1 132:1 134:1 139:1 146:1 148:1 151:1 154:1 157:1 162:1 165:1 166:1 173:1 177:1 179:1 
0.5222296761490357 0 1:1 4:1 7:1 13:1 29:1 31:1 38:1 41:1 44:1 49:1 61:1 74:1 79:1 83:1 85:1 90:1 96:1 98:1 103:1 107:1 109:1 112:1 120:1 121:1 124:1 127:1 130:1 133:1 138:1 139:1 142:1 147:1 150:1 153:1 159:1 160:1 165:1 166:1 169:1 174:1 175:1 180:1 
0.9048791561961248 1.114585411733193 2:1 4:1 9:1 11:1 18:1 19:1 23:1 29:1 32:1 35:1 37:1 42:1 43:1 48:1 53:1 56:1 58:1 62:1 68:1 71:1 74:1 81:1 85:1 90:1 93:1 98:1 102:1 105:1 108:1 110:1 112:1 117:1 119:1 121:1 126:1 129:1 131:1 134:1 138:1 142:1 147:1 148:1 151:1 156:1 161:1 168:1 171:1 173:1 175:1 180:1 
0.7880805008347823 1.881797803997053 3:1 7:1 13:1 16:1 20:1 23:1 26:1 33:1 35:1 39:1 40:1 48:1 50:1 53:1 60:1 64:1 71:1 76:1 79:1 83:1 85:1 90:1 93:1 99:1 100:1 105:1 106:1 111:1 113:1 115:1 119:1 121:1 126:1 130:1 133:1 138:1 141:1 142:1 146:1 151:1 162:1 164:1 169:1 177:1 180:1 
0.9149961328805594 0.1450027286710851 1:1 5:1 7:1 10:1 13:1 16:1 20:1 35:1 38:1 41:1 59:1 61:1 64:1 71:1 76:1 79:1 85:1 90:1 94:1 98:1 102:1 105:1 107:1 109:1 114:1 116:1 123:1 125:1 130:1 141:1 143:1 151:1 159:1 162:1 164:1 167:1 174:1 177:1 178:1 
1.602803071662925 0.8292623878444582 2:1 14:1 20:1 23:1 25:1 28:1 31:1 35:1 37:1 43:1 46:1 49:1 52:1 58:1 71:1 79:1 85:1 90:1 92:1 97:1 101:1 104:1 111:1 113:1 116:1 128:1 135:1 138:1 139:1 142:1 147:1 148:1 151:1 155:1 168:1 170:1 173:1 175:1 
0.6898666625240126 1.055411941904401 2:1 12:1 13:1 18:1 20:1 23:1 26:1 33:1 35:1 38:1 48:1 54:1 56:1 59:1 65:1 68:1 75:1 77:1 79:1 83:1 85:1 90:1 93:1 96:1 97:1 100:1 108:1 110:1 117:1 120:1 122:1 124:1 129:1 132:1 133:1 139:1 142:1 147:1 150:1 151:1 156:1 158:1 162:1 164:1 167:1 169:1 174:1 176:1 
1.117137658043934 0.848798850135028 1:1 6:1 9:1 22:1 26:1 30:1 31:1 40:1 48:1 52:1 60:1 61:1 70:1 74:1 81:1 83:1 85:1 90:1 93:1 97:1 102:1 104:1 108:1 110:1 117:1 120:1 124:1 130:1 138:1 141:1 146:1 148:1 151:1 154:1 162:1 163:1 166:1 174:1 175:1 178:1 
0.352467614936892 0.5163063791668483 6:1 9:1 11:1 14:1 17:1 24:1 25:1 29:1 35:1 37:1 40:1 45:1 47:1 50:1 56:1 66:1 68:1 71:1 80:1 83:1 85:1 90:1 98:1 101:1 105:1 108:1 109:1 112:1 116:1 123:1 125:1 127:1 135:1 137:1 143:1 145:1 149:1 152:1 154:1 158:1 161:1 163:1 170:1 177:1 179:1 
0.372100517242677 0 4:1 7:1 10:1 17:1 26:1 31:1 36:1 38:1 44:1 49:1 64:1 77:1 79:1 83:1 85:1 90:1 91:1 101:1 103:1 115:1 123:1 124:1 129:1 130:1 136:1 141:1 143:1 145:1 148:1 153:1 154:1 157:1 162:1 165:1 167:1 169:1 176:1 179:1 
0.504370422385041 0.1446444051463628 3:1 6:1 9:1 12:1 14:1 17:1 24:1 25:1 33:1 36:1 37:1 41:1 48:1 53:1 56:1 59:1 62:1 64:1 71:1 74:1 81:1 83:1 85:1 90:1 91:1 102:1 103:1 108:1 111:1 112:1 117:1 118:1 123:1 125:1 127:1 131:1 134:1 136:1 140:1 142:1 147:1 153:1 156:1 161:1 163:1 167:1 170:1 172:1 176:1 178:1 
0.08561029113704006 0 2:1 10:1 14:1 41:1 47:1 49:1 59:1 65:1 68:1 73:1 76:1 80:1 83:1 85:1 90:1 93:1 95:1 102:1 103:1 107:1 109:1 118:1 127:1 134:1 138:1 141:1 142:1 146:1 148:1 152:1 160:1 168:1 172:1 179:1 
0 0.4040981024028921 5:1 8:1 11:1 17:1 24:1 33:1 35:1 38:1 41:1 47:1 54:1 57:1 68:1 74:1 77:1 80:1 83:1 85:1 90:1 93:1 95:1 101:1 104:1 107:1 111:1 114:1 115:1 119:1 123:1 128:1 131:1 134:1 141:1 143:1 149:1 152:1 159:1 162:1 164:1 180:1 
0.8809208387462896 0.4296289320119284 3:1 9:1 10:1 15:1 18:1 20:1 22:1 29:1 32:1 34:1 42:1 44:1 47:1 50:1 57:1 59:1 65:1 71:1 78:1 83:1 85:1 90:1 91:1 97:1 101:1 104:1 106:1 111:1 114:1 117:1 119:1 122:1 124:1 128:1 132:1 138:1 140:1 145:1 149:1 153:1 154:1 159:1 162:1 163:1 167:1 170:1 172:1 177:1 180:1 
0.3565953275221914 1.026399005111496 1:1 6:1 7:1 11:1 13:1 27:1 29:1 36:1 38:1 40:1 44:1 56:1 59:1 69:1 71:1 81:1 85:1 90:1 93:1 102:1 105:1 120:1 122:1 126:1 129:1 130:1 141:1 143:1 146:1 148:1 152:1 159:1 160:1 168:1 169:1 179:1 
0 0.1441961347780926 5:1 11:1 17:1 23:1 29:1 38:1 41:1 44:1 47:1 50:1 57:1 59:1 62:1 65:1 68:1 71:1 81:1 83:1 85:1 90:1 93:1 97:1 102:1 103:1 106:1 110:1 117:1 119:1 121:1 129:1 134:1 137:1 139:1 143:1 146:1 151:1 156:1 157:1 161:1 165:1 168:1 169:1 176:1 179:1 
0.9465274036213012 0.301929027818186 3:1 9:1 12:1 14:1 16:1 20:1 23:1 27:1 28:1 32:1 39:1 40:1 44:1 46:1 50:1 56:1 59:1 68:1 71:1 77:1 79:1 85:1 90:1 91:1 96:1 101:1 103:1 111:1 113:1 115:1 118:1 123:1 126:1 129:1 131:1 134:1 138:1 140:1 147:1 149:1 151:1 155:1 162:1 163:1 168:1 171:1 174:1 176:1 
0.2076866458344051 0 1:1 5:1 8:1 11:1 14:1 17:1 19:1 26:1 29:1 35:1 37:1 41:1 47:1 54:1 56:1 62:1 68:1 74:1 81:1 83:1 85:1 90:1 92:1 98:1 101:1 103:1 109:1 112:1 115:1 123:1 128:1 130:1 134:1 137:1 147:1 150:1 153:1 156:1 159:1 161:1 164:1 167:1 169:1 173:1 175:1 178:1 
0.4716481278697856 0 1:1 6:1 9:1 12:1 14:1 17:1 20:1 23:1 29:1 31:1 35:1 38:1 47:1 50:1 53:1 56:1 62:1 65:1 77:1 80:1 83:1 85:1 90:1 91:1 96:1 98:1 101:1 103:1 110:1 119:1 122:1 125:1 127:1 132:1 134:1 137:1 140:1 142:1 146:1 149:1 151:1 158:1 161:1 164:1 167:1 169:1 176:1 180:1 
0.8124174362111057 0.05681606847754689 2:1 5:1 11:1 17:1 24:1 28:1 31:1 35:1 40:1 44:1 47:1 54:1 63:1 68:1 74:1 80:1 83:1 85:1 90:1 92:1 99:1 104:1 109:1 116:1 119:1 121:1 125:1 129:1 130:1 135:1 137:1 141:1 142:1 147:1 148:1 151:1 156:1 157:1 161:1 163:1 168:1 170:1 173:1 176:1 179:1 
0.4577675496293668 0.650490876543719 3:1 5:1 8:1 11:1 14:1 17:1 19:1 22:1 26:1 29:1 31:1 35:1 39:1 41:1 47:1 54:1 63:1 65:1 71:1 81:1 83:1 85:1 90:1 92:1 96:1 97:1 100:1 105:1 107:1 110:1 113:1 115:1 119:1 122:1 124:1 128:1 132:1 133:1 137:1 141:1 143:1 146:1 148:1 153:1 155:1 159:1 161:1 164:1 168:1 170:1 174:1 175:1 179:1 
1.263638134094411 0.726916357415305 1:1 6:1 9:1 11:1 18:1 19:1 24:1 30:1 36:1 38:1 42:1 43:1 51:1 54:1 55:1 59:1 62:1 65:1 72:1 79:1 83:1 85:1 90:1 91:1 94:1 97:1 101:1 104:1 106:1 111:1 113:1 116:1 119:1 126:1 127:1 132:1 134:1 136:1 139:1 142:1 147:1 150:1 153:1 156:1 164:1 171:1 172:1 177:1 180:1 
0.6198785849278392 0.04432835412714545 7:1 13:1 16:1 20:1 30:1 33:1 36:1 38:1 48:1 51:1 56:1 65:1 72:1 79:1 83:1 85:1 90:1 95:1 105:1 108:1 114:1 115:1 123:1 125:1 128:1 138:1 141:1 142:1 146:1 148:1 153:1 155:1 157:1 162:1 164:1 166:1 169:1 173:1 179:1 
1.04040156840509 0.9496298235193281 3:1 9:1 10:1 14:1 22:1 25:1 28:1 31:1 39:1 40:1 43:1 46:1 58:1 76:1 79:1 85:1 90:1 93:1 99:1 100:1 103:1 107:1 109:1 115:1 118:1 124:1 135:1 136:1 141:1 144:1 145:1 150:1 151:1 155:1 157:1 162:1 163:1 166:1 170:1 172:1 178:1 
0 0.03389251901861468 2:1 4:1 9:1 11:1 13:1 20:1 26:1 29:1 32:1 35:1 38:1 41:1 47:1 54:1 57:1 59:1 62:1 71:1 74:1 81:1 83:1 85:1 90:1 93:1 99:1 102:1 107:1 111:1 113:1 115:1 122:1 126:1 127:1 131:1 134:1 136:1 144:1 147:1 152:1 154:1 161:1 163:1 171:1 172:1 175:1 178:1 
0.3064314031557816 0 3:1 5:1 12:1 14:1 21:1 22:1 26:1 28:1 32:1 38:1 44:1 47:1 53:1 56:1 58:1 69:1 71:1 83:1 85:1 90:1 91:1 96:1 101:1 103:1 107:1 110:1 117:1 120:1 126:1 129:1 137:1 144:1 146:1 150:1 152:1 155:1 164:1 167:1 170:1 173:1 178:1 
0.0830401575951472 0 3:1 5:1 12:1 13:1 18:1 21:1 23:1 26:1 33:1 36:1 38:1 44:1 50:1 56:1 59:1 62:1 68:1 71:1 74:1 77:1 81:1 83:1 85:1 90:1 93:1 96:1 102:1 104:1 107:1 110:1 114:1 117:1 121:1 125:1 129:1 135:1 141:1 144:1 145:1 148:1 152:1 155:1 159:1 161:1 163:1 167:1 174:1 175:1 180:1 
0 0.2383416222657115 3:1 5:1 7:1 10:1 13:1 17:1 23:1 29:1 36:1 39:1 41:1 50:1 56:1 62:1 68:1 81:1 83:1 85:1 90:1 91:1 99:1 100:1 104:1 108:1 111:1 113:1 120:1 122:1 125:1 128:1 132:1 133:1 136:1 141:1 143:1 146:1 149:1 152:1 155:1 158:1 162:1 163:1 168:1 169:1 180:1 
0.9190594993299955 0.5599392269459985 2:1 18:1 22:1 25:1 34:1 37:1 45:1 46:1 51:1 52:1 70:1 85:1 90:1 91:1 99:1 101:1 104:1 111:1 112:1 117:1 120:1 121:1 124:1 129:1 135:1 137:1 139:1 143:1 146:1 148:1 156:1 159:1 160:1 165:1 166:1 171:1 174:1 175:1 180:1 
1.276061588844231 0 3:1 6:1 9:1 11:1 15:1 17:1 24:1 29:1 32:1 39:1 53:1 59:1 62:1 69:1 75:1 81:1 83:1 85:1 90:1 91:1 95:1 98:1 102:1 111:1 114:1 117:1 120:1 123:1 126:1 129:1 135:1 136:1 139:1 148:1 152:1 161:1 170:1 174:1 175:1 179:1 
0.8922592009776023 0 2:1 5:1 7:1 15:1 24:1 29:1 36:1 38:1 41:1 43:1 53:1 60:1 63:1 65:1 68:1 80:1 83:1 85:1 90:1 91:1 94:1 98:1 100:1 107:1 109:1 112:1 120:1 122:1 126:1 129:1 131:1 134:1 136:1 139:1 142:1 149:1 154:1 159:1 170:1 173:1 179:1 
0.6875672330185441 1.185874577437977 1:1 6:1 8:1 11:1 15:1 23:1 27:1 30:1 32:1 41:1 48:1 51:1 54:1 56:1 62:1 69:1 74:1 77:1 79:1 83:1 85:1 90:1 93:1 96:1 97:1 105:1 107:1 114:1 116:1 119:1 126:1 127:1 131:1 134:1 137:1 140:1 142:1 145:1 150:1 151:1 154:1 158:1 162:1 168:1 170:1 172:1 176:1 178:1 
0.03097917155699623 0 2:1 4:1 11:1 24:1 33:1 38:1 44:1 56:1 59:1 61:1 68:1 74:1 76:1 79:1 83:1 85:1 90:1 92:1 98:1 101:1 108:1 111:1 114:1 115:1 118:1 121:1 129:1 135:1 137:1 144:1 147:1 153:1 154:1 158:1 161:1 165:1 180:1 
0.5283552042508031 0 6:1 8:1 10:1 15:1 17:1 21:1 22:1 26:1 29:1 35:1 38:1 45:1 59:1 65:1 68:1 78:1 81:1 83:1 85:1 90:1 91:1 94:1 99:1 102:1 103:1 106:1 111:1 113:1 116:1 118:1 125:1 131:1 134:1 137:1 140:1 146:1 149:1 151:1 156:1 157:1 165:1 167:1 171:1 174:1 176:1 179:1 
0.8908789977297928 0.2587802778049406 6:1 9:1 12:1 13:1 19:1 24:1 25:1 28:1 31:1 35:1 41:1 43:1 47:1 56:1 59:1 64:1 68:1 70:1 80:1 83:1 85:1 90:1 91:1 99:1 102:1 103:1 106:1 114:1 116:1 122:1 128:1 135:1 137:1 139:1 144:1 147:1 149:1 152:1 154:1 157:1 162:1 164:1 167:1 170:1 174:1 176:1 178:1 
1.458993005068521 1.781455478277612 2:1 5:1 12:1 15:1 17:1 19:1 22:1 27:1 29:1 33:1 35:1 42:1 43:1 48:1 50:1 54:1 57:1 58:1 63:1 64:1 71:1 81:1 83:1 85:1 90:1 93:1 95:1 97:1 102:1 108:1 111:1 113:1 116:1 126:1 131:1 135:1 140:1 144:1 145:1 148:1 153:1 158:1 165:1 168:1 170:1 173:1 
0.1092967783659039 1.435567222735804 3:1 5:1 8:1 14:1 19:1 29:1 33:1 39:1 41:1 45:1 50:1 56:1 59:1 63:1 68:1 74:1 77:1 81:1 83:1 85:1 90:1 93:1 98:1 100:1 105:1 107:1 113:1 116:1 120:1 122:1 125:1 129:1 130:1 133:1 138:1 141:1 143:1 147:1 149:1 152:1 156:1 158:1 161:1 163:1 166:1 171:1 174:1 175:1 178:1 
0.161704332718551 0 1:1 14:1 16:1 24:1 25:1 30:1 32:1 39:1 41:1 44:1 51:1 57:1 60:1 62:1 68:1 71:1 74:1 77:1 79:1 83:1 85:1 90:1 92:1 94:1 97:1 102:1 104:1 107:1 110:1 120:1 126:1 127:1 134:1 137:1 141:1 144:1 147:1 148:1 153:1 156:1 159:1 160:1 165:1 166:1 171:1 172:1 175:1 180:1 
0.9099751901073238 0.7782085680256516 2:1 4:1 9:1 12:1 17:1 20:1 23:1 30:1 31:1 34:1 37:1 41:1 47:1 59:1 65:1 68:1 76:1 80:1 83:1 85:1 90:1 92:1 97:1 103:1 110:1 117:1 120:1 123:1 129:1 135:1 138:1 144:1 146:1 153:1 156:1 158:1 160:1 165:1 167:1 174:1 180:1 
0.8482496497408788 1.088393360223378 8:1 15:1 18:1 27:1 29:1 32:1 35:1 42:1 43:1 47:1 54:1 56:1 59:1 66:1 81:1 85:1 90:1 93:1 95:1 98:1 100:1 105:1 107:1 110:1 122:1 126:1 127:1 131:1 134:1 137:1 140:1 142:1 146:1 149:1 158:1 161:1 167:1 169:1 176:1 180:1 
0.9143666304661517 0.4968687087024711 3:1 5:1 8:1 15:1 17:1 24:1 25:1 28:1 32:1 38:1 40:1 44:1 46:1 50:1 57:1 68:1 74:1 77:1 79:1 83:1 85:1 90:1 92:1 96:1 98:1 100:1 108:1 109:1 114:1 115:1 120:1 122:1 125:1 128:1 130:1 135:1 137:1 140:1 143:1 147:1 150:1 152:1 154:1 158:1 161:1 164:1 167:1 174:1 180:1 
1.038005336194508 0.738294495436011 2:1 5:1 8:1 12:1 14:1 17:1 20:1 24:1 27:1 30:1 32:1 35:1 38:1 42:1 44:1 47:1 50:1 54:1 56:1 60:1 65:1 68:1 71:1 81:1 85:1 90:1 105:1 108:1 111:1 112:1 117:1 120:1 126:1 127:1 134:1 136:1 141:1 143:1 147:1 148:1 156:1 157:1 162:1 164:1 166:1 170:1 174:1 177:1 179:1 
0.3719273360313348 0.2102958418356514 1:1 18:1 19:1 22:1 26:1 29:1 32:1 35:1 42:1 44:1 47:1 50:1 52:1 59:1 68:1 71:1 78:1 81:1 83:1 85:1 90:1 93:1 95:1 98:1 101:1 103:1 108:1 110:1 113:1 116:1 119:1 121:1 126:1 128:1 131:1 134:1 136:1 141:1 144:1 147:1 150:1 151:1 155:1 158:1 161:1 164:1 166:1 171:1 172:1 176:1 180:1 
0.8768735265438896 0.5774795508799605 3:1 4:1 10:1 14:1 17:1 20:1 28:1 38:1 41:1 44:1 51:1 57:1 60:1 61:1 69:1 74:1 77:1 83:1 85:1 90:1 93:1 95:1 98:1 105:1 107:1 112:1 116:1 123:1 124:1 128:1 131:1 134:1 141:1 143:1 145:1 150:1 152:1 155:1 157:1 162:1 163:1 166:1 170:1 172:1 177:1 178:1 
0.3446339142921853 0.009840016868137175 2:1 6:1 8:1 11:1 17:1 26:1 30:1 32:1 36:1 39:1 44:1 50:1 53:1 56:1 63:1 68:1 71:1 81:1 83:1 85:1 90:1 91:1 94:1 97:1 101:1 106:1 111:1 112:1 116:1 118:1 122:1 124:1 127:1 135:1 141:1 143:1 147:1 148:1 152:1 156:1 157:1 160:1 165:1 166:1 170:1 174:1 175:1 180:1 
1.726835985834909 1.274020992558748 1:1 4:1 7:1 11:1 18:1 19:1 24:1 26:1 33:1 34:1 42:1 43:1 49:1 52:1 61:1 70:1 80:1 85:1 90:1 93:1 95:1 98:1 100:1 104:1 106:1 111:1 112:1 115:1 119:1 126:1 127:1 130:1 133:1 137:1 139:1 146:1 155:1 157:1 162:1 168:1 173:1 178:1 
0.1705495317168588 0.2810089761676485 2:1 5:1 12:1 13:1 16:1 20:1 23:1 25:1 29:1 32:1 41:1 43:1 46:1 50:1 60:1 68:1 71:1 73:1 77:1 79:1 83:1 85:1 90:1 93:1 94:1 102:1 104:1 107:1 109:1 114:1 117:1 119:1 122:1 124:1 127:1 132:1 135:1 141:1 144:1 145:1 150:1 152:1 154:1 157:1 161:1 164:1 168:1 171:1 177:1 180:1 
0 0.1842449540929524 6:1 7:1 11:1 14:1 16:1 21:1 24:1 29:1 32:1 39:1 57:1 65:1 70:1 74:1 80:1 83:1 85:1 90:1 93:1 95:1 97:1 102:1 104:1 108:1 109:1 113:1 115:1 120:1 126:1 128:1 131:1 134:1 136:1 141:1 144:1 147:1 149:1 155:1 162:1 163:1 171:1 177:1 
0.7352948694980334 0.4812114052674155 5:1 15:1 19:1 36:1 51:1 64:1 67:1 70:1 77:1 79:1 83:1 85:1 90:1 93:1 104:1 110:1 112:1 121:1 124:1 128:1 131:1 141:1 147:1 148:1 151:1 156:1 158:1 160:1 163:1 166:1 169:1 174:1 176:1 179:1 
0.3739509451891952 0 1:1 8:1 11:1 21:1 24:1 33:1 39:1 50:1 53:1 63:1 66:1 68:1 71:1 74:1 81:1 83:1 85:1 90:1 92:1 94:1 99:1 102:1 103:1 111:1 112:1 115:1 120:1 122:1 128:1 134:1 137:1 139:1 143:1 150:1 153:1 155:1 157:1 164:1 166:1 
0.4745062624020565 0.1598118258032486 3:1 5:1 7:1 11:1 14:1 17:1 19:1 27:1 28:1 32:1 35:1 42:1 45:1 47:1 53:1 59:1 62:1 65:1 68:1 71:1 80:1 83:1 85:1 90:1 93:1 94:1 99:1 102:1 104:1 111:1 117:1 118:1 121:1 126:1 127:1 132:1 134:1 138:1 141:1 143:1 145:1 155:1 157:1 161:1 164:1 168:1 172:1 176:1 
0.003164503093342873 0 2:1 12:1 14:1 17:1 22:1 28:1 31:1 38:1 47:1 50:1 60:1 65:1 83:1 85:1 90:1 93:1 94:1 97:1 102:1 108:1 109:1 112:1 118:1 121:1 126:1 127:1 130:1 135:1 136:1 144:1 145:1 149:1 151:1 156:1 162:1 173:1 175:1 178:1 
0.07431681353683606 0 3:1 6:1 8:1 11:1 17:1 23:1 26:1 35:1 41:1 50:1 53:1 62:1 64:1 68:1 81:1 83:1 85:1 90:1 91:1 96:1 99:1 101:1 108:1 111:1 112:1 115:1 120:1 121:1 129:1 132:1 134:1 136:1 141:1 143:1 146:1 149:1 152:1 155:1 159:1 162:1 163:1 167:1 174:1 177:1 180:1 
1.183659911471716 1.137375794651309 3:1 4:1 8:1 10:1 15:1 16:1 21:1 23:1 26:1 33:1 36:1 39:1 45:1 48:1 51:1 53:1 55:1 62:1 69:1 71:1 74:1 77:1 79:1 83:1 85:1 90:1 91:1 95:1 102:1 105:1 110:1 113:1 116:1 119:1 122:1 124:1 127:1 132:1 135:1 141:1 144:1 150:1 153:1 154:1 159:1 161:1 168:1 174:1 178:1 
0.4036827582195238 0.5332982838933403 3:1 6:1 8:1 11:1 14:1 17:1 23:1 25:1 29:1 31:1 36:1 39:1 40:1 44:1 46:1 62:1 71:1 74:1 76:1 79:1 83:1 85:1 90:1 93:1 99:1 102:1 103:1 106:1 109:1 112:1 117:1 120:1 121:1 126:1 129:1 132:1 133:1 138:1 140:1 145:1 149:1 155:1 160:1 163:1 168:1 171:1 173:1 180:1 
0.7626288236607593 0.2055439677744917 10:1 14:1 19:1 22:1 34:1 37:1 40:1 45:1 46:1 50:1 53:1 60:1 71:1 74:1 77:1 79:1 85:1 90:1 93:1 94:1 99:1 101:1 107:1 109:1 114:1 119:1 126:1 127:1 130:1 136:1 146:1 156:1 159:1 160:1 165:1 166:1 169:1 172:1 177:1 178:1 
0 0.4048913484417299 2:1 5:1 11:1 18:1 19:1 36:1 38:1 47:1 50:1 53:1 55:1 59:1 62:1 71:1 74:1 81:1 83:1 85:1 90:1 93:1 99:1 102:1 103:1 106:1 111:1 116:1 118:1 121:1 126:1 127:1 135:1 138:1 139:1 144:1 147:1 150:1 153:1 156:1 157:1 161:1 167:1 174:1 180:1 
0.3856060802174425 0 1:1 6:1 9:1 10:1 14:1 18:1 20:1 26:1 28:1 33:1 39:1 41:1 48:1 50:1 66:1 68:1 71:1 83:1 85:1 90:1 91:1 94:1 97:1 101:1 104:1 110:1 113:1 120:1 122:1 124:1 127:1 130:1 133:1 138:1 144:1 147:1 148:1 151:1 156:1 158:1 162:1 163:1 166:1 171:1 173:1 176:1 180:1 
0.6759476360639164 0.5839221718846447 1:1 5:1 15:1 16:1 19:1 22:1 28:1 47:1 53:1 56:1 58:1 62:1 64:1 70:1 83:1 85:1 90:1 105:1 113:1 115:1 123:1 124:1 127:1 133:1 143:1 145:1 148:1 153:1 154:1 157:1 162:1 163:1 167:1 169:1 176:1 179:1 
0.1168094906754723 0.5097820112686919 2:1 5:1 8:1 11:1 17:1 22:1 25:1 29:1 32:1 34:1 41:1 48:1 54:1 56:1 68:1 74:1 77:1 80:1 83:1 85:1 90:1 93:1 96:1 97:1 101:1 111:1 115:1 119:1 121:1 126:1 128:1 130:1 133:1 136:1 139:1 144:1 146:1 148:1 152:1 154:1 159:1 161:1 163:1 168:1 170:1 173:1 175:1 
0.1618005877444676 0 3:1 5:1 7:1 11:1 13:1 18:1 20:1 23:1 25:1 28:1 36:1 38:1 41:1 44:1 48:1 53:1 56:1 65:1 68:1 71:1 74:1 81:1 83:1 85:1 90:1 91:1 94:1 98:1 101:1 106:1 111:1 112:1 117:1 119:1 126:1 128:1 134:1 137:1 141:1 143:1 145:1 152:1 158:1 161:1 164:1 171:1 173:1 180:1 
0.7887074027646491 0.08846327544070402 5:1 13:1 16:1 20:1 23:1 26:1 28:1 31:1 36:1 41:1 44:1 47:1 51:1 58:1 62:1 68:1 77:1 80:1 83:1 85:1 90:1 93:1 94:1 98:1 101:1 103:1 107:1 119:1 126:1 138:1 139:1 145:1 148:1 153:1 155:1 158:1 165:1 171:1 176:1 179:1 
0.9934475408245983 0.4203912698544253 2:1 12:1 14:1 17:1 19:1 23:1 30:1 32:1 34:1 38:1 44:1 47:1 49:1 55:1 59:1 66:1 68:1 70:1 78:1 79:1 83:1 85:1 90:1 91:1 96:1 98:1 100:1 103:1 108:1 109:1 113:1 116:1 119:1 126:1 131:1 137:1 145:1 150:1 151:1 154:1 157:1 160:1 163:1 166:1 171:1 172:1 175:1 178:1 
1.263029182899059 0 1:1 4:1 7:1 15:1 21:1 22:1 25:1 38:1 45:1 48:1 49:1 79:1 85:1 90:1 92:1 94:1 102:1 114:1 120:1 125:1 127:1 136:1 141:1 147:1 148:1 151:1 154:1 158:1 165:1 168:1 169:1 172:1 175:1 178:1 
0.2027929778855667 0.2767108363302909 3:1 7:1 24:1 25:1 29:1 32:1 35:1 40:1 44:1 47:1 53:1 57:1 68:1 71:1 81:1 85:1 90:1 93:1 98:1 104:1 106:1 111:1 113:1 116:1 126:1 129:1 130:1 137:1 139:1 144:1 147:1 148:1 153:1 154:1 163:1 174:1 175:1 178:1 
0.154901614245206 0.1463943558859228 1:1 6:1 8:1 11:1 14:1 20:1 22:1 25:1 29:1 32:1 35:1 44:1 51:1 56:1 62:1 64:1 68:1 71:1 74:1 80:1 83:1 85:1 90:1 92:1 95:1 100:1 103:1 106:1 111:1 113:1 119:1 122:1 132:1 133:1 137:1 139:1 142:1 146:1 153:1 156:1 159:1 160:1 164:1 166:1 171:1 173:1 177:1 
2 1.994616583784488 3:1 9:1 12:1 15:1 24:1 33:1 34:1 39:1 42:1 45:1 48:1 49:1 52:1 56:1 58:1 63:1 66:1 69:1 72:1 73:1 77:1 79:1 85:1 90:1 92:1 99:1 105:1 107:1 112:1 120:1 121:1 126:1 129:1 140:1 153:1 154:1 158:1 167:1 169:1 172:1 180:1 
0.770583965228078 0.8500545112111427 4:1 7:1 10:1 15:1 18:1 26:1 34:1 41:1 47:1 53:1 58:1 65:1 70:1 74:1 85:1 90:1 93:1 94:1 97:1 102:1 103:1 110:1 113:1 115:1 120:1 122:1 131:1 134:1 136:1 139:1 144:1 150:1 152:1 155:1 157:1 161:1 168:1 170:1 172:1 177:1 
1.398514635813151 0 5:1 13:1 16:1 22:1 25:1 29:1 31:1 34:1 42:1 44:1 46:1 55:1 61:1 65:1 77:1 85:1 90:1 91:1 94:1 103:1 107:1 109:1 112:1 117:1 118:1 121:1 128:1 131:1 134:1 136:1 139:1 142:1 146:1 152:1 154:1 158:1 161:1 163:1 168:1 171:1 172:1 180:1 
0.2238783402734958 0.4245356881443368 2:1 5:1 11:1 14:1 17:1 24:1 26:1 29:1 32:1 35:1 37:1 50:1 53:1 58:1 62:1 65:1 68:1 71:1 73:1 77:1 79:1 83:1 85:1 90:1 93:1 98:1 101:1 104:1 111:1 113:1 116:1 118:1 125:1 131:1 134:1 144:1 147:1 149:1 152:1 157:1 165:1 166:1 171:1 174:1 176:1 178:1 
0.6841195194489527 0.6845895468149327 2:1 11:1 14:1 19:1 23:1 30:1 31:1 34:1 37:1 41:1 48:1 49:1 52:1 56:1 59:1 62:1 68:1 71:1 73:1 76:1 80:1 83:1 85:1 90:1 93:1 96:1 97:1 102:1 104:1 107:1 110:1 113:1 117:1 118:1 123:1 127:1 134:1 138:1 141:1 143:1 145:1 150:1 152:1 154:1 159:1 164:1 166:1 171:1 173:1 175:1 180:1 
0.9426352930084546 0.6275502390754597 3:1 5:1 8:1 10:1 14:1 16:1 21:1 23:1 26:1 29:1 31:1 36:1 53:1 59:1 66:1 67:1 71:1 74:1 77:1 79:1 85:1 90:1 95:1 105:1 107:1 111:1 113:1 116:1 119:1 122:1 124:1 129:1 132:1 133:1 138:1 143:1 152:1 154:1 159:1 165:1 171:1 177:1 178:1 
0 0.5059060441274764 2:1 9:1 14:1 17:1 24:1 30:1 33:1 36:1 44:1 47:1 53:1 59:1 61:1 65:1 68:1 71:1 77:1 83:1 85:1 90:1 93:1 102:1 104:1 111:1 114:1 119:1 123:1 128:1 133:1 137:1 140:1 143:1 145:1 153:1 156:1 157:1 161:1 164:1 167:1 169:1 174:1 175:1 180:1 
0.2785478850187565 0.4828285983822563 2:1 5:1 7:1 12:1 17:1 19:1 23:1 26:1 28:1 32:1 34:1 39:1 42:1 43:1 47:1 50:1 53:1 56:1 66:1 71:1 74:1 77:1 79:1 83:1 85:1 90:1 93:1 98:1 104:1 117:1 118:1 123:1 125:1 128:1 135:1 138:1 139:1 144:1 145:1 149:1 151:1 159:1 160:1 163:1 166:1 172:1 176:1 180:1 
0.3945973093808033 1.103982457038535 2:1 8:1 10:1 21:1 22:1 25:1 28:1 32:1 34:1 39:1 41:1 46:1 52:1 65:1 83:1 85:1 90:1 91:1 100:1 105:1 111:1 112:1 120:1 121:1 129:1 130:1 133:1 137:1 140:1 142:1 147:1 150:1 157:1 165:1 166:1 170:1 173:1 
0.2687586700232714 0.6280441123737275 2:1 6:1 12:1 13:1 18:1 24:1 25:1 32:1 35:1 42:1 47:1 50:1 56:1 62:1 65:1 67:1 71:1 74:1 77:1 81:1 83:1 85:1 90:1 93:1 96:1 98:1 101:1 105:1 107:1 111:1 119:1 123:1 125:1 127:1 131:1 134:1 136:1 139:1 142:1 145:1 149:1 152:1 156:1 162:1 163:1 166:1 171:1 172:1 175:1 180:1 
1.952474390370071 2 3:1 6:1 7:1 10:1 14:1 19:1 22:1 27:1 30:1 31:1 36:1 38:1 41:1 43:1 51:1 54:1 55:1 62:1 69:1 72:1 77:1 80:1 85:1 90:1 93:1 95:1 97:1 105:1 108:1 114:1 117:1 123:1 124:1 129:1 132:1 133:1 137:1 142:1 146:1 150:1 155:1 164:1 170:1 173:1 176:1 
0.5341482607233591 0.2521061243285839 3:1 5:1 9:1 11:1 13:1 17:1 19:1 23:1 26:1 29:1 35:1 38:1 41:1 45:1 47:1 53:1 65:1 69:1 72:1 74:1 81:1 83:1 85:1 90:1 93:1 94:1 98:1 102:1 104:1 111:1 112:1 120:1 123:1 124:1 128:1 132:1 133:1 138:1 139:1 143:1 146:1 148:1 156:1 157:1 160:1 165:1 168:1 169:1 174:1 
0.738014401719571 1.052734563311472 2:1 9:1 17:1 23:1 36:1 39:1 41:1 48:1 54:1 60:1 66:1 68:1 81:1 85:1 90:1 97:1 105:1 110:1 112:1 116:1 120:1 122:1 124:1 131:1 138:1 139:1 147:1 148:1 151:1 156:1 158:1 162:1 163:1 166:1 176:1 178:1 
0 1.633949544557106 2:1 5:1 8:1 10:1 14:1 20:1 27:1 28:1 32:1 39:1 45:1 47:1 50:1 53:1 59:1 66:1 68:1 71:1 74:1 81:1 83:1 85:1 90:1 93:1 94:1 99:1 100:1 105:1 109:1 117:1 118:1 122:1 125:1 132:1 134:1 138:1 141:1 143:1 147:1 149:1 156:1 159:1 162:1 163:1 168:1 169:1 172:1 177:1 
1.152630912122835 0.2436413781003478 2:1 5:1 7:1 10:1 15:1 18:1 20:1 25:1 28:1 32:1 41:1 48:1 66:1 73:1 77:1 85:1 90:1 99:1 102:1 103:1 108:1 109:1 112:1 117:1 120:1 121:1 124:1 128:1 132:1 133:1 138:1 139:1 144:1 145:1 148:1 153:1 156:1 157:1 160:1 163:1 172:1 177:1 
0.2035251373798017 0.1164709568857144 4:1 10:1 13:1 24:1 36:1 37:1 44:1 46:1 59:1 68:1 71:1 80:1 83:1 85:1 90:1 93:1 96:1 99:1 101:1 103:1 106:1 109:1 112:1 117:1 118:1 122:1 124:1 132:1 138:1 141:1 142:1 147:1 148:1 153:1 155:1 158:1 163:1 167:1 173:1 180:1 
0.03221871557687605 0.706702205437158 1:1 11:1 14:1 16:1 19:1 22:1 25:1 28:1 36:1 38:1 50:1 62:1 65:1 68:1 71:1 74:1 81:1 83:1 85:1 90:1 93:1 99:1 100:1 105:1 106:1 109:1 114:1 115:1 123:1 124:1 128:1 130:1 135:1 136:1 141:1 144:1 145:1 148:1 153:1 154:1 157:1 162:1 166:1 171:1 172:1 177:1 178:1 
0.09211738557224065 0.3936136078344082 2:1 5:1 7:1 11:1 14:1 17:1 23:1 26:1 28:1 33:1 35:1 38:1 41:1 44:1 47:1 49:1 52:1 56:1 62:1 65:1 71:1 74:1 81:1 83:1 85:1 90:1 91:1 95:1 97:1 100:1 105:1 107:1 114:1 117:1 123:1 128:1 133:1 136:1 141:1 142:1 145:1 149:1 154:1 158:1 161:1 164:1 168:1 171:1 172:1 176:1 
1.433402637401482 1.145297393101353 3:1 6:1 9:1 10:1 13:1 17:1 20:1 27:1 28:1 32:1 36:1 39:1 40:1 45:1 46:1 50:1 53:1 56:1 63:1 66:1 69:1 71:1 80:1 83:1 85:1 90:1 93:1 99:1 102:1 104:1 107:1 109:1 116:1 118:1 121:1 124:1 128:1 130:1 134:1 138:1 144:1 147:1 148:1 153:1 154:1 157:1 162:1 165:1 166:1 170:1 173:1 177:1 180:1 
0.3394709192615656 0 9:1 11:1 17:1 19:1 24:1 26:1 29:1 35:1 39:1 41:1 48:1 50:1 60:1 62:1 65:1 71:1 74:1 81:1 83:1 85:1 90:1 91:1 95:1 99:1 101:1 104:1 108:1 110:1 113:1 115:1 120:1 123:1 125:1 128:1 132:1 133:1 138:1 140:1 143:1 145:1 150:1 158:1 161:1 165:1 168:1 171:1 177:1 
0.2834801300385381 0 2:1 8:1 10:1 14:1 18:1 19:1 24:1 27:1 29:1 39:1 41:1 47:1 53:1 63:1 71:1 74:1 83:1 85:1 90:1 91:1 94:1 99:1 101:1 108:1 116:1 123:1 126:1 127:1 140:1 148:1 152:1 154:1 159:1 165:1 168:1 174:1 175:1 180:1 
0.6127491240213501 0.5138072532456437 3:1 9:1 12:1 15:1 16:1 20:1 23:1 29:1 31:1 34:1 38:1 44:1 47:1 56:1 59:1 62:1 65:1 67:1 74:1 77:1 79:1 83:1 85:1 90:1 91:1 94:1 97:1 105:1 108:1 114:1 116:1 121:1 125:1 128:1 131:1 133:1 138:1 140:1 146:1 148:1 151:1 156:1 158:1 161:1 168:1 171:1 174:1 176:1 179:1 
0.6113502836142308 0 1:1 11:1 18:1 23:1 25:1 29:1 33:1 38:1 45:1 50:1 52:1 60:1 66:1 71:1 74:1 77:1 80:1 83:1 85:1 90:1 94:1 98:1 101:1 107:1 110:1 112:1 117:1 118:1 123:1 126:1 130:1 133:1 137:1 144:1 150:1 152:1 158:1 160:1 164:1 168:1 169:1 172:1 176:1 178:1 
0.5843640615171881 1.879021565436528 1:1 5:1 12:1 13:1 18:1 23:1 26:1 29:1 32:1 36:1 42:1 44:1 53:1 56:1 59:1 62:1 65:1 77:1 80:1 85:1 90:1 93:1 95:1 97:1 100:1 105:1 108:1 109:1 114:1 115:1 118:1 123:1 126:1 127:1 132:1 134:1 137:1 140:1 143:1 150:1 153:1 154:1 159:1 164:1 168:1 170:1 172:1 177:1 
0.8213520034308192 0.8370634377293831 1:1 6:1 9:1 10:1 15:1 18:1 19:1 22:1 26:1 29:1 32:1 34:1 41:1 45:1 46:1 53:1 60:1 65:1 78:1 81:1 83:1 85:1 90:1 91:1 99:1 102:1 105:1 106:1 109:1 112:1 116:1 120:1 121:1 125:1 131:1 137:1 141:1 144:1 145:1 154:1 160:1 165:1 167:1 169:1 176:1 180:1 
0 0.02820146945441149 3:1 5:1 7:1 11:1 13:1 18:1 20:1 23:1 25:1 29:1 36:1 38:1 41:1 45:1 48:1 53:1 56:1 65:1 68:1 71:1 74:1 81:1 83:1 85:1 90:1 91:1 94:1 101:1 106:1 111:1 112:1 117:1 119:1 126:1 128:1 134:1 137:1 141:1 143:1 145:1 152:1 158:1 161:1 164:1 171:1 173:1 180:1 
0.8587714988341638 0.5224839260419241 2:1 5:1 14:1 16:1 20:1 23:1 26:1 28:1 35:1 38:1 41:1 44:1 51:1 56:1 59:1 62:1 69:1 71:1 75:1 78:1 80:1 83:1 85:1 90:1 93:1 98:1 102:1 103:1 108:1 111:1 117:1 118:1 129:1 132:1 135:1 138:1 141:1 142:1 147:1 149:1 151:1 156:1 157:1 161:1 163:1 166:1 171:1 175:1 179:1 
0.801253205175871 0.528748120645805 2:1 5:1 8:1 10:1 14:1 17:1 20:1 23:1 26:1 28:1 35:1 38:1 41:1 44:1 49:1 57:1 60:1 62:1 68:1 77:1 80:1 85:1 90:1 93:1 94:1 99:1 100:1 104:1 107:1 110:1 113:1 115:1 120:1 122:1 124:1 127:1 132:1 134:1 136:1 141:1 142:1 145:1 149:1 155:1 157:1 161:1 168:1 170:1 176:1 
0.3492284796469724 0 1:1 6:1 9:1 11:1 14:1 17:1 19:1 26:1 29:1 32:1 37:1 41:1 47:1 50:1 56:1 62:1 65:1 71:1 73:1 77:1 79:1 83:1 85:1 90:1 91:1 96:1 99:1 102:1 105:1 106:1 110:1 113:1 119:1 121:1 125:1 128:1 131:1 134:1 136:1 141:1 142:1 146:1 150:1 151:1 156:1 159:1 165:1 168:1 174:1 177:1 179:1 
0.4969731748119423 0.4581141133957545 1:1 6:1 9:1 12:1 15:1 18:1 23:1 26:1 29:1 36:1 37:1 42:1 44:1 47:1 50:1 57:1 62:1 65:1 71:1 74:1 81:1 83:1 85:1 90:1 93:1 94:1 104:1 107:1 112:1 116:1 119:1 123:1 126:1 127:1 130:1 135:1 137:1 139:1 144:1 147:1 153:1 156:1 161:1 163:1 174:1 175:1 
0.1901883261148128 0 2:1 5:1 8:1 11:1 18:1 21:1 23:1 30:1 31:1 39:1 41:1 44:1 46:1 50:1 56:1 59:1 69:1 71:1 74:1 76:1 81:1 83:1 85:1 90:1 91:1 96:1 98:1 102:1 113:1 123:1 124:1 127:1 134:1 137:1 139:1 144:1 146:1 150:1 153:1 156:1 159:1 160:1 164:1 167:1 170:1 172:1 177:1 179:1 
0.3596109723482934 0.2412807306291481 3:1 7:1 12:1 14:1 17:1 23:1 25:1 29:1 35:1 38:1 41:1 43:1 48:1 50:1 53:1 56:1 66:1 83:1 85:1 90:1 93:1 94:1 102:1 108:1 116:1 123:1 126:1 129:1 131:1 134:1 136:1 139:1 144:1 148:1 152:1 154:1 158:1 160:1 165:1 168:1 174:1 175:1 180:1 
0.5960192200655172 1.360312099852416 5:1 7:1 10:1 17:1 22:1 25:1 30:1 33:1 35:1 51:1 57:1 58:1 65:1 69:1 74:1 77:1 79:1 83:1 85:1 90:1 93:1 99:1 100:1 104:1 106:1 109:1 116:1 122:1 125:1 127:1 130:1 136:1 141:1 142:1 146:1 156:1 162:1 167:1 176:1 178:1 
0.6951994732352716 0 2:1 4:1 9:1 11:1 14:1 17:1 24:1 25:1 29:1 31:1 35:1 42:1 44:1 47:1 50:1 57:1 59:1 72:1 74:1 81:1 83:1 85:1 90:1 92:1 95:1 98:1 107:1 116:1 118:1 122:1 125:1 129:1 130:1 138:1 139:1 144:1 150:1 152:1 154:1 158:1 162:1 170:1 172:1 175:1 180:1 
0.3707399249863804 0 6:1 8:1 14:1 26:1 41:1 48:1 59:1 61:1 65:1 71:1 77:1 85:1 90:1 91:1 98:1 100:1 104:1 107:1 111:1 114:1 116:1 120:1 124:1 127:1 134:1 136:1 139:1 143:1 146:1 149:1 151:1 156:1 158:1 162:1 171:1 174:1 175:1 179:1 
0 0.2353658370783118 6:1 11:1 14:1 17:1 26:1 33:1 35:1 38:1 50:1 53:1 65:1 68:1 80:1 83:1 85:1 90:1 93:1 96:1 99:1 101:1 107:1 111:1 114:1 117:1 118:1 122:1 124:1 132:1 138:1 141:1 142:1 147:1 148:1 153:1 155:1 158:1 163:1 167:1 173:1 180:1 
0.5014353266008466 0 1:1 9:1 11:1 14:1 21:1 22:1 25:1 41:1 48:1 49:1 53:1 59:1 68:1 71:1 78:1 83:1 85:1 90:1 91:1 95:1 98:1 101:1 104:1 107:1 110:1 113:1 115:1 118:1 123:1 124:1 128:1 130:1 134:1 136:1 142:1 150:1 151:1 155:1 158:1 161:1 163:1 167:1 170:1 172:1 176:1 179:1 
0.7520217734670531 0.4282433607439131 6:1 7:1 10:1 23:1 30:1 32:1 38:1 44:1 47:1 54:1 56:1 59:1 66:1 74:1 85:1 90:1 92:1 97:1 104:1 107:1 111:1 117:1 120:1 125:1 128:1 135:1 136:1 139:1 143:1 146:1 148:1 153:1 160:1 168:1 174:1 180:1 
0.04677561438141985 0.2017909018045268 5:1 8:1 11:1 14:1 20:1 22:1 26:1 28:1 33:1 36:1 39:1 40:1 43:1 46:1 62:1 71:1 74:1 77:1 79:1 83:1 85:1 90:1 93:1 99:1 102:1 103:1 106:1 109:1 112:1 117:1 120:1 121:1 126:1 129:1 132:1 133:1 138:1 140:1 145:1 149:1 155:1 161:1 163:1 168:1 171:1 173:1 180:1 
1.842111359097737 0.2647529114185818 1:1 8:1 11:1 14:1 20:1 23:1 26:1 29:1 31:1 34:1 38:1 41:1 48:1 54:1 56:1 59:1 62:1 72:1 77:1 85:1 89:1 91:1 96:1 97:1 102:1 104:1 106:1 110:1 117:1 118:1 122:1 124:1 128:1 132:1 135:1 137:1 143:1 146:1 149:1 153:1 156:1 159:1 160:1 164:1 167:1 173:1 177:1 180:1 
0.1526960884766258 0 2:1 8:1 10:1 14:1 16:1 30:1 32:1 42:1 59:1 66:1 69:1 71:1 77:1 79:1 83:1 85:1 90:1 91:1 95:1 97:1 105:1 110:1 114:1 115:1 120:1 123:1 124:1 127:1 132:1 135:1 137:1 153:1 159:1 170:1 173:1 176:1 178:1 
0.4502287364047829 0.1747751798015358 5:1 14:1 16:1 19:1 31:1 34:1 38:1 50:1 52:1 56:1 58:1 71:1 83:1 85:1 90:1 93:1 94:1 97:1 103:1 106:1 110:1 112:1 123:1 125:1 128:1 130:1 133:1 136:1 140:1 144:1 149:1 151:1 155:1 159:1 160:1 168:1 169:1 172:1 
0.673856100781494 0.1756501621504523 2:1 6:1 9:1 10:1 15:1 17:1 20:1 23:1 29:1 31:1 35:1 38:1 40:1 45:1 47:1 49:1 63:1 74:1 77:1 79:1 83:1 85:1 90:1 92:1 95:1 99:1 100:1 106:1 115:1 123:1 127:1 131:1 133:1 137:1 141:1 144:1 147:1 150:1 151:1 155:1 157:1 162:1 171:1 172:1 176:1 
0.5057769806624137 0.7480399174395865 3:1 5:1 11:1 13:1 16:1 20:1 23:1 25:1 29:1 31:1 36:1 39:1 42:1 43:1 47:1 50:1 53:1 56:1 62:1 68:1 74:1 81:1 83:1 85:1 90:1 93:1 96:1 98:1 105:1 108:1 110:1 113:1 116:1 119:1 126:1 129:1 131:1 133:1 136:1 141:1 144:1 146:1 149:1 152:1 156:1 159:1 162:1 163:1 167:1 169:1 174:1 177:1 178:1 
0.9283471083395073 0.232252562888449 11:1 20:1 26:1 36:1 37:1 44:1 50:1 65:1 71:1 75:1 78:1 79:1 83:1 85:1 90:1 91:1 96:1 97:1 100:1 108:1 109:1 112:1 117:1 118:1 121:1 124:1 135:1 136:1 144:1 153:1 159:1 160:1 164:1 166:1 171:1 175:1 180:1 
0.7372598201432423 0.8502338216796214 2:1 4:1 9:1 14:1 17:1 20:1 24:1 27:1 29:1 32:1 36:1 39:1 45:1 47:1 50:1 57:1 60:1 63:1 68:1 71:1 74:1 76:1 79:1 83:1 85:1 90:1 91:1 96:1 99:1 100:1 105:1 108:1 110:1 113:1 117:1 123:1 126:1 127:1 132:1 135:1 136:1 141:1 144:1 145:1 150:1 151:1 155:1 157:1 162:1 165:1 166:1 171:1 172:1 180:1 
0.4112596243391574 0.2940762452399902 5:1 10:1 14:1 17:1 21:1 26:1 29:1 32:1 44:1 47:1 50:1 52:1 56:1 58:1 62:1 64:1 68:1 74:1 81:1 83:1 85:1 90:1 91:1 94:1 99:1 102:1 108:1 111:1 117:1 126:1 131:1 140:1 147:1 150:1 153:1 158:1 162:1 165:1 168:1 171:1 173:1 176:1 178:1 
1.013266149083514 0.9774474075065883 5:1 8:1 15:1 16:1 20:1 27:1 33:1 36:1 37:1 41:1 48:1 53:1 56:1 59:1 66:1 69:1 71:1 81:1 83:1 85:1 90:1 93:1 94:1 99:1 100:1 108:1 109:1 112:1 120:1 122:1 125:1 128:1 135:1 136:1 141:1 142:1 147:1 150:1 152:1 155:1 157:1 162:1 165:1 171:1 174:1 177:1 
0.3026740552165081 0 5:1 10:1 21:1 24:1 25:1 28:1 31:1 35:1 38:1 44:1 46:1 53:1 65:1 74:1 83:1 85:1 90:1 91:1 96:1 98:1 101:1 104:1 107:1 118:1 121:1 125:1 127:1 130:1 134:1 137:1 141:1 143:1 150:1 153:1 157:1 164:1 166:1 169:1 172:1 180:1 
0.02959132264316769 0 1:1 7:1 11:1 14:1 19:1 30:1 35:1 37:1 56:1 77:1 79:1 83:1 85:1 90:1 91:1 94:1 97:1 100:1 103:1 108:1 114:1 120:1 123:1 124:1 129:1 130:1 133:1 138:1 139:1 142:1 145:1 150:1 151:1 155:1 159:1 162:1 163:1 168:1 169:1 174:1 178:1 
1.353806180053874 0.7864565987945495 1:1 5:1 8:1 11:1 13:1 17:1 32:1 35:1 41:1 50:1 53:1 55:1 59:1 65:1 72:1 75:1 76:1 81:1 83:1 85:1 90:1 92:1 94:1 101:1 105:1 108:1 114:1 115:1 120:1 132:1 134:1 141:1 147:1 150:1 151:1 155:1 157:1 160:1 165:1 168:1 171:1 173:1 175:1 179:1 
0.8605235878272767 0.7670321153663181 2:1 4:1 7:1 11:1 18:1 21:1 24:1 27:1 28:1 32:1 35:1 41:1 43:1 47:1 50:1 53:1 59:1 62:1 65:1 67:1 74:1 77:1 80:1 83:1 85:1 90:1 93:1 94:1 97:1 101:1 104:1 106:1 114:1 115:1 118:1 122:1 126:1 128:1 135:1 137:1 140:1 147:1 153:1 154:1 159:1 161:1 168:1 170:1 177:1 180:1 
0.9401731590976307 0.2932589318619245 1:1 4:1 9:1 12:1 13:1 17:1 25:1 30:1 36:1 37:1 41:1 44:1 47:1 49:1 53:1 57:1 58:1 62:1 65:1 68:1 71:1 79:1 83:1 85:1 90:1 96:1 101:1 106:1 110:1 112:1 123:1 126:1 129:1 131:1 134:1 136:1 141:1 143:1 145:1 150:1 153:1 154:1 158:1 161:1 175:1 180:1 
0.5231029363127223 0.5757357572926051 2:1 4:1 9:1 10:1 18:1 21:1 24:1 26:1 32:1 34:1 38:1 42:1 45:1 47:1 50:1 52:1 59:1 62:1 65:1 71:1 74:1 81:1 83:1 85:1 90:1 93:1 94:1 99:1 101:1 103:1 108:1 110:1 114:1 115:1 119:1 126:1 129:1 130:1 134:1 137:1 140:1 142:1 147:1 148:1 153:1 155:1 158:1 160:1 168:1 174:1 177:1 179:1 
1.122891287144473 0.1099120994113511 3:1 4:1 7:1 21:1 29:1 31:1 39:1 40:1 44:1 49:1 60:1 66:1 74:1 81:1 85:1 90:1 92:1 95:1 102:1 103:1 108:1 109:1 113:1 115:1 120:1 122:1 129:1 131:1 134:1 141:1 147:1 153:1 156:1 159:1 160:1 164:1 171:1 172:1 177:1 178:1 
0.4024058393970648 0 3:1 4:1 7:1 21:1 29:1 31:1 39:1 40:1 44:1 49:1 65:1 74:1 81:1 85:1 90:1 92:1 95:1 102:1 103:1 108:1 109:1 113:1 115:1 120:1 122:1 129:1 131:1 134:1 144:1 150:1 156:1 158:1 162:1 163:1 167:1 174:1 175:1 180:1 
1.10860542251374 0.566114806298982 2:1 5:1 8:1 10:1 14:1 16:1 19:1 23:1 25:1 30:1 36:1 54:1 56:1 59:1 66:1 69:1 71:1 74:1 77:1 81:1 85:1 90:1 95:1 105:1 106:1 110:1 113:1 116:1 119:1 121:1 124:1 127:1 132:1 133:1 136:1 139:1 143:1 152:1 154:1 159:1 165:1 171:1 177:1 180:1 
0.2721772419914357 0.479167370616162 6:1 8:1 11:1 21:1 23:1 30:1 31:1 35:1 39:1 41:1 44:1 47:1 53:1 56:1 59:1 63:1 68:1 71:1 74:1 77:1 81:1 83:1 85:1 90:1 93:1 95:1 99:1 102:1 104:1 106:1 109:1 114:1 118:1 122:1 126:1 132:1 134:1 137:1 140:1 143:1 147:1 149:1 153:1 155:1 158:1 162:1 168:1 170:1 176:1 180:1 
0.5642439305863971 0.5545986367154847 9:1 10:1 23:1 25:1 30:1 36:1 38:1 45:1 48:1 49:1 58:1 68:1 81:1 83:1 85:1 90:1 91:1 94:1 97:1 100:1 114:1 115:1 120:1 121:1 124:1 129:1 131:1 133:1 136:1 144:1 147:1 150:1 152:1 154:1 161:1 164:1 171:1 172:1 175:1 180:1 
0.9125970042733209 0.220958030864862 2:1 8:1 11:1 13:1 21:1 24:1 31:1 35:1 42:1 45:1 48:1 52:1 56:1 59:1 62:1 65:1 68:1 74:1 77:1 80:1 83:1 85:1 90:1 92:1 96:1 98:1 105:1 106:1 111:1 115:1 119:1 122:1 125:1 127:1 132:1 133:1 137:1 140:1 146:1 149:1 153:1 154:1 157:1 160:1 165:1 167:1 169:1 173:1 175:1 178:1 
0.7502889917135676 0.4598225046771673 2:1 5:1 15:1 16:1 20:1 26:1 29:1 32:1 35:1 39:1 42:1 45:1 47:1 54:1 60:1 66:1 68:1 70:1 83:1 85:1 90:1 91:1 95:1 99:1 102:1 105:1 107:1 114:1 120:1 122:1 129:1 130:1 133:1 137:1 139:1 143:1 150:1 152:1 154:1 159:1 161:1 171:1 172:1 175:1 
0 0.8631540382534622 3:1 9:1 12:1 14:1 17:1 19:1 23:1 25:1 30:1 32:1 38:1 44:1 47:1 53:1 56:1 59:1 63:1 65:1 68:1 72:1 74:1 77:1 81:1 83:1 85:1 90:1 93:1 98:1 107:1 110:1 116:1 118:1 122:1 125:1 129:1 131:1 144:1 146:1 150:1 152:1 156:1 158:1 161:1 164:1 167:1 171:1 172:1 175:1 180:1 
0.3271101461743329 0.2663350481878136 3:1 6:1 11:1 13:1 18:1 20:1 22:1 26:1 30:1 35:1 38:1 41:1 44:1 47:1 50:1 59:1 62:1 65:1 71:1 74:1 77:1 81:1 83:1 85:1 90:1 93:1 96:1 97:1 102:1 104:1 108:1 111:1 112:1 116:1 118:1 126:1 129:1 130:1 134:1 139:1 143:1 147:1 148:1 152:1 158:1 162:1 166:1 170:1 173:1 175:1 180:1 
0.4894893689260824 0.2937927987788455 6:1 8:1 15:1 16:1 19:1 22:1 25:1 29:1 31:1 35:1 37:1 45:1 46:1 50:1 59:1 83:1 85:1 90:1 93:1 95:1 100:1 109:1 114:1 122:1 126:1 133:1 137:1 139:1 143:1 146:1 148:1 151:1 156:1 157:1 160:1 163:1 168:1 172:1 176:1 179:1 
0.1384174090926976 0 3:1 6:1 11:1 17:1 23:1 26:1 35:1 41:1 51:1 53:1 62:1 64:1 68:1 81:1 83:1 85:1 90:1 91:1 96:1 99:1 101:1 108:1 111:1 112:1 115:1 120:1 121:1 125:1 129:1 132:1 134:1 136:1 141:1 143:1 146:1 148:1 152:1 155:1 162:1 163:1 167:1 174:1 177:1 180:1 
0.06958483081764101 1.077587646770461 1:1 8:1 11:1 20:1 23:1 29:1 32:1 34:1 38:1 41:1 47:1 54:1 57:1 68:1 77:1 81:1 83:1 85:1 90:1 93:1 94:1 97:1 100:1 107:1 110:1 112:1 120:1 122:1 125:1 128:1 132:1 133:1 143:1 145:1 150:1 151:1 154:1 159:1 160:1 165:1 168:1 169:1 174:1 176:1 179:1 
0.3883319681927144 0.1534605754843461 1:1 4:1 9:1 13:1 18:1 19:1 24:1 26:1 32:1 34:1 39:1 42:1 45:1 51:1 56:1 62:1 65:1 69:1 77:1 81:1 83:1 85:1 90:1 91:1 95:1 97:1 103:1 107:1 109:1 112:1 120:1 126:1 129:1 130:1 134:1 136:1 141:1 142:1 146:1 148:1 153:1 156:1 162:1 164:1 167:1 169:1 174:1 175:1 179:1 
1.259365862962427 0.7710598288991832 2:1 9:1 10:1 13:1 18:1 21:1 22:1 25:1 29:1 33:1 36:1 39:1 43:1 48:1 51:1 54:1 56:1 59:1 61:1 66:1 69:1 72:1 74:1 76:1 81:1 83:1 85:1 90:1 92:1 98:1 101:1 108:1 109:1 114:1 117:1 119:1 121:1 125:1 132:1 134:1 137:1 144:1 146:1 153:1 156:1 162:1 163:1 167:1 170:1 173:1 180:1 
0.1080495682829539 0 5:1 8:1 14:1 17:1 20:1 24:1 26:1 32:1 34:1 38:1 41:1 44:1 47:1 51:1 53:1 56:1 59:1 63:1 68:1 71:1 74:1 77:1 81:1 83:1 85:1 90:1 96:1 98:1 101:1 107:1 110:1 113:1 116:1 123:1 125:1 129:1 132:1 134:1 137:1 140:1 143:1 147:1 150:1 153:1 156:1 159:1 161:1 163:1 166:1 169:1 174:1 177:1 179:1 
0.3790300858274845 0 2:1 5:1 8:1 14:1 17:1 20:1 22:1 26:1 32:1 36:1 45:1 47:1 53:1 59:1 62:1 66:1 69:1 71:1 74:1 76:1 81:1 83:1 85:1 90:1 92:1 102:1 103:1 108:1 110:1 113:1 120:1 121:1 128:1 132:1 133:1 138:1 144:1 146:1 150:1 153:1 155:1 158:1 161:1 163:1 168:1 174:1 176:1 178:1 
0.2234456556292613 0.02196933925707029 2:1 8:1 12:1 15:1 18:1 20:1 26:1 28:1 38:1 44:1 53:1 56:1 68:1 74:1 77:1 79:1 83:1 85:1 90:1 99:1 101:1 108:1 110:1 117:1 118:1 122:1 124:1 128:1 132:1 134:1 137:1 141:1 142:1 146:1 149:1 153:1 155:1 158:1 165:1 167:1 174:1 176:1 
0.632835354118206 1.016145800005605 2:1 4:1 12:1 14:1 17:1 27:1 28:1 31:1 44:1 59:1 66:1 68:1 70:1 74:1 78:1 79:1 83:1 85:1 90:1 93:1 98:1 105:1 107:1 110:1 112:1 117:1 119:1 127:1 131:1 133:1 145:1 149:1 152:1 155:1 157:1 160:1 163:1 167:1 174:1 179:1 
1.172918874908303 1.770135153552281 12:1 14:1 16:1 20:1 27:1 28:1 31:1 39:1 41:1 43:1 46:1 49:1 56:1 77:1 80:1 82:1 85:1 90:1 93:1 99:1 100:1 109:1 116:1 119:1 126:1 127:1 130:1 134:1 137:1 139:1 146:1 149:1 151:1 156:1 159:1 161:1 164:1 166:1 169:1 172:1 178:1 
0.2295727983763606 0 2:1 8:1 11:1 14:1 21:1 22:1 30:1 32:1 35:1 38:1 44:1 46:1 51:1 52:1 55:1 62:1 68:1 71:1 74:1 77:1 79:1 83:1 85:1 90:1 93:1 95:1 98:1 102:1 104:1 107:1 114:1 115:1 122:1 135:1 136:1 140:1 142:1 145:1 149:1 159:1 160:1 163:1 168:1 169:1 172:1 175:1 
0.7931830535979344 1.089710612489492 8:1 21:1 22:1 25:1 31:1 34:1 37:1 44:1 47:1 55:1 59:1 64:1 76:1 80:1 83:1 85:1 90:1 93:1 94:1 98:1 100:1 103:1 107:1 114:1 116:1 118:1 122:1 125:1 127:1 132:1 133:1 137:1 140:1 142:1 150:1 152:1 161:1 163:1 168:1 174:1 175:1 180:1 
0.3657739608092458 0 2:1 5:1 7:1 10:1 17:1 19:1 23:1 26:1 28:1 32:1 35:1 37:1 40:1 45:1 47:1 53:1 56:1 66:1 71:1 74:1 77:1 79:1 83:1 85:1 90:1 93:1 95:1 98:1 104:1 117:1 118:1 123:1 125:1 128:1 131:1 135:1 138:1 139:1 144:1 145:1 149:1 151:1 155:1 159:1 160:1 163:1 166:1 172:1 180:1 
1.292013382049554 0.9156507021068302 3:1 4:1 11:1 18:1 21:1 23:1 30:1 31:1 35:1 43:1 59:1 69:1 70:1 80:1 85:1 90:1 93:1 95:1 102:1 103:1 108:1 111:1 120:1 123:1 134:1 136:1 141:1 143:1 145:1 153:1 157:1 164:1 171:1 173:1 
0.438126313899402 1.054223409516038 2:1 9:1 11:1 17:1 19:1 23:1 26:1 30:1 31:1 35:1 39:1 40:1 43:1 47:1 51:1 52:1 56:1 58:1 74:1 77:1 79:1 83:1 85:1 90:1 93:1 94:1 99:1 101:1 104:1 108:1 109:1 113:1 116:1 123:1 125:1 128:1 133:1 137:1 139:1 144:1 145:1 149:1 152:1 155:1 159:1 161:1 164:1 171:1 174:1 175:1 180:1 
0.04083982311959895 0 5:1 8:1 11:1 17:1 20:1 22:1 33:1 35:1 38:1 41:1 47:1 50:1 54:1 57:1 68:1 74:1 77:1 80:1 83:1 85:1 90:1 93:1 95:1 101:1 104:1 107:1 111:1 114:1 115:1 119:1 123:1 128:1 131:1 134:1 141:1 143:1 149:1 152:1 159:1 162:1 164:1 180:1 
0.7205018553345152 0.7894010622759811 2:1 5:1 8:1 14:1 17:1 22:1 26:1 29:1 33:1 36:1 37:1 40:1 44:1 51:1 52:1 55:1 59:1 62:1 65:1 71:1 74:1 76:1 79:1 83:1 85:1 90:1 93:1 96:1 97:1 102:1 104:1 107:1 110:1 113:1 117:1 118:1 123:1 127:1 134:1 138:1 141:1 143:1 145:1 150:1 152:1 154:1 159:1 164:1 166:1 171:1 173:1 175:1 180:1 
1.711583636329953 1.095182607312225 3:1 11:1 18:1 19:1 22:1 27:1 30:1 33:1 37:1 42:1 45:1 48:1 50:1 52:1 57:1 60:1 63:1 66:1 68:1 70:1 75:1 77:1 79:1 83:1 85:1 90:1 92:1 98:1 101:1 106:1 109:1 114:1 116:1 119:1 121:1 125:1 132:1 134:1 137:1 144:1 146:1 153:1 156:1 162:1 163:1 167:1 170:1 173:1 180:1 
0.5389285983021966 0.659431451791908 5:1 8:1 12:1 14:1 21:1 22:1 26:1 30:1 32:1 39:1 41:1 54:1 57:1 59:1 66:1 71:1 77:1 80:1 83:1 85:1 90:1 91:1 99:1 105:1 108:1 114:1 117:1 123:1 125:1 132:1 133:1 136:1 140:1 146:1 149:1 151:1 154:1 159:1 160:1 165:1 168:1 169:1 173:1 176:1 178:1 
0.127055360940435 0.583376563753327 2:1 5:1 13:1 16:1 21:1 23:1 28:1 33:1 38:1 41:1 44:1 53:1 59:1 62:1 65:1 68:1 81:1 83:1 85:1 90:1 91:1 95:1 99:1 100:1 105:1 106:1 114:1 116:1 118:1 123:1 125:1 129:1 130:1 134:1 139:1 147:1 153:1 159:1 163:1 171:1 177:1 179:1 
0.8921067594573421 0 6:1 9:1 11:1 14:1 16:1 21:1 23:1 26:1 32:1 37:1 40:1 44:1 50:1 53:1 55:1 60:1 62:1 65:1 68:1 71:1 74:1 83:1 85:1 90:1 92:1 94:1 101:1 107:1 110:1 114:1 117:1 119:1 124:1 128:1 132:1 133:1 137:1 139:1 146:1 149:1 152:1 159:1 160:1 165:1 168:1 171:1 173:1 175:1 179:1 
0.6827690502964749 0 3:1 5:1 9:1 12:1 21:1 22:1 33:1 34:1 38:1 40:1 45:1 56:1 62:1 65:1 74:1 77:1 80:1 83:1 85:1 90:1 91:1 95:1 102:1 105:1 107:1 110:1 112:1 115:1 122:1 124:1 128:1 130:1 135:1 138:1 140:1 142:1 147:1 150:1 151:1 154:1 159:1 160:1 168:1 169:1 172:1 177:1 180:1 
0.8987845134515232 0.5647432784983881 1:1 4:1 9:1 12:1 13:1 18:1 24:1 25:1 38:1 43:1 56:1 59:1 71:1 79:1 82:1 85:1 90:1 91:1 96:1 99:1 100:1 105:1 108:1 109:1 112:1 116:1 118:1 121:1 126:1 127:1 130:1 135:1 136:1 144:1 145:1 150:1 153:1 154:1 157:1 162:1 163:1 166:1 169:1 176:1 180:1 
0.9422739260195161 0.7053427745881965 2:1 4:1 9:1 11:1 17:1 20:1 29:1 32:1 34:1 37:1 43:1 50:1 66:1 71:1 78:1 85:1 90:1 95:1 97:1 102:1 105:1 108:1 109:1 113:1 118:1 126:1 128:1 132:1 135:1 137:1 141:1 143:1 145:1 148:1 151:1 155:1 157:1 164:1 170:1 173:1 
1.020037749005555 1.108212208436018 2:1 8:1 17:1 25:1 28:1 32:1 40:1 43:1 46:1 50:1 53:1 62:1 64:1 80:1 85:1 90:1 93:1 94:1 98:1 101:1 103:1 106:1 111:1 112:1 116:1 119:1 122:1 125:1 132:1 135:1 136:1 140:1 143:1 150:1 153:1 156:1 159:1 161:1 164:1 167:1 169:1 174:1 179:1 
0.3314277321448231 0.01521969790888409 1:1 9:1 13:1 16:1 26:1 30:1 33:1 34:1 37:1 41:1 45:1 46:1 56:1 65:1 68:1 81:1 83:1 85:1 90:1 91:1 98:1 100:1 104:1 107:1 116:1 121:1 129:1 130:1 135:1 138:1 139:1 143:1 145:1 150:1 153:1 156:1 158:1 161:1 170:1 173:1 175:1 180:1 
0.1606530145075517 0 2:1 5:1 8:1 11:1 14:1 16:1 26:1 32:1 36:1 38:1 41:1 47:1 53:1 59:1 61:1 65:1 68:1 74:1 77:1 83:1 85:1 90:1 91:1 95:1 98:1 101:1 105:1 110:1 113:1 115:1 118:1 123:1 124:1 127:1 132:1 134:1 136:1 141:1 144:1 147:1 148:1 152:1 155:1 157:1 165:1 168:1 170:1 177:1 180:1 
1.289684703412653 0.4434609586576775 3:1 6:1 9:1 12:1 14:1 16:1 21:1 24:1 25:1 29:1 35:1 38:1 40:1 44:1 47:1 50:1 54:1 55:1 62:1 64:1 74:1 77:1 80:1 83:1 85:1 90:1 91:1 101:1 103:1 108:1 110:1 112:1 117:1 119:1 123:1 124:1 128:1 135:1 137:1 139:1 144:1 147:1 148:1 153:1 156:1 157:1 162:1 164:1 169:1 174:1 175:1 179:1 
1.234890654438566 0.7694547887064227 2:1 8:1 10:1 15:1 18:1 20:1 24:1 29:1 32:1 35:1 38:1 45:1 47:1 54:1 59:1 62:1 65:1 69:1 72:1 74:1 81:1 83:1 85:1 90:1 96:1 97:1 101:1 104:1 111:1 114:1 117:1 118:1 123:1 125:1 128:1 130:1 133:1 137:1 139:1 143:1 146:1 149:1 155:1 159:1 161:1 168:1 169:1 174:1 177:1 
1.135969084233364 1.301112013438663 7:1 10:1 18:1 23:1 29:1 32:1 35:1 37:1 40:1 43:1 47:1 50:1 56:1 58:1 62:1 65:1 68:1 70:1 73:1 77:1 80:1 83:1 85:1 90:1 93:1 94:1 99:1 100:1 103:1 106:1 116:1 119:1 123:1 126:1 127:1 132:1 138:1 139:1 143:1 149:1 154:1 161:1 163:1 167:1 170:1 172:1 175:1 179:1 
0.5705376293979197 0.4296265730126604 3:1 8:1 11:1 20:1 30:1 33:1 39:1 42:1 45:1 48:1 51:1 54:1 59:1 62:1 71:1 77:1 80:1 85:1 90:1 93:1 94:1 97:1 102:1 103:1 106:1 109:1 113:1 116:1 121:1 127:1 134:1 137:1 140:1 142:1 145:1 148:1 153:1 156:1 157:1 161:1 164:1 166:1 171:1 172:1 175:1 180:1 
1.052498388142607 0.9005218832478743 2:1 7:1 10:1 14:1 16:1 19:1 24:1 41:1 48:1 52:1 60:1 64:1 67:1 71:1 80:1 85:1 90:1 93:1 99:1 100:1 103:1 106:1 111:1 112:1 116:1 119:1 122:1 125:1 132:1 133:1 137:1 139:1 142:1 145:1 148:1 153:1 154:1 158:1 160:1 163:1 170:1 172:1 179:1 
0.3096398162930573 0.1319382528026195 3:1 5:1 11:1 13:1 18:1 21:1 24:1 26:1 35:1 45:1 50:1 53:1 65:1 68:1 77:1 80:1 83:1 85:1 90:1 93:1 96:1 98:1 102:1 108:1 109:1 117:1 120:1 126:1 129:1 132:1 134:1 136:1 144:1 147:1 150:1 155:1 157:1 162:1 163:1 166:1 171:1 174:1 175:1 
0.3879516841970153 0 6:1 11:1 14:1 17:1 19:1 22:1 26:1 32:1 42:1 45:1 59:1 62:1 64:1 73:1 77:1 79:1 83:1 85:1 90:1 91:1 95:1 97:1 102:1 103:1 108:1 114:1 116:1 118:1 121:1 126:1 127:1 131:1 135:1 136:1 144:1 145:1 149:1 159:1 161:1 163:1 166:1 169:1 172:1 180:1 
0.6130071070224612 0.6046102802912021 3:1 7:1 12:1 13:1 17:1 20:1 30:1 33:1 39:1 42:1 45:1 47:1 51:1 54:1 59:1 62:1 71:1 77:1 80:1 85:1 90:1 93:1 94:1 97:1 102:1 103:1 106:1 111:1 113:1 116:1 121:1 127:1 134:1 137:1 140:1 142:1 145:1 148:1 153:1 156:1 157:1 160:1 164:1 166:1 171:1 172:1 175:1 180:1 
0 0.3671425055523626 3:1 8:1 11:1 14:1 17:1 23:1 25:1 29:1 31:1 36:1 39:1 42:1 44:1 46:1 62:1 71:1 74:1 77:1 79:1 83:1 85:1 90:1 93:1 99:1 102:1 103:1 106:1 109:1 112:1 117:1 120:1 121:1 126:1 129:1 132:1 133:1 138:1 140:1 147:1 149:1 155:1 161:1 163:1 168:1 171:1 173:1 180:1 
1.245894155950457 0.5749362423506825 3:1 6:1 9:1 10:1 14:1 18:1 21:1 24:1 26:1 33:1 34:1 38:1 41:1 43:1 47:1 51:1 54:1 57:1 60:1 63:1 65:1 69:1 72:1 75:1 78:1 80:1 83:1 85:1 90:1 93:1 96:1 101:1 107:1 109:1 113:1 115:1 119:1 122:1 125:1 131:1 134:1 136:1 141:1 142:1 147:1 150:1 151:1 159:1 163:1 167:1 171:1 174:1 176:1 
0.9588299108845869 1.104532826905168 2:1 5:1 9:1 11:1 15:1 20:1 22:1 26:1 29:1 31:1 36:1 39:1 41:1 44:1 51:1 56:1 59:1 69:1 72:1 75:1 80:1 83:1 85:1 90:1 93:1 96:1 97:1 101:1 103:1 110:1 116:1 120:1 122:1 125:1 128:1 132:1 137:1 140:1 147:1 148:1 151:1 156:1 159:1 160:1 164:1 167:1 170:1 173:1 177:1 179:1 
0.2248481134282021 0.6002555944578134 5:1 7:1 12:1 14:1 22:1 26:1 33:1 34:1 38:1 40:1 44:1 47:1 49:1 54:1 56:1 59:1 62:1 64:1 68:1 74:1 77:1 79:1 83:1 85:1 90:1 91:1 99:1 102:1 105:1 108:1 109:1 113:1 116:1 118:1 123:1 129:1 135:1 137:1 140:1 146:1 148:1 151:1 156:1 161:1 164:1 166:1 174:1 176:1 179:1 
0.9788170686992581 0.06494136336829981 2:1 10:1 14:1 16:1 20:1 22:1 25:1 28:1 39:1 42:1 44:1 46:1 54:1 56:1 66:1 72:1 83:1 85:1 90:1 91:1 99:1 101:1 104:1 114:1 117:1 125:1 127:1 130:1 135:1 138:1 141:1 142:1 150:1 153:1 154:1 157:1 160:1 165:1 170:1 172:1 176:1 179:1 
0.7121722994258777 0.137101138697875 2:1 4:1 7:1 12:1 21:1 22:1 26:1 31:1 36:1 37:1 45:1 47:1 50:1 53:1 64:1 83:1 85:1 90:1 91:1 94:1 97:1 103:1 113:1 118:1 122:1 124:1 131:1 133:1 144:1 147:1 148:1 153:1 155:1 162:1 168:1 171:1 175:1 
0.5460486914691263 0.6731542016390517 5:1 8:1 11:1 14:1 18:1 22:1 29:1 37:1 44:1 50:1 57:1 62:1 64:1 68:1 70:1 74:1 80:1 83:1 85:1 90:1 92:1 99:1 102:1 110:1 113:1 120:1 122:1 125:1 128:1 135:1 138:1 139:1 147:1 150:1 152:1 159:1 161:1 164:1 171:1 173:1 177:1 179:1 
0.3992448784988457 1.076249663151402 1:1 6:1 8:1 13:1 16:1 21:1 26:1 29:1 36:1 38:1 41:1 44:1 50:1 52:1 65:1 68:1 71:1 77:1 83:1 85:1 90:1 93:1 95:1 97:1 105:1 108:1 109:1 114:1 119:1 122:1 129:1 135:1 138:1 140:1 142:1 149:1 152:1 154:1 158:1 162:1 163:1 166:1 169:1 173:1 178:1 
0.1597124002309186 0.2857327534102973 2:1 5:1 8:1 15:1 16:1 19:1 26:1 35:1 38:1 45:1 47:1 50:1 53:1 62:1 68:1 74:1 77:1 80:1 83:1 85:1 90:1 93:1 94:1 103:1 107:1 111:1 112:1 117:1 118:1 123:1 126:1 131:1 134:1 137:1 144:1 145:1 150:1 155:1 159:1 161:1 164:1 171:1 172:1 176:1 180:1 
0.3666155807869634 0 2:1 8:1 11:1 14:1 17:1 19:1 23:1 26:1 29:1 31:1 35:1 38:1 45:1 50:1 53:1 55:1 59:1 62:1 65:1 69:1 71:1 74:1 77:1 81:1 83:1 85:1 90:1 91:1 98:1 102:1 104:1 113:1 116:1 123:1 126:1 127:1 132:1 134:1 137:1 139:1 144:1 147:1 149:1 151:1 154:1 159:1 160:1 163:1 167:1 173:1 176:1 178:1 
1.008488140605223 0.0158317021285973 3:1 6:1 8:1 14:1 16:1 20:1 22:1 27:1 29:1 33:1 35:1 39:1 41:1 44:1 47:1 51:1 54:1 56:1 61:1 71:1 77:1 81:1 83:1 85:1 90:1 92:1 98:1 100:1 104:1 107:1 109:1 117:1 120:1 121:1 129:1 130:1 138:1 139:1 145:1 152:1 156:1 158:1 161:1 165:1 167:1 171:1 173:1 179:1 
0.5294099798354398 1.816419198039253 6:1 12:1 14:1 21:1 22:1 26:1 29:1 33:1 35:1 38:1 45:1 47:1 54:1 55:1 59:1 66:1 68:1 71:1 81:1 83:1 85:1 90:1 93:1 99:1 100:1 103:1 106:1 117:1 119:1 122:1 125:1 132:1 138:1 141:1 146:1 149:1 159:1 162:1 168:1 171:1 176:1 179:1 
0.3650728679350401 0 1:1 5:1 8:1 10:1 18:1 23:1 26:1 35:1 41:1 45:1 47:1 57:1 60:1 62:1 65:1 71:1 77:1 80:1 83:1 85:1 90:1 93:1 94:1 98:1 102:1 108:1 111:1 112:1 120:1 122:1 124:1 129:1 131:1 136:1 140:1 146:1 151:1 156:1 158:1 164:1 168:1 170:1 172:1 
0.2820319492790109 0 3:1 6:1 9:1 11:1 17:1 23:1 26:1 33:1 34:1 38:1 40:1 44:1 46:1 50:1 56:1 62:1 65:1 68:1 71:1 74:1 81:1 83:1 85:1 90:1 91:1 96:1 99:1 104:1 107:1 109:1 114:1 117:1 120:1 123:1 124:1 128:1 131:1 134:1 136:1 139:1 143:1 145:1 150:1 152:1 155:1 158:1 161:1 163:1 168:1 170:1 172:1 175:1 180:1 
0.4811724665780501 0.1298823760614263 6:1 9:1 14:1 21:1 24:1 25:1 29:1 32:1 35:1 39:1 42:1 45:1 50:1 53:1 56:1 60:1 66:1 71:1 74:1 81:1 83:1 85:1 90:1 93:1 95:1 98:1 102:1 104:1 111:1 113:1 116:1 119:1 121:1 126:1 128:1 130:1 135:1 137:1 139:1 144:1 147:1 148:1 153:1 158:1 160:1 165:1 167:1 170:1 172:1 176:1 179:1 
0.0509151844124445 0 2:1 4:1 8:1 10:1 13:1 16:1 19:1 22:1 32:1 41:1 53:1 59:1 71:1 75:1 81:1 83:1 85:1 90:1 91:1 96:1 102:1 106:1 111:1 112:1 119:1 122:1 125:1 127:1 130:1 133:1 136:1 139:1 148:1 152:1 155:1 158:1 160:1 163:1 166:1 171:1 172:1 175:1 180:1 
0.8075624588440509 0.7493365020026976 1:1 6:1 8:1 11:1 13:1 17:1 23:1 25:1 29:1 35:1 41:1 47:1 50:1 53:1 57:1 59:1 63:1 65:1 69:1 71:1 75:1 77:1 79:1 83:1 85:1 90:1 93:1 95:1 97:1 104:1 108:1 114:1 116:1 123:1 126:1 127:1 131:1 137:1 140:1 144:1 147:1 149:1 153:1 154:1 158:1 162:1 165:1 167:1 171:1 176:1 178:1 
0.1092882860516443 0 1:1 5:1 11:1 17:1 20:1 26:1 32:1 35:1 38:1 44:1 50:1 56:1 59:1 62:1 68:1 71:1 74:1 80:1 83:1 85:1 90:1 92:1 94:1 97:1 100:1 104:1 107:1 110:1 116:1 118:1 121:1 126:1 128:1 135:1 136:1 141:1 144:1 147:1 150:1 152:1 154:1 159:1 161:1 167:1 170:1 172:1 177:1 
0.7688848893894674 0 2:1 5:1 11:1 14:1 17:1 21:1 23:1 36:1 42:1 48:1 50:1 53:1 56:1 59:1 63:1 65:1 71:1 74:1 76:1 81:1 83:1 85:1 90:1 92:1 95:1 101:1 104:1 107:1 111:1 113:1 117:1 118:1 122:1 126:1 127:1 135:1 137:1 140:1 143:1 146:1 152:1 154:1 157:1 161:1 165:1 172:1 176:1 179:1 
0.6190813270082652 0 14:1 17:1 20:1 22:1 29:1 31:1 38:1 41:1 48:1 52:1 56:1 65:1 80:1 85:1 90:1 91:1 99:1 104:1 106:1 111:1 113:1 116:1 118:1 121:1 126:1 127:1 130:1 135:1 136:1 140:1 144:1 152:1 155:1 158:1 168:1 171:1 175:1 178:1 
0.2314236855693802 0 1:1 10:1 13:1 26:1 31:1 34:1 47:1 74:1 77:1 80:1 85:1 90:1 91:1 94:1 98:1 105:1 112:1 116:1 121:1 124:1 127:1 131:1 138:1 139:1 144:1 149:1 151:1 156:1 157:1 160:1 165:1 175:1 179:1 
0.7282571443724219 1.167040029508893 6:1 7:1 11:1 14:1 21:1 22:1 29:1 42:1 44:1 50:1 56:1 59:1 62:1 65:1 68:1 75:1 78:1 80:1 83:1 85:1 90:1 99:1 100:1 105:1 108:1 109:1 114:1 117:1 118:1 123:1 124:1 127:1 131:1 134:1 137:1 141:1 144:1 145:1 149:1 158:1 165:1 168:1 169:1 172:1 176:1 179:1 
1.186829264191162 0.7420108416810545 1:1 4:1 12:1 16:1 22:1 30:1 34:1 37:1 43:1 46:1 56:1 65:1 67:1 83:1 85:1 90:1 93:1 94:1 97:1 102:1 103:1 106:1 111:1 112:1 115:1 124:1 128:1 130:1 135:1 136:1 139:1 142:1 148:1 152:1 154:1 161:1 164:1 166:1 171:1 174:1 175:1 180:1 
0.7486595722513849 0.3098848058472586 3:1 4:1 9:1 10:1 13:1 18:1 19:1 24:1 26:1 32:1 34:1 39:1 40:1 45:1 51:1 56:1 62:1 69:1 74:1 77:1 80:1 83:1 85:1 90:1 91:1 95:1 97:1 103:1 107:1 109:1 112:1 120:1 124:1 129:1 130:1 134:1 136:1 139:1 142:1 146:1 148:1 156:1 162:1 164:1 167:1 169:1 174:1 175:1 179:1 
1.230084738996934 1.280111199140106 3:1 8:1 10:1 14:1 16:1 22:1 28:1 32:1 39:1 40:1 44:1 47:1 53:1 60:1 61:1 65:1 67:1 71:1 74:1 77:1 85:1 90:1 93:1 96:1 97:1 100:1 105:1 110:1 112:1 117:1 123:1 126:1 129:1 130:1 135:1 141:1 144:1 148:1 151:1 155:1 158:1 160:1 164:1 167:1 169:1 173:1 175:1 179:1 
0.6371112552853977 0.0422494722717378 7:1 15:1 17:1 29:1 32:1 43:1 50:1 53:1 56:1 62:1 69:1 73:1 79:1 83:1 85:1 90:1 93:1 94:1 99:1 100:1 104:1 106:1 111:1 112:1 116:1 119:1 121:1 124:1 128:1 133:1 138:1 139:1 142:1 147:1 148:1 156:1 157:1 162:1 163:1 166:1 171:1 176:1 
0 0.5565393313066896 3:1 8:1 10:1 14:1 17:1 21:1 22:1 29:1 32:1 39:1 40:1 44:1 47:1 53:1 60:1 65:1 67:1 71:1 74:1 77:1 83:1 85:1 90:1 93:1 94:1 97:1 100:1 105:1 110:1 112:1 117:1 121:1 126:1 129:1 130:1 135:1 141:1 144:1 150:1 151:1 155:1 158:1 160:1 164:1 167:1 169:1 173:1 175:1 179:1 
0.7224923106130752 0.4461568896279013 1:1 5:1 7:1 12:1 14:1 21:1 23:1 25:1 35:1 41:1 43:1 51:1 53:1 62:1 65:1 72:1 74:1 77:1 81:1 83:1 85:1 90:1 98:1 107:1 110:1 113:1 116:1 118:1 121:1 128:1 131:1 133:1 138:1 141:1 146:1 152:1 155:1 159:1 162:1 163:1 168:1 171:1 173:1 180:1 
-0 0.03952259618806964 6:1 8:1 12:1 17:1 20:1 27:1 29:1 33:1 36:1 37:1 41:1 43:1 46:1 51:1 53:1 55:1 58:1 61:1 64:1 69:1 72:1 74:1 80:1 83:1 92:1 95:1 98:1 100:1 105:1 107:1 109:1 112:1 116:1 119:1 126:1 129:1 131:1 134:1 136:1 141:1 144:1 147:1 149:1 153:1 156:1 162:1 165:1 167:1 170:1 172:1 176:1 179:1 
-0.8519203530773486 0.6368945059945917 6:1 7:1 11:1 13:1 16:1 19:1 22:1 33:1 36:1 37:1 40:1 48:1 56:1 68:1 70:1 75:1 80:1 82:1 85:1 93:1 96:1 98:1 100:1 103:1 107:1 109:1 128:1 130:1 134:1 141:1 144:1 147:1 157:1 163:1 168:1 172:1 177:1 180:1 
-0.2495347703277352 0.5789439317292857 7:1 11:1 14:1 20:1 25:1 28:1 35:1 37:1 40:1 44:1 46:1 51:1 59:1 61:1 64:1 73:1 81:1 83:1 93:1 94:1 97:1 111:1 116:1 119:1 122:1 129:1 134:1 139:1 148:1 151:1 158:1 160:1 164:1 173:1 179:1 
-0.138437422658269 0.007959725462486585 2:1 6:1 8:1 11:1 15:1 17:1 20:1 24:1 26:1 29:1 33:1 36:1 39:1 42:1 44:1 48:1 51:1 53:1 56:1 59:1 62:1 65:1 69:1 71:1 75:1 77:1 83:1 88:1 92:1 95:1 98:1 105:1 107:1 109:1 113:1 119:1 123:1 126:1 128:1 131:1 137:1 139:1 142:1 146:1 150:1 153:1 156:1 158:1 164:1 167:1 170:1 174:1 176:1 178:1 
-1.486243344968926 0.3369249317878693 6:1 8:1 14:1 17:1 20:1 23:1 26:1 28:1 31:1 35:1 45:1 48:1 51:1 54:1 56:1 59:1 62:1 69:1 72:1 73:1 80:1 83:1 85:1 90:1 92:1 94:1 99:1 102:1 108:1 111:1 112:1 119:1 121:1 126:1 127:1 132:1 134:1 141:1 144:1 146:1 150:1 152:1 154:1 157:1 160:1 165:1 166:1 171:1 173:1 177:1 180:1 
-1.023435550491163 0.5401998226896886 3:1 4:1 11:1 13:1 17:1 19:1 23:1 28:1 35:1 41:1 44:1 46:1 50:1 60:1 62:1 65:1 68:1 70:1 75:1 77:1 80:1 83:1 90:1 96:1 99:1 100:1 103:1 108:1 109:1 118:1 123:1 125:1 129:1 132:1 134:1 137:1 139:1 147:1 151:1 161:1 164:1 166:1 169:1 177:1 
-0 1.268635108353598 3:1 6:1 8:1 11:1 14:1 19:1 24:1 28:1 33:1 35:1 37:1 42:1 44:1 47:1 49:1 55:1 59:1 61:1 66:1 69:1 70:1 75:1 77:1 84:1 87:1 90:1 93:1 94:1 97:1 102:1 105:1 108:1 111:1 114:1 116:1 119:1 125:1 132:1 135:1 138:1 141:1 143:1 150:1 151:1 155:1 158:1 160:1 165:1 168:1 170:1 174:1 175:1 179:1 
-0.0005282796611644493 0.1980509869569143 6:1 8:1 10:1 15:1 24:1 25:1 28:1 33:1 35:1 38:1 41:1 43:1 51:1 52:1 57:1 60:1 62:1 65:1 68:1 70:1 73:1 78:1 79:1 82:1 90:1 98:1 100:1 108:1 116:1 119:1 122:1 124:1 129:1 132:1 133:1 136:1 141:1 144:1 149:1 151:1 155:1 157:1 160:1 164:1 167:1 172:1 177:1 
-0 0.2912706660692084 2:1 5:1 12:1 14:1 17:1 21:1 22:1 26:1 28:1 31:1 36:1 37:1 41:1 44:1 46:1 49:1 53:1 57:1 62:1 64:1 67:1 72:1 73:1 77:1 80:1 84:1 86:1 89:1 96:1 99:1 102:1 105:1 108:1 109:1 112:1 117:1 120:1 125:1 129:1 132:1 134:1 138:1 140:1 144:1 146:1 148:1 152:1 156:1 158:1 161:1 165:1 168:1 170:1 174:1 175:1 179:1 
-0 1.232892908026126 3:1 6:1 9:1 10:1 15:1 16:1 19:1 22:1 25:1 29:1 33:1 40:1 45:1 48:1 51:1 57:1 63:1 66:1 67:1 73:1 82:1 86:1 90:1 93:1 94:1 97:1 100:1 105:1 107:1 110:1 119:1 122:1 127:1 130:1 133:1 136:1 139:1 142:1 150:1 151:1 155:1 157:1 169:1 172:1 176:1 
-0.6591670152548027 0.5776791864637553 3:1 4:1 11:1 15:1 19:1 26:1 35:1 38:1 47:1 53:1 55:1 59:1 62:1 64:1 72:1 74:1 76:1 90:1 99:1 100:1 104:1 106:1 111:1 115:1 135:1 136:1 141:1 144:1 146:1 148:1 153:1 159:1 162:1 164:1 170:1 173:1 175:1 178:1 
-0.4320335393020957 0 12:1 15:1 16:1 19:1 23:1 26:1 31:1 36:1 37:1 41:1 43:1 50:1 53:1 56:1 59:1 62:1 65:1 75:1 77:1 80:1 87:1 90:1 91:1 95:1 101:1 108:1 109:1 114:1 116:1 123:1 124:1 128:1 131:1 135:1 136:1 139:1 149:1 152:1 155:1 158:1 161:1 168:1 170:1 174:1 176:1 178:1 
-0.200877749050119 0.0561449662652512 1:1 11:1 14:1 20:1 25:1 30:1 32:1 36:1 37:1 42:1 43:1 46:1 53:1 55:1 59:1 62:1 65:1 72:1 74:1 77:1 79:1 84:1 85:1 89:1 98:1 101:1 105:1 115:1 119:1 122:1 124:1 129:1 130:1 133:1 136:1 143:1 147:1 149:1 151:1 154:1 164:1 167:1 169:1 174:1 175:1 178:1 
-0.09826016650508948 0.6921887326311101 2:1 6:1 9:1 11:1 14:1 18:1 20:1 27:1 29:1 32:1 35:1 39:1 42:1 44:1 47:1 50:1 53:1 57:1 60:1 62:1 66:1 67:1 72:1 74:1 78:1 81:1 82:1 87:1 90:1 93:1 95:1 99:1 102:1 103:1 108:1 110:1 114:1 116:1 120:1 123:1 125:1 129:1 131:1 134:1 138:1 141:1 142:1 147:1 149:1 152:1 156:1 157:1 162:1 165:1 168:1 170:1 173:1 177:1 179:1 
-0 0.4838666860715403 2:1 5:1 8:1 10:1 15:1 18:1 19:1 24:1 27:1 30:1 33:1 39:1 42:1 43:1 47:1 50:1 53:1 55:1 59:1 61:1 66:1 68:1 71:1 74:1 76:1 81:1 84:1 87:1 88:1 93:1 96:1 98:1 101:1 105:1 106:1 109:1 112:1 117:1 119:1 123:1 125:1 129:1 132:1 135:1 137:1 141:1 144:1 147:1 149:1 151:1 156:1 159:1 161:1 163:1 168:1 169:1 174:1 177:1 179:1 
-0.5842357926816201 0.1221970943865956 3:1 4:1 8:1 10:1 17:1 21:1 22:1 27:1 28:1 35:1 39:1 41:1 44:1 46:1 50:1 53:1 58:1 62:1 65:1 69:1 71:1 73:1 76:1 79:1 83:1 90:1 92:1 99:1 102:1 103:1 108:1 111:1 114:1 116:1 120:1 121:1 126:1 129:1 130:1 135:1 139:1 143:1 145:1 150:1 151:1 154:1 162:1 167:1 174:1 177:1 178:1 
-0 0.8634903339588258 1:1 6:1 7:1 12:1 13:1 17:1 20:1 23:1 36:1 37:1 40:1 45:1 50:1 52:1 55:1 60:1 63:1 64:1 68:1 70:1 74:1 77:1 81:1 82:1 87:1 90:1 91:1 94:1 99:1 100:1 105:1 108:1 109:1 113:1 122:1 125:1 127:1 131:1 135:1 141:1 144:1 145:1 149:1 152:1 154:1 159:1 162:1 168:1 169:1 173:1 176:1 178:1 
-0 1.027257636681069 2:1 5:1 8:1 10:1 14:1 17:1 21:1 27:1 29:1 36:1 38:1 45:1 48:1 51:1 52:1 56:1 59:1 66:1 68:1 70:1 75:1 78:1 84:1 88:1 93:1 94:1 99:1 100:1 105:1 108:1 111:1 114:1 117:1 120:1 122:1 125:1 128:1 135:1 136:1 140:1 144:1 146:1 150:1 152:1 154:1 159:1 160:1 164:1 167:1 170:1 172:1 177:1 
-0.9006873337420757 0.5794915749081276 1:1 5:1 9:1 15:1 17:1 24:1 26:1 28:1 33:1 34:1 41:1 44:1 48:1 49:1 52:1 63:1 66:1 68:1 74:1 77:1 79:1 83:1 85:1 89:1 92:1 95:1 99:1 105:1 108:1 114:1 117:1 123:1 125:1 132:1 133:1 138:1 140:1 144:1 147:1 149:1 152:1 159:1 162:1 163:1 167:1 169:1 173:1 176:1 178:1 
-0 0.3855567388479502 3:1 7:1 13:1 17:1 21:1 27:1 30:1 32:1 34:1 37:1 45:1 47:1 51:1 60:1 62:1 69:1 72:1 75:1 82:1 97:1 100:1 107:1 109:1 119:1 124:1 129:1 132:1 134:1 136:1 143:1 147:1 161:1 164:1 170:1 173:1 
-0.3329992585600284 0 2:1 9:1 12:1 14:1 17:1 30:1 32:1 42:1 45:1 48:1 50:1 59:1 64:1 69:1 70:1 74:1 76:1 80:1 83:1 95:1 97:1 101:1 108:1 110:1 112:1 116:1 122:1 124:1 128:1 135:1 140:1 149:1 155:1 158:1 161:1 164:1 167:1 173:1 176:1 
-0 0.4519486916981766 2:1 4:1 8:1 10:1 15:1 18:1 20:1 22:1 32:1 35:1 37:1 44:1 46:1 50:1 52:1 55:1 58:1 65:1 68:1 81:1 84:1 86:1 93:1 99:1 101:1 114:1 120:1 121:1 126:1 136:1 143:1 145:1 150:1 155:1 157:1 162:1 163:1 168:1 170:1 172:1 179:1 
-0.04965570536367877 0 3:1 6:1 12:1 13:1 19:1 24:1 27:1 28:1 32:1 37:1 42:1 43:1 48:1 51:1 52:1 57:1 61:1 64:1 68:1 75:1 78:1 79:1 85:1 98:1 100:1 104:1 107:1 116:1 118:1 121:1 125:1 133:1 139:1 143:1 146:1 153:1 154:1 157:1 162:1 164:1 171:1 173:1 176:1 179:1 
-0.1362465675332059 0.4917631661103692 3:1 4:1 8:1 11:1 18:1 20:1 22:1 27:1 29:1 31:1 35:1 38:1 42:1 45:1 47:1 54:1 57:1 58:1 62:1 66:1 67:1 72:1 75:1 77:1 80:1 84:1 85:1 90:1 92:1 94:1 99:1 100:1 107:1 111:1 113:1 116:1 119:1 125:1 127:1 130:1 135:1 138:1 141:1 143:1 147:1 150:1 152:1 154:1 157:1 162:1 163:1 166:1 171:1 173:1 175:1 180:1 
-0 0.07384945597695915 6:1 8:1 10:1 15:1 18:1 19:1 22:1 30:1 33:1 35:1 42:1 45:1 47:1 51:1 52:1 55:1 60:1 62:1 64:1 68:1 71:1 73:1 78:1 81:1 84:1 90:1 92:1 95:1 98:1 102:1 105:1 109:1 113:1 117:1 123:1 129:1 132:1 133:1 136:1 140:1 143:1 147:1 149:1 151:1 155:1 162:1 163:1 168:1 170:1 176:1 178:1 
-0 0.5611150294056302 6:1 7:1 10:1 15:1 17:1 20:1 29:1 35:1 37:1 41:1 44:1 46:1 49:1 54:1 57:1 60:1 64:1 68:1 71:1 74:1 76:1 80:1 82:1 86:1 89:1 93:1 96:1 97:1 100:1 113:1 116:1 118:1 123:1 126:1 127:1 130:1 135:1 136:1 139:1 142:1 148:1 153:1 154:1 159:1 170:1 178:1 
-0.3741269020265985 0.2860464670796575 2:1 6:1 9:1 11:1 18:1 23:1 28:1 32:1 34:1 38:1 48:1 50:1 56:1 61:1 74:1 77:1 84:1 86:1 93:1 95:1 99:1 101:1 104:1 106:1 111:1 113:1 116:1 119:1 122:1 124:1 129:1 132:1 134:1 137:1 144:1 147:1 148:1 151:1 156:1 159:1 160:1 164:1 167:1 171:1 173:1 
-0 0.2396142218741199 8:1 11:1 16:1 26:1 35:1 38:1 40:1 44:1 46:1 53:1 56:1 62:1 68:1 71:1 73:1 78:1 80:1 82:1 86:1 89:1 105:1 116:1 119:1 126:1 127:1 131:1 148:1 151:1 157:1 160:1 171:1 173:1 176:1 178:1 
-0.05639191046023829 0 6:1 12:1 13:1 18:1 20:1 23:1 25:1 29:1 31:1 35:1 38:1 41:1 46:1 50:1 52:1 57:1 66:1 69:1 71:1 74:1 76:1 79:1 86:1 91:1 95:1 101:1 104:1 107:1 109:1 114:1 117:1 118:1 123:1 125:1 127:1 132:1 135:1 138:1 139:1 144:1 147:1 150:1 152:1 154:1 159:1 162:1 163:1 168:1 170:1 173:1 175:1 180:1 
-0.687440968320788 0.9877192520312823 1:1 6:1 11:1 13:1 17:1 24:1 27:1 30:1 35:1 41:1 48:1 50:1 53:1 56:1 58:1 63:1 66:1 69:1 74:1 77:1 79:1 82:1 87:1 90:1 93:1 96:1 99:1 105:1 106:1 111:1 112:1 116:1 119:1 121:1 125:1 127:1 132:1 135:1 137:1 139:1 143:1 146:1 148:1 153:1 156:1 158:1 161:1 167:1 170:1 177:1 180:1 
-0.4812450801433583 0 2:1 5:1 12:1 15:1 17:1 20:1 22:1 26:1 29:1 31:1 36:1 38:1 47:1 50:1 53:1 59:1 66:1 68:1 71:1 78:1 79:1 83:1 86:1 89:1 92:1 94:1 99:1 102:1 104:1 107:1 109:1 113:1 116:1 123:1 128:1 137:1 143:1 149:1 152:1 155:1 157:1 161:1 165:1 171:1 173:1 175:1 179:1 
-0.1432900794653618 0 5:1 7:1 10:1 14:1 19:1 22:1 35:1 37:1 40:1 45:1 46:1 50:1 52:1 55:1 72:1 75:1 76:1 81:1 87:1 90:1 93:1 94:1 97:1 101:1 104:1 107:1 109:1 112:1 115:1 119:1 122:1 125:1 129:1 134:1 136:1 139:1 146:1 148:1 151:1 156:1 161:1 166:1 170:1 172:1 176:1 
-1.433015085008606 0.5703473881605315 3:1 11:1 15:1 21:1 24:1 27:1 30:1 33:1 35:1 38:1 40:1 44:1 57:1 59:1 63:1 66:1 68:1 71:1 84:1 85:1 90:1 93:1 94:1 99:1 101:1 104:1 108:1 111:1 112:1 117:1 119:1 126:1 128:1 134:1 138:1 140:1 143:1 146:1 148:1 153:1 156:1 157:1 161:1 163:1 170:1 173:1 177:1 179:1 
-0 0.6228485243808209 1:1 5:1 8:1 21:1 24:1 26:1 32:1 36:1 39:1 42:1 43:1 48:1 49:1 54:1 57:1 59:1 61:1 66:1 67:1 71:1 78:1 84:1 87:1 90:1 92:1 99:1 101:1 105:1 106:1 110:1 113:1 119:1 126:1 134:1 138:1 139:1 144:1 145:1 148:1 153:1 154:1 157:1 162:1 167:1 171:1 173:1 180:1 
-0.03291419895722186 0 2:1 7:1 14:1 18:1 20:1 26:1 31:1 38:1 44:1 46:1 50:1 52:1 55:1 58:1 63:1 64:1 69:1 70:1 74:1 79:1 82:1 85:1 88:1 91:1 94:1 99:1 105:1 106:1 111:1 114:1 115:1 119:1 123:1 124:1 129:1 130:1 135:1 139:1 142:1 147:1 148:1 151:1 155:1 161:1 164:1 167:1 169:1 173:1 178:1 
-0 0.1080998898117917 3:1 4:1 7:1 18:1 22:1 29:1 31:1 45:1 46:1 49:1 53:1 55:1 58:1 62:1 67:1 72:1 75:1 77:1 86:1 88:1 93:1 95:1 97:1 103:1 115:1 121:1 126:1 128:1 130:1 133:1 140:1 143:1 145:1 153:1 160:1 165:1 
-0 0.00563240735219812 3:1 6:1 7:1 12:1 14:1 17:1 27:1 30:1 33:1 34:1 39:1 42:1 45:1 48:1 50:1 52:1 55:1 63:1 66:1 67:1 70:1 74:1 76:1 81:1 86:1 88:1 92:1 97:1 107:1 109:1 119:1 124:1 129:1 137:1 139:1 144:1 146:1 148:1 152:1 158:1 165:1 168:1 171:1 172:1 176:1 
-1.995448583763417 0.519315577383573 4:1 9:1 12:1 17:1 20:1 26:1 29:1 36:1 38:1 44:1 50:1 53:1 55:1 61:1 68:1 74:1 78:1 80:1 83:1 85:1 90:1 96:1 99:1 102:1 105:1 117:1 118:1 124:1 129:1 130:1 135:1 136:1 139:1 143:1 149:1 151:1 156:1 157:1 160:1 165:1 167:1 171:1 177:1 180:1 
-0.4644888912399602 0 5:1 9:1 11:1 25:1 29:1 31:1 35:1 38:1 41:1 48:1 49:1 56:1 59:1 62:1 65:1 68:1 70:1 74:1 78:1 79:1 83:1 96:1 99:1 102:1 103:1 111:1 112:1 115:1 120:1 121:1 124:1 129:1 131:1 134:1 140:1 143:1 147:1 149:1 155:1 158:1 165:1 166:1 169:1 173:1 175:1 178:1 
-0 0.6277144554741761 2:1 5:1 15:1 17:1 23:1 25:1 30:1 31:1 36:1 38:1 42:1 45:1 46:1 51:1 52:1 55:1 58:1 63:1 65:1 67:1 81:1 93:1 97:1 101:1 103:1 106:1 111:1 112:1 119:1 122:1 126:1 128:1 130:1 135:1 136:1 140:1 144:1 150:1 154:1 157:1 160:1 168:1 176:1 179:1 
-0 0.4728610284653427 3:1 5:1 10:1 13:1 19:1 22:1 25:1 28:1 31:1 35:1 37:1 40:1 45:1 47:1 49:1 53:1 58:1 69:1 77:1 79:1 82:1 86:1 100:1 105:1 108:1 114:1 120:1 126:1 130:1 134:1 147:1 150:1 151:1 156:1 158:1 161:1 163:1 167:1 170:1 172:1 
-0 0.4047763765762837 1:1 6:1 9:1 12:1 15:1 16:1 20:1 23:1 26:1 28:1 33:1 36:1 37:1 41:1 45:1 50:1 53:1 56:1 59:1 61:1 66:1 72:1 74:1 77:1 81:1 88:1 93:1 95:1 99:1 102:1 104:1 116:1 118:1 123:1 126:1 129:1 132:1 135:1 137:1 140:1 143:1 147:1 150:1 151:1 156:1 158:1 162:1 164:1 167:1 173:1 177:1 180:1 
-0.1736762253125605 0.1907870034849142 2:1 6:1 8:1 10:1 13:1 17:1 27:1 30:1 33:1 35:1 38:1 45:1 48:1 51:1 53:1 55:1 58:1 63:1 64:1 67:1 72:1 77:1 81:1 83:1 90:1 93:1 94:1 99:1 101:1 103:1 108:1 114:1 117:1 120:1 126:1 127:1 131:1 134:1 138:1 139:1 144:1 147:1 148:1 153:1 156:1 158:1 161:1 165:1 167:1 170:1 177:1 179:1 
-0.1921126749358826 0 1:1 12:1 13:1 20:1 22:1 27:1 32:1 35:1 37:1 48:1 49:1 53:1 62:1 66:1 67:1 72:1 73:1 80:1 84:1 85:1 89:1 95:1 102:1 104:1 107:1 109:1 120:1 121:1 125:1 128:1 134:1 137:1 139:1 144:1 145:1 152:1 154:1 157:1 161:1 163:1 167:1 169:1 173:1 175:1 180:1 
-0 0.2428342929636744 1:1 4:1 7:1 21:1 24:1 34:1 39:1 40:1 45:1 48:1 51:1 56:1 58:1 61:1 64:1 67:1 71:1 78:1 79:1 84:1 93:1 99:1 103:1 114:1 115:1 123:1 124:1 127:1 133:1 138:1 140:1 142:1 146:1 150:1 153:1 158:1 161:1 168:1 170:1 175:1 179:1 
-1.074405628980789 0.2633727548529489 5:1 8:1 11:1 14:1 18:1 19:1 24:1 26:1 29:1 32:1 38:1 40:1 45:1 47:1 49:1 53:1 55:1 60:1 62:1 64:1 69:1 71:1 78:1 80:1 84:1 85:1 90:1 91:1 96:1 97:1 104:1 113:1 115:1 118:1 122:1 124:1 132:1 135:1 137:1 141:1 142:1 147:1 150:1 153:1 154:1 161:1 163:1 168:1 170:1 174:1 176:1 178:1 
-0.1346671207985612 0 2:1 5:1 8:1 11:1 13:1 16:1 20:1 30:1 31:1 36:1 37:1 45:1 49:1 57:1 58:1 61:1 66:1 69:1 71:1 87:1 90:1 95:1 101:1 104:1 107:1 114:1 117:1 120:1 121:1 126:1 132:1 135:1 138:1 144:1 147:1 148:1 153:1 156:1 158:1 160:1 165:1 167:1 170:1 172:1 177:1 180:1 
-0.6822370026497099 0 5:1 8:1 10:1 15:1 17:1 32:1 38:1 40:1 45:1 50:1 52:1 56:1 62:1 64:1 69:1 71:1 73:1 80:1 83:1 85:1 89:1 91:1 95:1 97:1 102:1 105:1 107:1 110:1 112:1 117:1 120:1 121:1 125:1 128:1 130:1 135:1 136:1 139:1 142:1 149:1 152:1 155:1 170:1 172:1 176:1 179:1 
-0.7213135878568765 0.6862552991236427 3:1 16:1 20:1 23:1 26:1 28:1 31:1 37:1 40:1 45:1 48:1 50:1 52:1 56:1 59:1 61:1 65:1 68:1 71:1 73:1 77:1 80:1 85:1 93:1 94:1 100:1 104:1 111:1 117:1 119:1 124:1 128:1 130:1 135:1 136:1 144:1 147:1 148:1 153:1 157:1 164:1 174:1 175:1 179:1 
-1.069427787764681 1.082848536102991 1:1 6:1 8:1 12:1 15:1 17:1 24:1 27:1 29:1 31:1 37:1 41:1 44:1 53:1 56:1 59:1 61:1 65:1 71:1 73:1 77:1 81:1 84:1 85:1 90:1 93:1 95:1 98:1 100:1 107:1 110:1 112:1 117:1 120:1 122:1 125:1 135:1 147:1 148:1 153:1 155:1 159:1 162:1 165:1 168:1 170:1 174:1 175:1 180:1 
-0.4635083897410479 0 1:1 8:1 11:1 14:1 17:1 19:1 24:1 25:1 32:1 35:1 40:1 43:1 48:1 49:1 54:1 57:1 59:1 62:1 66:1 67:1 70:1 78:1 81:1 85:1 92:1 99:1 102:1 105:1 107:1 109:1 114:1 115:1 118:1 121:1 126:1 127:1 134:1 138:1 139:1 145:1 151:1 155:1 158:1 163:1 169:1 172:1 176:1 180:1 
-0.2555116547441968 1.253087999547852 1:1 4:1 7:1 11:1 18:1 21:1 24:1 27:1 29:1 32:1 39:1 40:1 45:1 46:1 50:1 54:1 56:1 59:1 62:1 65:1 72:1 75:1 77:1 80:1 82:1 90:1 93:1 94:1 98:1 101:1 105:1 107:1 116:1 119:1 122:1 124:1 130:1 134:1 137:1 144:1 147:1 149:1 155:1 162:1 167:1 170:1 172:1 175:1 180:1 
-0 0.3720713247740499 3:1 4:1 7:1 12:1 13:1 21:1 22:1 25:1 28:1 37:1 40:1 44:1 47:1 51:1 53:1 56:1 60:1 62:1 64:1 68:1 70:1 75:1 77:1 84:1 86:1 93:1 94:1 99:1 100:1 103:1 111:1 112:1 117:1 129:1 135:1 138:1 143:1 146:1 153:1 154:1 157:1 162:1 163:1 166:1 171:1 174:1 175:1 
-0.0326547640717448 0 1:1 4:1 9:1 11:1 14:1 17:1 19:1 26:1 29:1 34:1 39:1 40:1 45:1 46:1 49:1 54:1 56:1 63:1 64:1 68:1 71:1 74:1 76:1 81:1 84:1 85:1 89:1 92:1 94:1 99:1 102:1 103:1 111:1 117:1 120:1 121:1 125:1 129:1 134:1 136:1 139:1 142:1 148:1 152:1 165:1 167:1 170:1 173:1 175:1 180:1 
-0.8451099625115529 0.3710431495085325 1:1 5:1 10:1 14:1 20:1 27:1 29:1 31:1 35:1 40:1 43:1 46:1 51:1 53:1 56:1 58:1 72:1 74:1 77:1 80:1 83:1 85:1 88:1 100:1 103:1 108:1 118:1 124:1 127:1 130:1 139:1 143:1 146:1 148:1 153:1 164:1 168:1 171:1 175:1 178:1 
-0 0.3051843185771677 1:1 6:1 9:1 12:1 14:1 16:1 20:1 27:1 33:1 36:1 40:1 45:1 48:1 50:1 52:1 56:1 59:1 64:1 70:1 75:1 80:1 83:1 86:1 88:1 93:1 95:1 100:1 104:1 114:1 117:1 120:1 121:1 126:1 129:1 131:1 138:1 139:1 144:1 147:1 149:1 151:1 154:1 159:1 160:1 165:1 166:1 169:1 180:1 
-0.4608245552986469 0 2:1 5:1 8:1 10:1 13:1 16:1 24:1 29:1 35:1 37:1 42:1 43:1 46:1 54:1 58:1 66:1 71:1 74:1 77:1 79:1 84:1 85:1 88:1 91:1 95:1 98:1 105:1 111:1 114:1 116:1 123:1 125:1 134:1 136:1 139:1 143:1 146:1 148:1 159:1 160:1 164:1 166:1 171:1 
-0.152640187587486 1.130946370184789 5:1 8:1 11:1 14:1 20:1 23:1 26:1 28:1 32:1 35:1 38:1 44:1 46:1 51:1 54:1 57:1 58:1 63:1 65:1 68:1 70:1 75:1 78:1 80:1 86:1 90:1 93:1 95:1 97:1 110:1 117:1 120:1 122:1 124:1 129:1 131:1 133:1 136:1 141:1 142:1 150:1 151:1 154:1 158:1 161:1 164:1 167:1 170:1 173:1 176:1 178:1 
-0.05267672102688853 0.3170467160362634 9:1 11:1 14:1 17:1 23:1 25:1 30:1 32:1 34:1 41:1 43:1 47:1 50:1 52:1 60:1 61:1 64:1 68:1 72:1 75:1 76:1 81:1 82:1 87:1 90:1 92:1 95:1 97:1 104:1 108:1 110:1 113:1 120:1 122:1 126:1 128:1 135:1 136:1 141:1 144:1 147:1 149:1 156:1 158:1 161:1 163:1 168:1 171:1 173:1 176:1 178:1 
-0 0.1821727910733929 3:1 4:1 7:1 12:1 17:1 19:1 22:1 25:1 29:1 31:1 44:1 46:1 49:1 52:1 57:1 69:1 72:1 73:1 84:1 86:1 88:1 95:1 97:1 100:1 105:1 111:1 114:1 116:1 118:1 126:1 132:1 134:1 141:1 147:1 148:1 152:1 155:1 157:1 169:1 175:1 178:1 
-0.1304716327991431 0 1:1 9:1 12:1 14:1 17:1 27:1 30:1 33:1 36:1 37:1 41:1 43:1 46:1 51:1 56:1 60:1 66:1 68:1 81:1 82:1 87:1 90:1 92:1 95:1 101:1 106:1 111:1 114:1 117:1 118:1 123:1 126:1 129:1 130:1 133:1 138:1 141:1 142:1 145:1 150:1 151:1 154:1 159:1 165:1 168:1 170:1 172:1 180:1 
-0 1.25043418069135 3:1 6:1 7:1 20:1 23:1 25:1 30:1 32:1 35:1 41:1 44:1 47:1 50:1 56:1 63:1 65:1 67:1 70:1 73:1 78:1 79:1 87:1 93:1 94:1 97:1 101:1 105:1 106:1 111:1 117:1 123:1 125:1 127:1 132:1 133:1 137:1 141:1 144:1 150:1 152:1 155:1 158:1 160:1 164:1 167:1 170:1 173:1 176:1 179:1 
-0.1486808597257163 0 1:1 9:1 11:1 14:1 16:1 20:1 24:1 30:1 32:1 38:1 41:1 43:1 47:1 51:1 52:1 59:1 63:1 66:1 68:1 70:1 78:1 81:1 83:1 86:1 89:1 91:1 95:1 100:1 104:1 107:1 113:1 115:1 119:1 122:1 131:1 135:1 136:1 140:1 144:1 147:1 150:1 152:1 158:1 160:1 163:1 166:1 172:1 176:1 179:1 
-0.3303595382506275 0 3:1 5:1 12:1 13:1 17:1 24:1 26:1 29:1 31:1 36:1 37:1 45:1 46:1 50:1 60:1 66:1 67:1 72:1 73:1 76:1 80:1 83:1 85:1 88:1 91:1 94:1 98:1 101:1 104:1 106:1 114:1 128:1 131:1 134:1 136:1 142:1 146:1 148:1 151:1 155:1 161:1 164:1 167:1 171:1 174:1 175:1 180:1 
-0 0.6418310242318686 3:1 9:1 16:1 20:1 23:1 27:1 28:1 33:1 36:1 39:1 41:1 43:1 56:1 61:1 64:1 68:1 70:1 75:1 80:1 89:1 97:1 101:1 106:1 110:1 114:1 117:1 119:1 122:1 128:1 131:1 135:1 137:1 140:1 144:1 145:1 149:1 152:1 156:1 158:1 162:1 164:1 168:1 170:1 176:1 180:1 
-0.2315826720929603 0.140089282818715 3:1 4:1 7:1 10:1 15:1 21:1 23:1 26:1 30:1 31:1 36:1 37:1 44:1 47:1 54:1 56:1 58:1 63:1 66:1 68:1 75:1 81:1 83:1 86:1 90:1 95:1 98:1 102:1 105:1 111:1 112:1 117:1 120:1 123:1 126:1 129:1 130:1 138:1 140:1 142:1 156:1 157:1 162:1 164:1 171:1 172:1 176:1 
-0.4229787639924465 0.5530988781265791 3:1 6:1 8:1 15:1 18:1 19:1 23:1 26:1 30:1 31:1 35:1 38:1 40:1 44:1 46:1 51:1 53:1 57:1 59:1 63:1 69:1 71:1 73:1 78:1 82:1 85:1 90:1 95:1 99:1 102:1 104:1 107:1 110:1 113:1 116:1 123:1 125:1 128:1 131:1 134:1 138:1 143:1 146:1 153:1 155:1 158:1 161:1 168:1 170:1 173:1 177:1 180:1 
-0 0.08574037384747235 3:1 5:1 8:1 12:1 14:1 16:1 21:1 23:1 27:1 30:1 32:1 36:1 38:1 40:1 45:1 47:1 54:1 55:1 61:1 66:1 68:1 70:1 75:1 78:1 79:1 82:1 86:1 88:1 93:1 96:1 97:1 104:1 106:1 109:1 114:1 119:1 128:1 131:1 133:1 139:1 143:1 146:1 148:1 153:1 156:1 159:1 160:1 164:1 167:1 169:1 174:1 177:1 179:1 
-0 0.05881349798711142 2:1 9:1 12:1 18:1 20:1 24:1 27:1 31:1 35:1 38:1 40:1 45:1 51:1 53:1 55:1 59:1 61:1 66:1 67:1 72:1 75:1 78:1 81:1 93:1 98:1 101:1 103:1 108:1 110:1 114:1 116:1 119:1 121:1 125:1 127:1 135:1 137:1 140:1 143:1 145:1 149:1 152:1 154:1 161:1 164:1 168:1 171:1 177:1 179:1 
-0.4083907752865992 0 6:1 8:1 15:1 21:1 30:1 32:1 39:1 44:1 62:1 65:1 68:1 74:1 80:1 86:1 92:1 94:1 98:1 102:1 103:1 106:1 109:1 114:1 117:1 128:1 131:1 134:1 136:1 141:1 144:1 147:1 149:1 151:1 156:1 158:1 161:1 163:1 168:1 171:1 174:1 177:1 179:1 
-0 0.8852933003009745 1:1 4:1 7:1 15:1 18:1 19:1 24:1 25:1 33:1 35:1 38:1 40:1 43:1 46:1 49:1 53:1 55:1 60:1 61:1 65:1 68:1 70:1 75:1 78:1 80:1 82:1 86:1 88:1 93:1 94:1 97:1 100:1 105:1 107:1 114:1 115:1 118:1 123:1 126:1 132:1 134:1 141:1 144:1 145:1 150:1 151:1 159:1 161:1 164:1 166:1 169:1 174:1 180:1 
-0.02648195810741031 1.009419337585929 2:1 6:1 9:1 10:1 14:1 17:1 19:1 24:1 26:1 32:1 34:1 42:1 45:1 47:1 50:1 59:1 63:1 66:1 68:1 72:1 75:1 77:1 83:1 86:1 88:1 93:1 95:1 99:1 100:1 105:1 107:1 110:1 114:1 120:1 122:1 126:1 128:1 132:1 134:1 140:1 147:1 149:1 151:1 156:1 158:1 161:1 168:1 170:1 172:1 176:1 178:1 
-0.4188182482793221 0.3205886949465418 2:1 8:1 15:1 23:1 25:1 30:1 36:1 40:1 43:1 46:1 52:1 57:1 64:1 68:1 74:1 77:1 79:1 84:1 90:1 92:1 95:1 97:1 100:1 104:1 106:1 109:1 116:1 119:1 124:1 129:1 135:1 137:1 149:1 152:1 172:1 175:1 178:1 
-0.4948316537850634 0.5137784109743689 2:1 5:1 12:1 15:1 20:1 23:1 26:1 29:1 32:1 39:1 42:1 44:1 47:1 50:1 57:1 59:1 66:1 69:1 71:1 75:1 76:1 81:1 82:1 85:1 88:1 93:1 96:1 97:1 104:1 107:1 110:1 113:1 120:1 123:1 129:1 131:1 138:1 139:1 147:1 150:1 155:1 158:1 165:1 167:1 174:1 177:1 
-0.1117453444124337 0 3:1 4:1 9:1 10:1 13:1 18:1 19:1 22:1 31:1 34:1 38:1 41:1 57:1 59:1 68:1 74:1 77:1 79:1 84:1 93:1 94:1 97:1 101:1 103:1 117:1 121:1 126:1 128:1 130:1 133:1 139:1 142:1 147:1 152:1 154:1 162:1 164:1 166:1 169:1 172:1 178:1 
-0 0.7113758261762253 4:1 8:1 14:1 17:1 20:1 22:1 26:1 32:1 35:1 38:1 41:1 43:1 53:1 62:1 64:1 67:1 70:1 74:1 77:1 80:1 82:1 87:1 89:1 95:1 97:1 100:1 105:1 113:1 116:1 118:1 123:1 131:1 134:1 140:1 143:1 145:1 149:1 152:1 157:1 162:1 165:1 166:1 170:1 179:1 
-0.233800114926305 0.316453669926278 2:1 5:1 12:1 15:1 17:1 19:1 26:1 30:1 31:1 36:1 41:1 45:1 48:1 52:1 57:1 58:1 66:1 68:1 71:1 73:1 78:1 81:1 82:1 85:1 93:1 95:1 102:1 109:1 112:1 115:1 119:1 121:1 131:1 136:1 142:1 147:1 151:1 155:1 157:1 161:1 163:1 168:1 171:1 172:1 180:1 
-1.741930951486646 1.420508339072915 3:1 5:1 7:1 10:1 13:1 17:1 20:1 26:1 32:1 35:1 38:1 45:1 48:1 50:1 53:1 56:1 59:1 69:1 72:1 73:1 78:1 83:1 85:1 90:1 93:1 95:1 97:1 101:1 103:1 108:1 111:1 114:1 116:1 120:1 123:1 126:1 129:1 135:1 144:1 147:1 153:1 156:1 159:1 162:1 163:1 166:1 169:1 177:1 
-0 1.17318454292802 3:1 6:1 8:1 11:1 17:1 21:1 24:1 26:1 30:1 32:1 35:1 41:1 45:1 47:1 51:1 54:1 56:1 59:1 63:1 65:1 69:1 71:1 75:1 81:1 84:1 86:1 89:1 93:1 99:1 101:1 105:1 107:1 113:1 120:1 122:1 125:1 130:1 138:1 141:1 144:1 147:1 150:1 152:1 155:1 158:1 162:1 165:1 171:1 174:1 177:1 179:1 
-1.40345056498541 0 2:1 8:1 14:1 28:1 36:1 38:1 47:1 53:1 68:1 70:1 74:1 80:1 87:1 90:1 91:1 96:1 97:1 101:1 103:1 108:1 109:1 114:1 116:1 123:1 127:1 132:1 135:1 136:1 141:1 142:1 145:1 150:1 153:1 154:1 157:1 162:1 164:1 170:1 173:1 176:1 
-0 0.7660142140776285 3:1 5:1 10:1 19:1 23:1 28:1 32:1 35:1 37:1 40:1 45:1 47:1 50:1 57:1 64:1 69:1 76:1 79:1 84:1 87:1 90:1 92:1 94:1 97:1 100:1 105:1 108:1 110:1 112:1 115:1 120:1 121:1 124:1 127:1 138:1 142:1 145:1 159:1 162:1 165:1 168:1 170:1 177:1 
-0.196792365745896 0 2:1 11:1 14:1 16:1 19:1 24:1 27:1 29:1 33:1 35:1 38:1 41:1 47:1 50:1 53:1 65:1 68:1 75:1 77:1 80:1 82:1 88:1 93:1 94:1 98:1 101:1 108:1 110:1 112:1 115:1 119:1 122:1 125:1 127:1 131:1 134:1 139:1 142:1 147:1 149:1 156:1 158:1 160:1 164:1 168:1 173:1 177:1 180:1 
-0 0.6090048008559037 2:1 4:1 10:1 18:1 27:1 28:1 31:1 34:1 37:1 40:1 48:1 49:1 56:1 58:1 61:1 64:1 71:1 73:1 78:1 81:1 82:1 88:1 100:1 105:1 108:1 109:1 117:1 123:1 125:1 127:1 134:1 136:1 141:1 143:1 149:1 151:1 159:1 163:1 175:1 179:1 
-0.7299699739182214 1.321112615039741 5:1 8:1 10:1 18:1 30:1 34:1 37:1 40:1 43:1 47:1 52:1 56:1 58:1 62:1 64:1 71:1 74:1 77:1 82:1 85:1 93:1 99:1 105:1 107:1 110:1 112:1 118:1 123:1 124:1 129:1 139:1 142:1 146:1 148:1 152:1 154:1 157:1 162:1 167:1 170:1 177:1 
