svm_type c_svc
kernel_type rbf
gamma 0.03125
nr_class 3
total_sv 1025
rho 1.2514 0.435807 -0.850868
label 2 3 1
probA -6.42006 -6.62974 -7.98183
probB 0.232339 0.176515 -0.0191661
nr_sv 278 444 303
SV
1.178505708823438 0.5357926292117817 1:1 2:0 3:0 4:0 5:1 6:0 7:0 8:0 9:0 10:0 11:1 12:0 13:1 14:0 15:0 16:0 17:1 18:0 19:0 20:0 21:0 22:0 23:0 24:1 25:1 26:0 27:0 28:0 29:0 30:1 31:1 32:0 33:0 34:0 35:1 36:0 37:1 38:0 39:0 40:0 41:0 42:1 43:0 44:0 45:0 46:0 47:1 48:0 49:0 50:0 51:0 52:0 53:0 54:0 55:0 56:0 57:0 58:0 59:0 60:1 61:0 62:0 63:0 64:0 65:0 66:0 67:0 68:0 69:0 70:0 71:1 72:0 73:0 74:0 75:0 76:0 77:1 78:0 79:0 80:1 81:0 82:0 83:0 84:0 85:1 86:0 87:0 88:0 89:0 90:1 91:0 92:0 93:1 94:0 95:0 96:1 97:0 98:1 99:0 100:1 101:0 102:0 103:0 104:1 105:0 106:1 107:0 108:0 109:0 110:0 111:1 112:0 113:0 114:0 115:0 116:1 117:0 118:0 119:0 120:1 121:0 122:0 123:0 124:1 125:0 126:0 127:0 128:0 129:1 130:0 131:0 132:0 133:0 134:0 135:1 136:0 137:1 138:0 139:0 140:1 141:0 142:1 143:0 144:0 145:1 146:0 147:0 148:0 149:1 150:0 151:0 152:0 153:0 154:0 155:1 156:0 157:0 158:0 159:0 160:0 161:0 162:1 163:0 164:0 165:1 166:1 167:0 168:0 169:0 170:1 171:0 172:0 173:0 174:0 175:0 176:1 177:0 178:0 179:0 180:0 
0.8047375960883953 0.6539898496366513 1:0 2:1 3:0 4:1 5:0 6:0 7:0 8:0 9:1 10:1 11:0 12:0 13:0 14:0 15:0 16:0 17:1 18:0 19:0 20:0 21:0 22:0 23:0 24:0 25:0 26:1 27:0 28:0 29:1 30:0 31:0 32:0 33:0 34:0 35:1 36:0 37:0 38:1 39:0 40:0 41:0 42:0 43:0 44:1 45:0 46:0 47:0 48:0 49:0 50:1 51:0 52:0 53:1 54:0 55:0 56:1 57:0 58:1 59:0 60:0 61:1 62:0 63:0 64:1 65:0 66:0 67:1 68:0 69:0 70:0 71:1 72:0 73:0 74:1 75:0 76:0 77:0 78:0 79:0 80:1 81:0 82:0 83:1 84:0 85:1 86:0 87:0 88:0 89:0 90:1 91:0 92:0 93:0 94:0 95:0 96:1 97:0 98:0 99:0 100:1 101:0 102:0 103:0 104:0 105:0 106:0 107:0 108:1 109:0 110:1 111:0 112:0 113:1 114:0 115:1 116:0 117:0 118:0 119:1 120:0 121:0 122:0 123:1 124:0 125:0 126:0 127:0 128:0 129:0 130:0 131:0 132:1 133:1 134:0 135:0 136:0 137:0 138:1 139:0 140:0 141:1 142:0 143:0 144:1 145:1 146:0 147:0 148:0 149:1 150:0 151:0 152:1 153:0 154:0 155:0 156:0 157:0 158:0 159:1 160:1 161:0 162:0 163:1 164:0 165:0 166:1 167:0 168:0 169:1 170:0 171:0 172:0 173:1 174:0 175:1 176:0 177:0 178:0 179:1 180:0 
0.7496024306132627 0.8120266805851903 1:0 2:0 3:1 4:0 5:0 6:1 7:0 8:0 9:1 10:0 11:0 12:0 13:0 14:1 15:0 16:0 17:1 18:0 19:0 20:1 21:0 22:0 23:0 24:0 25:0 26:0 27:1 28:0 29:0 30:0 31:0 32:0 33:1 34:1 35:0 36:0 37:0 38:1 39:0 40:1 41:0 42:0 43:0 44:0 45:0 46:0 47:0 48:1 49:0 50:0 51:1 52:0 53:0 54:0 55:0 56:0 57:1 58:0 59:1 60:0 61:0 62:1 63:0 64:0 65:1 66:0 67:0 68:0 69:1 70:0 71:1 72:0 73:0 74:1 75:0 76:0 77:0 78:0 79:0 80:0 81:1 82:0 83:1 84:0 85:1 86:0 87:0 88:0 89:0 90:1 91:1 92:0 93:0 94:0 95:0 96:0 97:0 98:0 99:0 100:0 101:0 102:1 103:0 104:0 105:1 106:1 107:0 108:0 109:0 110:1 111:0 112:1 113:0 114:0 115:0 116:0 117:1 118:0 119:1 120:0 121:0 122:1 123:0 124:0 125:1 126:0 127:1 128:0 129:0 130:0 131:1 132:0 133:1 134:0 135:0 136:0 137:1 138:0 139:0 140:0 141:0 142:0 143:0 144:1 145:0 146:1 147:0 148:0 149:0 150:0 151:0 152:0 153:1 154:0 155:1 156:0 157:0 158:0 159:0 160:0 161:0 162:1 163:0 164:0 165:0 166:1 167:0 168:0 169:0 170:0 171:0 172:0 173:0 174:1 175:0 176:0 177:0 178:0 179:0 180:1 
0.885696737689878 0.7670680751553249 1:0 2:0 3:0 4:0 5:0 6:1 7:1 8:0 9:0 10:1 11:0 12:0 13:1 14:0 15:0 16:0 17:0 18:0 19:0 20:0 21:1 22:0 23:0 24:0 25:0 26:0 27:0 28:0 29:0 30:0 31:0 32:0 33:0 34:0 35:0 36:0 37:0 38:1 39:0 40:0 41:1 42:0 43:0 44:0 45:0 46:0 47:0 48:0 49:0 50:0 51:1 52:0 53:0 54:0 55:0 56:0 57:1 58:0 59:0 60:0 61:1 62:0 63:0 64:0 65:0 66:0 67:0 68:0 69:0 70:0 71:0 72:0 73:0 74:0 75:0 76:1 77:0 78:0 79:1 80:0 81:0 82:0 83:1 84:0 85:1 86:0 87:0 88:0 89:0 90:1 91:0 92:0 93:1 94:0 95:0 96:1 97:0 98:1 99:0 100:0 101:0 102:0 103:0 104:0 105:1 106:1 107:0 108:0 109:1 110:0 111:0 112:0 113:0 114:1 115:1 116:0 117:0 118:0 119:1 120:0 121:1 122:0 123:0 124:0 125:0 126:0 127:0 128:0 129:0 130:1 131:0 132:0 133:0 134:0 135:0 136:0 137:0 138:1 139:0 140:0 141:1 142:1 143:0 144:0 145:0 146:0 147:1 148:1 149:0 150:0 151:1 152:0 153:0 154:1 155:0 156:0 157:0 158:0 159:1 160:1 161:0 162:0 163:0 164:1 165:0 166:0 167:0 168:0 169:0 170:0 171:1 172:0 173:0 174:1 175:1 176:0 177:0 178:1 179:0 180:0 
0.1166783969754532 0 1:0 2:0 3:0 4:0 5:0 6:0 7:0 8:0 9:0 10:0 11:1 12:0 13:0 14:1 15:0 16:1 17:0 18:0 19:0 20:1 21:0 22:0 23:0 24:0 25:0 26:1 27:0 28:0 29:1 30:0 31:0 32:0 33:0 34:0 35:1 36:0 37:0 38:1 39:0 40:0 41:0 42:0 43:0 44:0 45:0 46:0 47:0 48:1 49:0 50:0 51:0 52:0 53:1 54:0 55:0 56:0 57:0 58:0 59:0 60:0 61:0 62:1 63:0 64:0 65:0 66:0 67:0 68:1 69:0 70:0 71:0 72:0 73:0 74:1 75:0 76:0 77:0 78:0 79:0 80:0 81:1 82:0 83:1 84:0 85:1 86:0 87:0 88:0 89:0 90:1 91:0 92:0 93:0 94:0 95:0 96:1 97:0 98:1 99:0 100:0 101:1 102:0 103:0 104:1 105:0 106:0 107:0 108:0 109:0 110:0 111:1 112:0 113:0 114:1 115:0 116:0 117:1 118:1 119:0 120:0 121:0 122:0 123:1 124:0 125:1 126:0 127:0 128:0 129:0 130:0 131:0 132:1 133:0 134:0 135:0 136:0 137:1 138:0 139:1 140:0 141:0 142:0 143:0 144:0 145:0 146:0 147:0 148:0 149:0 150:1 151:0 152:1 153:0 154:0 155:1 156:0 157:0 158:1 159:0 160:0 161:0 162:0 163:0 164:1 165:0 166:0 167:1 168:0 169:0 170:0 171:0 172:0 173:0 174:1 175:0 176:1 177:0 178:0 179:0 180:0 
0.4475172960134918 0.1286736647494218 1:0 2:0 3:0 4:0 5:0 6:1 7:0 8:0 9:0 10:0 11:0 12:0 13:0 14:0 15:0 16:0 17:0 18:0 19:0 20:1 21:0 22:0 23:0 24:0 25:0 26:1 27:0 28:0 29:0 30:0 31:0 32:0 33:0 34:0 35:1 36:0 37:0 38:0 39:0 40:1 41:0 42:0 43:0 44:0 45:0 46:0 47:0 48:0 49:0 50:1 51:0 52:0 53:1 54:0 55:0 56:1 57:0 58:0 59:0 60:0 61:0 62:0 63:0 64:0 65:0 66:1 67:0 68:0 69:1 70:0 71:1 72:0 73:0 74:0 75:0 76:0 77:1 78:0 79:1 80:0 81:0 82:0 83:1 84:0 85:1 86:0 87:0 88:0 89:0 90:1 91:0 92:0 93:1 94:0 95:0 96:1 97:1 98:0 99:0 100:0 101:1 102:0 103:0 104:1 105:0 106:0 107:1 108:0 109:0 110:0 111:1 112:1 113:0 114:0 115:0 116:0 117:1 118:0 119:0 120:0 121:0 122:0 123:1 124:0 125:0 126:0 127:1 128:0 129:0 130:0 131:0 132:0 133:1 134:0 135:0 136:0 137:0 138:1 139:0 140:1 141:0 142:0 143:1 144:0 145:0 146:1 147:0 148:0 149:0 150:0 151:0 152:1 153:0 154:0 155:1 156:0 157:1 158:0 159:0 160:0 161:0 162:1 163:1 164:0 165:0 166:0 167:0 168:1 169:0 170:0 171:0 172:0 173:0 174:1 175:0 176:0 177:1 178:1 179:0 180:0 
0.6189456973060015 1.45282082602539 1:0 2:0 3:0 4:0 5:0 6:0 7:0 8:1 9:0 10:0 11:0 12:0 13:0 14:1 15:0 16:0 17:1 18:0 19:1 20:0 21:0 22:0 23:0 24:0 25:0 26:0 27:0 28:0 29:0 30:0 31:0 32:1 33:0 34:0 35:0 36:0 37:0 38:0 39:0 40:0 41:0 42:0 43:0 44:1 45:0 46:0 47:0 48:0 49:0 50:0 51:0 52:0 53:0 54:1 55:0 56:0 57:1 58:0 59:0 60:1 61:0 62:0 63:1 64:0 65:0 66:0 67:0 68:1 69:0 70:0 71:0 72:0 73:0 74:1 75:0 76:0 77:0 78:0 79:0 80:0 81:1 82:0 83:1 84:0 85:1 86:0 87:0 88:0 89:0 90:1 91:0 92:0 93:1 94:0 95:0 96:0 97:1 98:0 99:0 100:0 101:1 102:0 103:0 104:0 105:1 106:1 107:0 108:0 109:0 110:0 111:1 112:0 113:1 114:0 115:0 116:0 117:1 118:1 119:0 120:0 121:1 122:0 123:0 124:1 125:0 126:0 127:0 128:1 129:0 130:1 131:0 132:0 133:0 134:0 135:0 136:0 137:0 138:0 139:0 140:0 141:1 142:1 143:0 144:0 145:1 146:0 147:0 148:1 149:0 150:0 151:1 152:0 153:0 154:0 155:0 156:1 157:1 158:0 159:0 160:0 161:0 162:0 163:1 164:0 165:0 166:0 167:0 168:0 169:0 170:1 171:0 172:0 173:1 174:0 175:1 176:0 177:0 178:0 179:0 180:0 
0.08143855689402879 0.442322090062009 1:0 2:0 3:0 4:0 5:0 6:0 7:1 8:0 9:0 10:0 11:0 12:0 13:0 14:0 15:0 16:0 17:0 18:0 19:0 20:0 21:0 22:0 23:1 24:0 25:0 26:0 27:0 28:0 29:1 30:0 31:0 32:1 33:0 34:1 35:0 36:0 37:0 38:0 39:0 40:0 41:0 42:0 43:0 44:0 45:1 46:0 47:0 48:0 49:0 50:1 51:0 52:0 53:0 54:0 55:0 56:0 57:0 58:1 59:0 60:0 61:0 62:1 63:0 64:0 65:1 66:0 67:0 68:0 69:0 70:0 71:0 72:0 73:0 74:0 75:0 76:0 77:0 78:0 79:1 80:0 81:0 82:0 83:1 84:0 85:1 86:0 87:0 88:0 89:0 90:1 91:0 92:0 93:1 94:0 95:0 96:0 97:0 98:0 99:1 100:0 101:0 102:0 103:0 104:0 105:0 106:1 107:0 108:0 109:1 110:0 111:0 112:0 113:0 114:0 115:1 116:0 117:0 118:0 119:0 120:0 121:1 122:0 123:0 124:0 125:0 126:1 127:0 128:0 129:0 130:0 131:0 132:1 133:1 134:0 135:0 136:1 137:0 138:0 139:1 140:0 141:0 142:1 143:0 144:0 145:0 146:0 147:1 148:0 149:0 150:1 151:1 152:0 153:0 154:1 155:0 156:0 157:0 158:0 159:1 160:0 161:1 162:0 163:0 164:0 165:0 166:0 167:0 168:0 169:0 170:0 171:1 172:0 173:1 174:0 175:1 176:0 177:0 178:0 179:0 180:1 
0 0.1136166904877137 1:0 2:1 3:0 4:0 5:1 6:0 7:0 8:0 9:0 10:1 11:0 12:0 13:1 14:0 15:0 16:0 17:1 18:0 19:0 20:1 21:0 22:1 23:0 24:0 25:0 26:1 27:0 28:1 29:0 30:0 31:1 32:0 33:0 34:0 35:0 36:1 37:1 38:0 39:0 40:0 41:1 42:0 43:0 44:1 45:0 46:0 47:1 48:0 49:0 50:1 51:0 52:0 53:1 54:0 55:0 56:0 57:0 58:0 59:0 60:0 61:0 62:1 63:0 64:0 65:0 66:0 67:0 68:0 69:0 70:0 71:0 72:0 73:0 74:1 75:0 76:0 77:0 78:0 79:0 80:0 81:0 82:0 83:1 84:0 85:1 86:0 87:0 88:0 89:0 90:1 91:0 92:0 93:0 94:0 95:0 96:1 97:0 98:0 99:1 100:0 101:0 102:0 103:0 104:0 105:1 106:0 107:0 108:0 109:0 110:0 111:0 112:0 113:1 114:0 115:0 116:0 117:0 118:0 119:1 120:0 121:0 122:1 123:0 124:1 125:0 126:0 127:0 128:0 129:0 130:0 131:0 132:1 133:0 134:0 135:0 136:0 137:1 138:0 139:0 140:1 141:0 142:0 143:0 144:0 145:0 146:0 147:0 148:0 149:0 150:0 151:0 152:0 153:1 154:0 155:0 156:0 157:1 158:0 159:0 160:0 161:1 162:0 163:1 164:0 165:0 166:1 167:0 168:0 169:0 170:0 171:1 172:0 173:0 174:1 175:1 176:0 177:0 178:0 179:0 180:1 
0.7323217376673219 1.395166253091596 1:0 2:1 3:0 4:0 5:0 6:0 7:0 8:0 9:1 10:0 11:0 12:0 13:0 14:0 15:0 16:1 17:0 18:0 19:0 20:1 21:0 22:1 23:0 24:0 25:0 26:1 27:0 28:0 29:0 30:1 31:0 32:1 33:0 34:0 35:0 36:0 37:0 38:0 39:0 40:0 41:0 42:1 43:0 44:0 45:0 46:1 47:0 48:0 49:1 50:0 51:0 52:0 53:0 54:0 55:0 56:0 57:0 58:0 59:0 60:1 61:1 62:0 63:0 64:0 65:1 66:0 67:0 68:0 69:0 70:0 71:1 72:0 73:0 74:0 75:0 76:0 77:0 78:0 79:0 80:1 81:0 82:0 83:0 84:0 85:1 86:0 87:0 88:0 89:0 90:1 91:0 92:0 93:1 94:0 95:0 96:0 97:0 98:0 99:1 100:1 101:0 102:0 103:0 104:0 105:1 106:0 107:1 108:0 109:0 110:1 111:0 112:0 113:1 114:0 115:1 116:0 117:0 118:0 119:0 120:0 121:0 122:0 123:0 124:0 125:0 126:1 127:0 128:0 129:1 130:0 131:1 132:0 133:1 134:0 135:0 136:0 137:0 138:1 139:0 140:0 141:1 142:0 143:0 144:1 145:0 146:0 147:1 148:0 149:0 150:0 151:1 152:0 153:0 154:0 155:1 156:0 157:0 158:1 159:0 160:1 161:0 162:0 163:1 164:0 165:0 166:1 167:0 168:0 169:0 170:0 171:1 172:0 173:0 174:0 175:0 176:0 177:1 178:1 179:0 180:0 
0.00808780655334999 0 1:0 2:1 3:0 4:0 5:1 6:0 7:0 8:0 9:0 10:0 11:0 12:1 13:0 14:1 15:0 16:0 17:0 18:0 19:0 20:0 21:1 22:0 23:0 24:1 25:1 26:0 27:0 28:1 29:0 30:0 31:0 32:1 33:0 34:0 35:0 36:0 37:0 38:1 39:0 40:1 41:0 42:0 43:0 44:1 45:0 46:1 47:0 48:0 49:0 50:1 51:0 52:0 53:0 54:0 55:0 56:0 57:1 58:0 59:0 60:0 61:0 62:0 63:0 64:0 65:0 66:0 67:0 68:1 69:0 70:0 71:0 72:0 73:0 74:1 75:0 76:0 77:1 78:0 79:1 80:0 81:0 82:0 83:1 84:0 85:1 86:0 87:0 88:0 89:0 90:1 91:0 92:1 93:0 94:0 95:0 96:1 97:0 98:1 99:0 100:1 101:0 102:0 103:0 104:0 105:0 106:0 107:0 108:1 109:1 110:0 111:0 112:0 113:0 114:1 115:1 116:0 117:0 118:0 119:0 120:1 121:0 122:1 123:0 124:0 125:1 126:0 127:0 128:1 129:0 130:1 131:0 132:0 133:0 134:0 135:1 136:0 137:1 138:0 139:0 140:1 141:0 142:0 143:1 144:0 145:0 146:0 147:1 148:0 149:0 150:1 151:0 152:1 153:0 154:1 155:0 156:0 157:0 158:1 159:0 160:0 161:1 162:0 163:0 164:1 165:0 166:0 167:1 168:0 169:0 170:0 171:0 172:0 173:0 174:1 175:0 176:0 177:0 178:0 179:0 180:1 
0.2589919381824884 1.022409845685069 1:0 2:1 3:0 4:0 5:1 6:0 7:0 8:1 9:0 10:1 11:0 12:0 13:0 14:0 15:1 16:0 17:0 18:1 19:1 20:0 21:0 22:0 23:1 24:0 25:0 26:0 27:0 28:0 29:1 30:0 31:1 32:0 33:0 34:0 35:1 36:0 37:1 38:0 39:0 40:0 41:1 42:0 43:1 44:0 45:0 46:0 47:0 48:0 49:0 50:0 51:0 52:0 53:0 54:0 55:0 56:1 57:0 58:0 59:0 60:0 61:0 62:0 63:1 64:0 65:1 66:0 67:0 68:0 69:0 70:0 71:1 72:0 73:0 74:1 75:0 76:0 77:0 78:0 79:0 80:0 81:0 82:0 83:1 84:0 85:1 86:0 87:0 88:0 89:0 90:1 91:0 92:0 93:1 94:0 95:0 96:1 97:0 98:0 99:0 100:0 101:0 102:0 103:0 104:0 105:1 106:0 107:0 108:1 109:0 110:0 111:1 112:0 113:0 114:1 115:0 116:0 117:1 118:0 119:0 120:0 121:0 122:0 123:1 124:0 125:1 126:0 127:0 128:1 129:0 130:0 131:1 132:0 133:1 134:0 135:0 136:0 137:1 138:0 139:0 140:0 141:1 142:0 143:0 144:1 145:0 146:0 147:0 148:0 149:0 150:1 151:1 152:0 153:0 154:0 155:1 156:0 157:1 158:0 159:0 160:0 161:0 162:1 163:0 164:1 165:0 166:0 167:1 168:0 169:1 170:0 171:0 172:0 173:1 174:0 175:0 176:1 177:0 178:1 179:0 180:0 
0.63715600754232 0.7360046844584038 1:0 2:1 3:0 4:0 5:0 6:0 7:0 8:0 9:0 10:0 11:1 12:0 13:1 14:0 15:0 16:0 17:0 18:1 19:0 20:1 21:0 22:0 23:1 24:0 25:0 26:0 27:0 28:0 29:1 30:0 31:0 32:1 33:0 34:0 35:1 36:0 37:1 38:0 39:0 40:1 41:0 42:0 43:0 44:0 45:1 46:0 47:0 48:0 49:1 50:0 51:0 52:0 53:0 54:1 55:0 56:1 57:0 58:0 59:0 60:0 61:0 62:0 63:1 64:0 65:0 66:1 67:0 68:0 69:0 70:1 71:0 72:0 73:0 74:1 75:0 76:0 77:0 78:0 79:1 80:0 81:0 82:0 83:1 84:0 85:1 86:0 87:0 88:0 89:0 90:1 91:0 92:0 93:1 94:0 95:0 96:1 97:0 98:1 99:0 100:1 101:0 102:0 103:0 104:1 105:0 106:1 107:0 108:0 109:0 110:1 111:0 112:0 113:0 114:1 115:0 116:0 117:0 118:0 119:0 120:1 121:0 122:0 123:0 124:0 125:0 126:0 127:0 128:0 129:0 130:0 131:1 132:0 133:1 134:0 135:0 136:0 137:1 138:0 139:0 140:0 141:1 142:0 143:0 144:0 145:0 146:0 147:0 148:0 149:0 150:1 151:1 152:0 153:0 154:0 155:1 156:0 157:1 158:0 159:0 160:0 161:0 162:1 163:0 164:0 165:1 166:0 167:0 168:0 169:0 170:0 171:0 172:0 173:0 174:0 175:0 176:0 177:1 178:0 179:1 180:0 
0.508599161401783 0 1:1 2:0 3:0 4:0 5:1 6:0 7:0 8:0 9:1 10:0 11:0 12:0 13:0 14:0 15:0 16:0 17:0 18:0 19:0 20:1 21:0 22:1 23:0 24:0 25:0 26:0 27:0 28:0 29:0 30:1 31:1 32:0 33:0 34:1 35:0 36:0 37:0 38:0 39:1 40:0 41:0 42:0 43:0 44:0 45:0 46:0 47:0 48:0 49:1 50:0 51:0 52:0 53:0 54:0 55:0 56:0 57:0 58:0 59:0 60:0 61:0 62:0 63:0 64:0 65:0 66:1 67:0 68:1 69:0 70:0 71:1 72:0 73:0 74:0 75:0 76:0 77:0 78:0 79:0 80:1 81:0 82:0 83:1 84:0 85:1 86:0 87:0 88:0 89:0 90:1 91:0 92:1 93:0 94:0 95:0 96:0 97:0 98:0 99:0 100:0 101:1 102:0 103:0 104:1 105:0 106:1 107:0 108:0 109:0 110:0 111:0 112:1 113:0 114:0 115:0 116:0 117:0 118:0 119:0 120:0 121:0 122:0 123:1 124:0 125:0 126:1 127:1 128:0 129:0 130:0 131:0 132:0 133:0 134:0 135:0 136:0 137:1 138:0 139:0 140:0 141:0 142:0 143:0 144:0 145:1 146:0 147:0 148:0 149:1 150:0 151:0 152:1 153:0 154:1 155:0 156:0 157:1 158:0 159:0 160:0 161:0 162:0 163:0 164:0 165:1 166:0 167:0 168:0 169:1 170:0 171:0 172:0 173:1 174:0 175:0 176:0 177:0 178:0 179:0 180:1 
0.6500147665688785 0.5172202917168091 1:0 2:0 3:0 4:1 5:0 6:0 7:0 8:0 9:1 10:0 11:1 12:0 13:1 14:0 15:0 16:0 17:1 18:0 19:1 20:0 21:0 22:0 23:0 24:0 25:0 26:0 27:1 28:0 29:0 30:0 31:0 32:0 33:1 34:1 35:0 36:0 37:0 38:1 39:0 40:0 41:0 42:0 43:0 44:0 45:1 46:0 47:0 48:1 49:1 50:0 51:0 52:0 53:1 54:0 55:0 56:0 57:0 58:0 59:1 60:0 61:0 62:1 63:0 64:0 65:0 66:0 67:0 68:1 69:0 70:0 71:0 72:0 73:0 74:1 75:0 76:0 77:1 78:0 79:0 80:1 81:0 82:0 83:1 84:0 85:1 86:0 87:0 88:0 89:0 90:1 91:0 92:0 93:1 94:0 95:0 96:0 97:0 98:1 99:0 100:0 101:0 102:1 103:0 104:0 105:0 106:0 107:1 108:0 109:1 110:0 111:0 112:0 113:0 114:1 115:0 116:0 117:0 118:0 119:0 120:1 121:1 122:0 123:0 124:0 125:0 126:1 127:0 128:0 129:1 130:0 131:1 132:0 133:0 134:1 135:0 136:1 137:0 138:0 139:0 140:1 141:0 142:1 143:0 144:0 145:0 146:1 147:0 148:1 149:0 150:0 151:0 152:0 153:1 154:0 155:1 156:0 157:1 158:0 159:0 160:0 161:0 162:1 163:0 164:1 165:0 166:1 167:0 168:0 169:0 170:0 171:1 172:0 173:1 174:0 175:1 176:0 177:0 178:0 179:0 180:0 
0.04423767324281357 0 1:0 2:0 3:0 4:1 5:0 6:0 7:1 8:0 9:0 10:0 11:0 12:0 13:0 14:1 15:0 16:0 17:0 18:1 19:0 20:0 21:0 22:0 23:0 24:0 25:0 26:0 27:1 28:1 29:0 30:0 31:0 32:0 33:0 34:0 35:0 36:0 37:0 38:1 39:0 40:0 41:1 42:0 43:0 44:1 45:0 46:0 47:0 48:0 49:0 50:0 51:0 52:0 53:1 54:0 55:0 56:1 57:0 58:0 59:1 60:0 61:0 62:0 63:0 64:0 65:1 66:0 67:0 68:1 69:0 70:0 71:1 72:0 73:0 74:0 75:0 76:0 77:1 78:0 79:1 80:0 81:0 82:0 83:1 84:0 85:1 86:0 87:0 88:0 89:0 90:1 91:1 92:0 93:0 94:1 95:0 96:0 97:1 98:0 99:0 100:0 101:0 102:1 103:0 104:1 105:0 106:1 107:0 108:0 109:0 110:0 111:0 112:0 113:1 114:0 115:0 116:1 117:0 118:0 119:1 120:0 121:0 122:0 123:0 124:0 125:0 126:1 127:0 128:0 129:1 130:1 131:0 132:0 133:0 134:0 135:1 136:1 137:0 138:0 139:1 140:0 141:0 142:0 143:1 144:0 145:1 146:0 147:0 148:0 149:0 150:1 151:0 152:1 153:0 154:0 155:1 156:0 157:0 158:0 159:0 160:0 161:0 162:1 163:0 164:0 165:1 166:1 167:0 168:0 169:0 170:0 171:1 172:0 173:0 174:1 175:1 176:0 177:0 178:0 179:0 180:1 
0 0.5263822595664072 1:0 2:1 3:0 4:1 5:0 6:0 7:0 8:0 9:1 10:0 11:1 12:0 13:0 14:0 15:0 16:0 17:0 18:1 19:0 20:0 21:0 22:0 23:1 24:0 25:0 26:0 27:0 28:0 29:1 30:0 31:0 32:0 33:0 34:0 35:0 36:1 37:0 38:0 39:0 40:0 41:1 42:0 43:0 44:1 45:0 46:0 47:1 48:0 49:0 50:1 51:0 52:1 53:0 54:0 55:0 56:1 57:0 58:0 59:1 60:0 61:0 62:1 63:0 64:1 65:0 66:0 67:0 68:1 69:0 70:0 71:1 72:0 73:0 74:1 75:0 76:0 77:0 78:0 79:0 80:1 81:0 82:0 83:1 84:0 85:1 86:0 87:0 88:0 89:0 90:1 91:1 92:0 93:0 94:0 95:0 96:1 97:1 98:0 99:0 100:1 101:0 102:0 103:0 104:0 105:1 106:0 107:1 108:0 109:0 110:1 111:0 112:1 113:0 114:0 115:1 116:0 117:0 118:0 119:0 120:1 121:0 122:0 123:1 124:0 125:1 126:0 127:1 128:0 129:0 130:0 131:0 132:0 133:0 134:0 135:1 136:0 137:1 138:0 139:0 140:0 141:1 142:0 143:0 144:0 145:0 146:0 147:1 148:0 149:0 150:1 151:0 152:0 153:0 154:0 155:0 156:1 157:0 158:1 159:0 160:1 161:0 162:0 163:0 164:1 165:0 166:0 167:0 168:1 169:0 170:0 171:1 172:0 173:1 174:0 175:0 176:0 177:0 178:0 179:1 180:0 
0.3847398627596293 0.5438067569120358 1:0 2:1 3:0 4:0 5:1 6:0 7:0 8:0 9:0 10:0 11:0 12:1 13:1 14:0 15:0 16:0 17:0 18:0 19:0 20:1 21:0 22:0 23:0 24:0 25:0 26:0 27:1 28:0 29:0 30:1 31:0 32:0 33:1 34:0 35:0 36:0 37:0 38:1 39:0 40:0 41:0 42:0 43:0 44:1 45:0 46:0 47:1 48:0 49:0 50:1 51:0 52:0 53:1 54:0 55:0 56:0 57:0 58:0 59:1 60:0 61:0 62:1 63:0 64:0 65:1 66:0 67:1 68:0 69:0 70:0 71:1 72:0 73:0 74:1 75:0 76:0 77:1 78:0 79:0 80:0 81:0 82:0 83:1 84:0 85:1 86:0 87:0 88:0 89:0 90:1 91:0 92:0 93:1 94:0 95:0 96:1 97:1 98:0 99:0 100:0 101:0 102:1 103:0 104:1 105:0 106:0 107:1 108:0 109:1 110:0 111:0 112:0 113:0 114:1 115:0 116:0 117:1 118:0 119:1 120:0 121:0 122:0 123:0 124:0 125:1 126:0 127:0 128:0 129:1 130:0 131:0 132:1 133:0 134:1 135:0 136:1 137:0 138:0 139:0 140:0 141:0 142:0 143:0 144:0 145:0 146:0 147:0 148:0 149:1 150:0 151:0 152:0 153:0 154:0 155:0 156:1 157:0 158:0 159:1 160:0 161:1 162:0 163:1 164:0 165:0 166:0 167:0 168:1 169:0 170:1 171:0 172:1 173:0 174:0 175:1 176:0 177:0 178:0 179:0 180:1 
0.4939271280298578 0.5411377441393789 1:0 2:0 3:0 4:0 5:0 6:1 7:1 8:0 9:0 10:0 11:0 12:1 13:0 14:1 15:0 16:0 17:0 18:1 19:0 20:0 21:1 22:0 23:0 24:1 25:1 26:0 27:0 28:1 29:0 30:0 31:0 32:1 33:0 34:0 35:0 36:1 37:0 38:1 39:0 40:0 41:1 42:0 43:0 44:0 45:0 46:1 47:0 48:0 49:0 50:1 51:0 52:1 53:0 54:0 55:0 56:0 57:0 58:0 59:0 60:0 61:0 62:1 63:0 64:0 65:0 66:0 67:0 68:0 69:0 70:0 71:1 72:0 73:0 74:1 75:0 76:0 77:0 78:0 79:0 80:1 81:0 82:0 83:1 84:0 85:1 86:0 87:0 88:0 89:0 90:1 91:0 92:1 93:0 94:0 95:0 96:0 97:0 98:0 99:1 100:1 101:0 102:0 103:0 104:0 105:1 106:0 107:1 108:0 109:1 110:0 111:0 112:0 113:0 114:1 115:1 116:0 117:0 118:1 119:0 120:0 121:0 122:0 123:1 124:1 125:0 126:0 127:0 128:0 129:1 130:0 131:0 132:0 133:0 134:1 135:0 136:1 137:0 138:0 139:0 140:0 141:1 142:1 143:0 144:0 145:0 146:1 147:0 148:0 149:0 150:1 151:0 152:0 153:1 154:1 155:0 156:0 157:1 158:0 159:0 160:0 161:0 162:0 163:0 164:1 165:0 166:0 167:0 168:1 169:1 170:0 171:0 172:1 173:0 174:0 175:1 176:0 177:0 178:0 179:1 180:0 
0.1701258609561034 0.00634292580346707 1:0 2:0 3:1 4:1 5:0 6:0 7:0 8:1 9:0 10:0 11:1 12:0 13:0 14:0 15:0 16:0 17:1 18:0 19:0 20:0 21:0 22:0 23:1 24:0 25:0 26:1 27:0 28:0 29:0 30:0 31:0 32:0 33:0 34:0 35:1 36:0 37:0 38:0 39:0 40:0 41:1 42:0 43:0 44:0 45:0 46:0 47:0 48:0 49:0 50:1 51:0 52:0 53:1 54:0 55:0 56:0 57:0 58:0 59:0 60:0 61:0 62:1 63:0 64:1 65:0 66:0 67:0 68:1 69:0 70:0 71:0 72:0 73:0 74:0 75:0 76:0 77:0 78:0 79:0 80:0 81:1 82:0 83:1 84:0 85:1 86:0 87:0 88:0 89:0 90:1 91:1 92:0 93:0 94:0 95:0 96:1 97:0 98:0 99:1 100:0 101:1 102:0 103:0 104:0 105:0 106:0 107:0 108:1 109:0 110:0 111:1 112:1 113:0 114:0 115:1 116:0 117:0 118:0 119:0 120:1 121:1 122:0 123:0 124:0 125:1 126:0 127:0 128:0 129:1 130:0 131:0 132:1 133:0 134:1 135:0 136:1 137:0 138:0 139:0 140:0 141:1 142:0 143:1 144:0 145:0 146:1 147:0 148:0 149:0 150:1 151:0 152:1 153:0 154:0 155:1 156:0 157:0 158:0 159:1 160:0 161:0 162:1 163:1 164:0 165:0 166:0 167:1 168:0 169:0 170:0 171:0 172:0 173:0 174:1 175:0 176:0 177:1 178:0 179:0 180:1 
0.1611888394476388 0 1:0 2:1 3:0 4:1 5:0 6:0 7:0 8:0 9:0 10:0 11:0 12:0 13:0 14:0 15:0 16:0 17:0 18:0 19:0 20:0 21:0 22:0 23:0 24:1 25:0 26:0 27:0 28:0 29:0 30:0 31:0 32:0 33:1 34:0 35:0 36:0 37:0 38:1 39:0 40:0 41:0 42:0 43:0 44:1 45:0 46:0 47:1 48:0 49:0 50:0 51:0 52:0 53:0 54:0 55:0 56:0 57:0 58:0 59:1 60:0 61:1 62:0 63:0 64:0 65:0 66:0 67:0 68:1 69:0 70:0 71:0 72:0 73:0 74:1 75:0 76:1 77:0 78:0 79:1 80:0 81:0 82:0 83:1 84:0 85:1 86:0 87:0 88:0 89:0 90:1 91:0 92:1 93:0 94:0 95:0 96:0 97:0 98:1 99:0 100:0 101:1 102:0 103:0 104:0 105:0 106:0 107:0 108:1 109:0 110:0 111:1 112:0 113:0 114:1 115:1 116:0 117:0 118:1 119:0 120:0 121:1 122:0 123:0 124:0 125:0 126:0 127:0 128:0 129:1 130:0 131:0 132:0 133:0 134:0 135:1 136:0 137:1 138:0 139:0 140:0 141:0 142:0 143:0 144:1 145:0 146:0 147:1 148:0 149:0 150:0 151:0 152:0 153:1 154:1 155:0 156:0 157:0 158:1 159:0 160:0 161:0 162:0 163:0 164:0 165:1 166:0 167:0 168:0 169:0 170:0 171:0 172:0 173:0 174:0 175:0 176:0 177:0 178:0 179:0 180:1 
0.3713171498250524 0 1:0 2:0 3:1 4:0 5:0 6:1 7:1 8:0 9:0 10:0 11:0 12:0 13:0 14:0 15:0 16:0 17:1 18:0 19:0 20:1 21:0 22:0 23:1 24:0 25:0 26:1 27:0 28:0 29:0 30:0 31:0 32:0 33:1 34:1 35:0 36:0 37:0 38:1 39:0 40:0 41:0 42:0 43:0 44:1 45:0 46:0 47:1 48:0 49:1 50:0 51:0 52:0 53:1 54:0 55:0 56:1 57:0 58:0 59:0 60:0 61:0 62:1 63:0 64:0 65:0 66:0 67:0 68:0 69:0 70:0 71:1 72:0 73:0 74:1 75:0 76:0 77:0 78:0 79:0 80:1 81:0 82:0 83:1 84:0 85:1 86:0 87:0 88:0 89:0 90:1 91:1 92:0 93:0 94:0 95:1 96:0 97:0 98:0 99:1 100:0 101:0 102:1 103:0 104:1 105:0 106:0 107:0 108:0 109:0 110:0 111:1 112:0 113:1 114:0 115:0 116:1 117:0 118:1 119:0 120:0 121:0 122:1 123:0 124:0 125:0 126:1 127:0 128:1 129:0 130:0 131:1 132:0 133:0 134:0 135:1 136:1 137:0 138:0 139:0 140:1 141:0 142:0 143:1 144:0 145:0 146:1 147:0 148:0 149:0 150:0 151:0 152:0 153:1 154:0 155:1 156:0 157:0 158:1 159:0 160:0 161:0 162:0 163:0 164:0 165:1 166:0 167:1 168:0 169:0 170:0 171:1 172:1 173:0 174:0 175:0 176:1 177:0 178:0 179:0 180:1 
1.583867071133926 1.895284255330785 1:0 2:0 3:1 4:0 5:0 6:1 7:0 8:0 9:1 10:0 11:1 12:0 13:0 14:0 15:1 16:0 17:0 18:1 19:0 20:0 21:1 22:0 23:0 24:1 25:0 26:1 27:0 28:0 29:0 30:0 31:0 32:0 33:1 34:1 35:0 36:0 37:0 38:1 39:0 40:0 41:1 42:0 43:0 44:0 45:1 46:1 47:0 48:0 49:0 50:0 51:1 52:0 53:0 54:1 55:0 56:0 57:1 58:0 59:0 60:1 61:0 62:0 63:1 64:0 65:0 66:0 67:0 68:0 69:1 70:0 71:0 72:1 73:0 74:0 75:1 76:0 77:0 78:1 79:0 80:1 81:0 82:0 83:1 84:0 85:1 86:0 87:0 88:0 89:0 90:1 91:0 92:0 93:1 94:0 95:0 96:0 97:0 98:0 99:0 100:0 101:1 102:0 103:0 104:0 105:0 106:0 107:1 108:0 109:1 110:0 111:0 112:0 113:1 114:0 115:1 116:0 117:0 118:0 119:1 120:0 121:0 122:1 123:0 124:0 125:1 126:0 127:0 128:0 129:0 130:0 131:1 132:0 133:0 134:1 135:0 136:1 137:0 138:0 139:0 140:0 141:1 142:0 143:0 144:0 145:0 146:0 147:1 148:0 149:0 150:1 151:1 152:0 153:0 154:0 155:0 156:0 157:0 158:0 159:1 160:1 161:0 162:0 163:0 164:0 165:0 166:0 167:0 168:0 169:0 170:0 171:1 172:0 173:0 174:1 175:0 176:1 177:0 178:0 179:0 180:0 
0.1337132818673355 0 1:1 2:0 3:0 4:0 5:1 6:0 7:1 8:0 9:0 10:1 11:0 12:0 13:0 14:1 15:0 16:0 17:0 18:1 19:0 20:0 21:0 22:0 23:0 24:1 25:0 26:0 27:0 28:0 29:1 30:0 31:0 32:0 33:0 34:0 35:1 36:0 37:0 38:0 39:0 40:0 41:0 42:1 43:0 44:1 45:0 46:0 47:0 48:0 49:0 50:0 51:0 52:0 53:1 54:0 55:0 56:0 57:0 58:0 59:1 60:0 61:0 62:0 63:0 64:0 65:1 66:0 67:0 68:1 69:0 70:0 71:1 72:0 73:0 74:1 75:0 76:0 77:0 78:0 79:0 80:1 81:0 82:0 83:1 84:0 85:1 86:0 87:0 88:0 89:0 90:1 91:0 92:0 93:1 94:0 95:1 96:0 97:0 98:1 99:0 100:0 101:0 102:1 103:0 104:0 105:0 106:0 107:0 108:1 109:0 110:1 111:0 112:1 113:0 114:0 115:0 116:0 117:0 118:1 119:0 120:0 121:1 122:0 123:0 124:0 125:0 126:1 127:0 128:0 129:1 130:0 131:1 132:0 133:0 134:0 135:0 136:0 137:0 138:1 139:0 140:0 141:0 142:0 143:0 144:1 145:0 146:1 147:0 148:0 149:0 150:0 151:0 152:0 153:1 154:1 155:0 156:0 157:0 158:1 159:0 160:0 161:1 162:0 163:1 164:0 165:0 166:0 167:0 168:0 169:0 170:1 171:0 172:0 173:0 174:1 175:1 176:0 177:0 178:0 179:1 180:0 
0.05218861827394745 0.2588903909527294 1:0 2:1 3:0 4:0 5:0 6:1 7:0 8:0 9:0 10:0 11:1 12:0 13:0 14:1 15:0 16:0 17:0 18:0 19:0 20:1 21:0 22:1 23:0 24:0 25:1 26:0 27:0 28:0 29:0 30:1 31:0 32:0 33:0 34:0 35:0 36:1 37:0 38:0 39:0 40:0 41:0 42:1 43:0 44:0 45:1 46:0 47:1 48:0 49:0 50:1 51:0 52:0 53:0 54:1 55:0 56:0 57:0 58:0 59:1 60:0 61:0 62:0 63:0 64:0 65:0 66:0 67:0 68:1 69:0 70:0 71:1 72:0 73:0 74:1 75:0 76:0 77:0 78:0 79:0 80:1 81:0 82:0 83:1 84:0 85:1 86:0 87:0 88:0 89:0 90:1 91:0 92:0 93:1 94:0 95:0 96:1 97:1 98:0 99:0 100:0 101:0 102:1 103:0 104:1 105:0 106:0 107:1 108:0 109:1 110:0 111:0 112:0 113:0 114:0 115:0 116:0 117:0 118:0 119:0 120:1 121:0 122:0 123:0 124:0 125:0 126:1 127:0 128:0 129:1 130:0 131:1 132:0 133:0 134:1 135:0 136:0 137:0 138:1 139:0 140:0 141:0 142:0 143:0 144:1 145:1 146:0 147:0 148:0 149:1 150:0 151:0 152:0 153:1 154:0 155:0 156:1 157:0 158:0 159:1 160:0 161:0 162:0 163:0 164:0 165:1 166:1 167:0 168:0 169:0 170:1 171:0 172:0 173:0 174:1 175:0 176:0 177:1 178:0 179:0 180:1 
0.6439308277510625 0 1:0 2:0 3:1 4:1 5:0 6:0 7:0 8:1 9:0 10:0 11:1 12:0 13:1 14:0 15:0 16:0 17:0 18:1 19:0 20:0 21:1 22:0 23:0 24:0 25:0 26:1 27:0 28:0 29:0 30:0 31:0 32:0 33:0 34:0 35:0 36:0 37:0 38:0 39:0 40:0 41:0 42:0 43:0 44:0 45:0 46:0 47:0 48:0 49:0 50:0 51:0 52:0 53:0 54:0 55:0 56:0 57:1 58:0 59:0 60:0 61:0 62:0 63:0 64:0 65:1 66:0 67:0 68:0 69:0 70:1 71:0 72:0 73:0 74:1 75:0 76:0 77:1 78:0 79:0 80:1 81:0 82:0 83:1 84:0 85:1 86:0 87:0 88:0 89:0 90:1 91:0 92:1 93:0 94:0 95:1 96:0 97:1 98:0 99:0 100:0 101:0 102:1 103:0 104:1 105:0 106:1 107:0 108:0 109:1 110:0 111:0 112:0 113:1 114:0 115:1 116:0 117:0 118:0 119:0 120:1 121:0 122:0 123:0 124:0 125:0 126:1 127:0 128:1 129:0 130:0 131:1 132:0 133:0 134:1 135:0 136:1 137:0 138:0 139:0 140:0 141:1 142:0 143:0 144:1 145:0 146:0 147:1 148:0 149:1 150:0 151:0 152:0 153:0 154:0 155:1 156:0 157:0 158:0 159:0 160:0 161:0 162:1 163:1 164:0 165:0 166:0 167:0 168:0 169:0 170:0 171:1 172:1 173:0 174:0 175:0 176:0 177:1 178:0 179:0 180:0 
0.2227172820754952 0.5960890394415963 1:0 2:0 3:0 4:0 5:0 6:1 7:1 8:0 9:0 10:0 11:1 12:0 13:0 14:1 15:0 16:1 17:0 18:0 19:0 20:0 21:1 22:0 23:0 24:1 25:0 26:0 27:0 28:0 29:1 30:0 31:0 32:0 33:0 34:0 35:0 36:0 37:0 38:0 39:1 40:0 41:0 42:0 43:0 44:0 45:0 46:0 47:0 48:0 49:0 50:0 51:0 52:0 53:0 54:0 55:0 56:0 57:1 58:0 59:0 60:0 61:0 62:0 63:0 64:0 65:1 66:0 67:0 68:0 69:0 70:1 71:0 72:0 73:0 74:1 75:0 76:0 77:1 78:0 79:0 80:1 81:0 82:0 83:1 84:0 85:1 86:0 87:0 88:0 89:0 90:1 91:0 92:0 93:1 94:0 95:0 96:1 97:1 98:0 99:0 100:0 101:0 102:1 103:0 104:1 105:0 106:0 107:0 108:1 109:1 110:0 111:0 112:0 113:1 114:0 115:1 116:0 117:0 118:0 119:0 120:1 121:0 122:0 123:0 124:0 125:0 126:1 127:0 128:1 129:0 130:0 131:1 132:0 133:0 134:1 135:0 136:1 137:0 138:0 139:0 140:0 141:1 142:0 143:0 144:1 145:0 146:0 147:1 148:0 149:0 150:1 151:0 152:0 153:0 154:0 155:1 156:0 157:0 158:0 159:0 160:0 161:0 162:1 163:1 164:0 165:0 166:0 167:0 168:1 169:0 170:0 171:0 172:0 173:1 174:0 175:0 176:0 177:0 178:0 179:1 180:0 
0.5535795366548484 1.407406196593734 1:0 2:0 3:1 4:0 5:1 6:0 7:0 8:1 9:0 10:0 11:1 12:0 13:0 14:0 15:0 16:0 17:1 18:0 19:1 20:0 21:0 22:1 23:0 24:0 25:1 26:0 27:0 28:0 29:0 30:0 31:0 32:0 33:1 34:1 35:0 36:0 37:0 38:1 39:0 40:0 41:1 42:0 43:0 44:0 45:0 46:0 47:1 48:0 49:1 50:0 51:0 52:0 53:1 54:0 55:0 56:1 57:0 58:0 59:0 60:0 61:0 62:0 63:0 64:0 65:1 66:0 67:0 68:0 69:0 70:0 71:1 72:0 73:0 74:0 75:0 76:0 77:1 78:0 79:0 80:1 81:0 82:0 83:0 84:0 85:1 86:0 87:0 88:0 89:0 90:1 91:0 92:0 93:1 94:0 95:0 96:0 97:0 98:0 99:1 100:1 101:0 102:0 103:0 104:0 105:0 106:0 107:0 108:0 109:0 110:1 111:0 112:0 113:0 114:0 115:0 116:1 117:0 118:0 119:0 120:1 121:0 122:0 123:1 124:0 125:0 126:1 127:0 128:1 129:0 130:0 131:1 132:0 133:0 134:0 135:1 136:1 137:0 138:0 139:0 140:0 141:0 142:0 143:0 144:1 145:0 146:0 147:0 148:0 149:0 150:0 151:0 152:1 153:0 154:0 155:0 156:0 157:0 158:1 159:0 160:1 161:0 162:0 163:0 164:0 165:1 166:0 167:0 168:1 169:1 170:0 171:0 172:1 173:0 174:0 175:1 176:0 177:0 178:1 179:0 180:0 
0 0.1346150186736918 1:0 2:0 3:0 4:0 5:0 6:0 7:0 8:0 9:0 10:0 11:1 12:0 13:0 14:1 15:0 16:0 17:0 18:0 19:0 20:0 21:1 22:0 23:0 24:0 25:0 26:0 27:0 28:0 29:0 30:1 31:0 32:0 33:0 34:0 35:1 36:0 37:0 38:0 39:0 40:0 41:1 42:0 43:0 44:1 45:0 46:0 47:0 48:0 49:0 50:1 51:0 52:0 53:0 54:0 55:0 56:1 57:0 58:0 59:1 60:0 61:0 62:0 63:0 64:0 65:0 66:0 67:0 68:1 69:0 70:0 71:1 72:0 73:0 74:1 75:0 76:1 77:0 78:0 79:0 80:1 81:0 82:0 83:0 84:0 85:1 86:0 87:0 88:0 89:0 90:1 91:0 92:0 93:1 94:0 95:0 96:0 97:0 98:0 99:1 100:1 101:0 102:0 103:0 104:0 105:0 106:0 107:1 108:0 109:1 110:0 111:0 112:0 113:0 114:0 115:0 116:0 117:1 118:0 119:0 120:1 121:0 122:0 123:0 124:1 125:0 126:0 127:1 128:0 129:0 130:0 131:1 132:0 133:0 134:1 135:0 136:0 137:0 138:1 139:0 140:0 141:1 142:0 143:0 144:1 145:0 146:0 147:1 148:1 149:0 150:0 151:0 152:0 153:0 154:0 155:1 156:0 157:1 158:0 159:0 160:0 161:1 162:0 163:0 164:1 165:0 166:0 167:1 168:0 169:0 170:0 171:0 172:1 173:0 174:0 175:0 176:0 177:0 178:0 179:1 180:0 
0.5040117794755337 0.4122080321789243 1:0 2:1 3:0 4:0 5:0 6:0 7:1 8:0 9:0 10:0 11:1 12:0 13:0 14:1 15:0 16:1 17:0 18:0 19:0 20:0 21:0 22:1 23:0 24:0 25:0 26:0 27:0 28:0 29:1 30:0 31:0 32:0 33:0 34:0 35:0 36:0 37:0 38:0 39:1 40:1 41:0 42:0 43:0 44:0 45:0 46:0 47:1 48:0 49:1 50:0 51:0 52:0 53:0 54:0 55:0 56:1 57:0 58:0 59:1 60:0 61:0 62:0 63:0 64:0 65:0 66:0 67:0 68:0 69:0 70:0 71:0 72:0 73:0 74:1 75:0 76:0 77:0 78:0 79:0 80:0 81:1 82:0 83:0 84:0 85:1 86:0 87:0 88:0 89:0 90:1 91:0 92:0 93:1 94:1 95:0 96:0 97:1 98:0 99:0 100:0 101:0 102:0 103:0 104:1 105:0 106:0 107:0 108:1 109:0 110:0 111:1 112:1 113:0 114:0 115:0 116:0 117:0 118:1 119:0 120:0 121:0 122:0 123:0 124:1 125:0 126:0 127:1 128:0 129:0 130:0 131:1 132:0 133:1 134:0 135:0 136:0 137:0 138:0 139:0 140:1 141:0 142:1 143:0 144:0 145:0 146:0 147:0 148:0 149:1 150:0 151:0 152:1 153:0 154:0 155:0 156:1 157:0 158:0 159:1 160:0 161:0 162:1 163:0 164:0 165:0 166:1 167:0 168:0 169:0 170:1 171:0 172:0 173:1 174:0 175:0 176:1 177:0 178:1 179:0 180:0 
0.2025468119923487 0.8172656866086612 1:0 2:0 3:0 4:0 5:1 6:0 7:1 8:0 9:0 10:1 11:0 12:0 13:0 14:1 15:0 16:0 17:0 18:0 19:1 20:0 21:0 22:0 23:1 24:0 25:1 26:0 27:0 28:0 29:0 30:1 31:0 32:0 33:1 34:0 35:0 36:1 37:1 38:0 39:0 40:0 41:1 42:0 43:0 44:1 45:0 46:0 47:1 48:0 49:0 50:0 51:1 52:0 53:1 54:0 55:1 56:0 57:0 58:0 59:0 60:0 61:0 62:1 63:0 64:0 65:0 66:0 67:0 68:1 69:0 70:0 71:1 72:0 73:0 74:1 75:0 76:0 77:0 78:0 79:1 80:0 81:0 82:0 83:1 84:0 85:1 86:0 87:0 88:0 89:0 90:1 91:0 92:0 93:1 94:0 95:0 96:1 97:0 98:0 99:0 100:0 101:0 102:0 103:0 104:0 105:1 106:0 107:0 108:1 109:0 110:1 111:0 112:0 113:1 114:0 115:0 116:1 117:0 118:0 119:1 120:0 121:0 122:1 123:0 124:1 125:0 126:0 127:0 128:0 129:1 130:0 131:1 132:0 133:1 134:0 135:0 136:1 137:0 138:0 139:0 140:0 141:1 142:0 143:0 144:1 145:0 146:1 147:0 148:0 149:0 150:0 151:0 152:1 153:0 154:1 155:0 156:0 157:0 158:0 159:1 160:0 161:0 162:1 163:1 164:0 165:0 166:0 167:1 168:0 169:1 170:0 171:0 172:0 173:0 174:1 175:0 176:1 177:0 178:1 179:0 180:0 
0.1682846597012278 0.01508676418224917 1:0 2:0 3:0 4:0 5:0 6:1 7:1 8:0 9:0 10:0 11:1 12:0 13:0 14:0 15:0 16:0 17:0 18:0 19:1 20:0 21:0 22:0 23:1 24:0 25:1 26:0 27:0 28:0 29:0 30:0 31:0 32:0 33:0 34:0 35:1 36:0 37:1 38:0 39:0 40:0 41:0 42:0 43:0 44:0 45:0 46:0 47:0 48:0 49:0 50:1 51:0 52:0 53:1 54:0 55:0 56:1 57:0 58:0 59:0 60:0 61:0 62:0 63:0 64:1 65:0 66:0 67:0 68:0 69:0 70:0 71:1 72:0 73:0 74:0 75:0 76:0 77:1 78:0 79:0 80:1 81:0 82:0 83:1 84:0 85:1 86:0 87:0 88:0 89:0 90:1 91:1 92:0 93:0 94:0 95:0 96:0 97:0 98:1 99:0 100:0 101:1 102:0 103:0 104:0 105:1 106:0 107:0 108:0 109:0 110:0 111:0 112:0 113:1 114:0 115:0 116:0 117:0 118:0 119:0 120:1 121:0 122:0 123:1 124:0 125:1 126:0 127:0 128:0 129:0 130:1 131:0 132:0 133:0 134:1 135:0 136:0 137:0 138:0 139:0 140:0 141:0 142:0 143:0 144:0 145:0 146:0 147:1 148:1 149:0 150:0 151:0 152:0 153:0 154:0 155:0 156:1 157:1 158:0 159:0 160:0 161:0 162:1 163:1 164:0 165:0 166:0 167:0 168:1 169:0 170:0 171:1 172:0 173:0 174:0 175:1 176:0 177:0 178:0 179:0 180:0 
0.6227296597839574 0 1:0 2:0 3:0 4:0 5:1 6:0 7:0 8:1 9:0 10:0 11:0 12:0 13:0 14:1 15:0 16:1 17:0 18:0 19:0 20:0 21:0 22:0 23:0 24:0 25:0 26:1 27:0 28:0 29:1 30:0 31:0 32:0 33:0 34:0 35:0 36:1 37:0 38:1 39:0 40:0 41:0 42:1 43:0 44:0 45:0 46:0 47:1 48:0 49:0 50:0 51:0 52:0 53:0 54:1 55:0 56:1 57:0 58:0 59:0 60:0 61:0 62:0 63:0 64:0 65:1 66:0 67:0 68:1 69:0 70:0 71:0 72:0 73:0 74:1 75:0 76:0 77:1 78:0 79:0 80:1 81:0 82:0 83:1 84:0 85:1 86:0 87:0 88:0 89:0 90:1 91:0 92:1 93:0 94:1 95:0 96:0 97:1 98:0 99:0 100:1 101:0 102:0 103:1 104:0 105:0 106:0 107:0 108:1 109:0 110:1 111:0 112:0 113:0 114:1 115:0 116:0 117:0 118:0 119:0 120:1 121:1 122:0 123:0 124:0 125:0 126:0 127:0 128:1 129:0 130:0 131:0 132:0 133:0 134:0 135:0 136:0 137:0 138:1 139:0 140:1 141:0 142:0 143:0 144:0 145:0 146:0 147:1 148:0 149:0 150:1 151:0 152:0 153:1 154:0 155:0 156:0 157:0 158:1 159:0 160:0 161:0 162:1 163:0 164:0 165:1 166:0 167:1 168:0 169:1 170:0 171:0 172:0 173:1 174:0 175:1 176:0 177:0 178:0 179:0 180:1 
1.794870740367015 1.00208005421576 1:1 2:0 3:0 4:0 5:0 6:0 7:0 8:1 9:0 10:0 11:0 12:0 13:1 14:0 15:0 16:1 17:0 18:0 19:1 20:0 21:0 22:0 23:0 24:0 25:0 26:0 27:1 28:1 29:0 30:0 31:0 32:0 33:0 34:0 35:0 36:1 37:1 38:0 39:0 40:1 41:0 42:0 43:0 44:0 45:0 46:0 47:0 48:0 49:1 50:0 51:0 52:0 53:0 54:0 55:0 56:0 57:1 58:1 59:0 60:0 61:0 62:0 63:0 64:0 65:0 66:0 67:0 68:1 69:0 70:0 71:0 72:0 73:0 74:0 75:0 76:0 77:0 78:0 79:0 80:0 81:0 82:0 83:0 84:0 85:1 86:0 87:0 88:0 89:0 90:1 91:0 92:0 93:0 94:0 95:0 96:0 97:0 98:0 99:1 100:0 101:0 102:0 103:0 104:0 105:0 106:0 107:0 108:1 109:0 110:0 111:1 112:1 113:0 114:0 115:0 116:0 117:0 118:0 119:0 120:0 121:0 122:0 123:0 124:0 125:0 126:1 127:1 128:0 129:0 130:1 131:0 132:0 133:1 134:0 135:0 136:0 137:0 138:0 139:0 140:0 141:0 142:0 143:1 144:0 145:0 146:1 147:0 148:1 149:0 150:0 151:0 152:0 153:1 154:1 155:0 156:0 157:0 158:1 159:0 160:1 161:0 162:0 163:1 164:0 165:0 166:0 167:0 168:1 169:0 170:0 171:0 172:0 173:0 174:0 175:0 176:0 177:0 178:0 179:0 180:1 
0.8038887448472659 0.3578169280252904 1:0 2:0 3:0 4:0 5:1 6:0 7:0 8:0 9:0 10:0 11:0 12:0 13:1 14:0 15:0 16:0 17:0 18:1 19:0 20:0 21:1 22:1 23:0 24:0 25:0 26:0 27:1 28:0 29:0 30:1 31:0 32:0 33:0 34:0 35:0 36:0 37:0 38:0 39:0 40:0 41:0 42:0 43:0 44:0 45:1 46:0 47:0 48:0 49:0 50:1 51:0 52:0 53:0 54:0 55:0 56:1 57:0 58:0 59:0 60:0 61:0 62:0 63:0 64:0 65:1 66:0 67:0 68:1 69:0 70:0 71:1 72:0 73:0 74:0 75:0 76:0 77:0 78:0 79:0 80:0 81:0 82:0 83:0 84:0 85:1 86:0 87:0 88:0 89:0 90:1 91:0 92:0 93:1 94:1 95:0 96:0 97:0 98:0 99:0 100:0 101:1 102:0 103:1 104:0 105:0 106:1 107:0 108:0 109:0 110:0 111:0 112:0 113:1 114:0 115:0 116:0 117:0 118:0 119:1 120:0 121:0 122:1 123:0 124:0 125:1 126:0 127:0 128:1 129:0 130:1 131:0 132:0 133:0 134:0 135:0 136:0 137:1 138:0 139:0 140:1 141:0 142:1 143:0 144:0 145:0 146:0 147:1 148:1 149:0 150:0 151:0 152:1 153:0 154:0 155:1 156:0 157:0 158:0 159:0 160:1 161:0 162:0 163:0 164:1 165:0 166:0 167:0 168:0 169:0 170:1 171:0 172:0 173:0 174:0 175:0 176:0 177:1 178:0 179:1 180:0 
0.3566766589530858 0 1:0 2:0 3:1 4:0 5:0 6:1 7:0 8:0 9:1 10:0 11:0 12:0 13:0 14:1 15:0 16:0 17:1 18:0 19:0 20:1 21:0 22:1 23:0 24:0 25:0 26:1 27:0 28:0 29:1 30:0 31:1 32:0 33:0 34:1 35:0 36:0 37:0 38:0 39:0 40:0 41:1 42:0 43:0 44:0 45:0 46:0 47:0 48:0 49:0 50:0 51:1 52:0 53:0 54:0 55:0 56:0 57:0 58:0 59:0 60:0 61:0 62:0 63:1 64:0 65:1 66:0 67:0 68:0 69:0 70:0 71:0 72:0 73:0 74:1 75:0 76:0 77:0 78:0 79:0 80:0 81:1 82:0 83:1 84:0 85:1 86:0 87:0 88:0 89:0 90:1 91:1 92:0 93:0 94:0 95:0 96:1 97:0 98:1 99:0 100:0 101:1 102:0 103:0 104:0 105:0 106:0 107:1 108:0 109:1 110:0 111:0 112:0 113:0 114:1 115:0 116:1 117:0 118:0 119:1 120:0 121:0 122:0 123:0 124:0 125:0 126:1 127:0 128:1 129:0 130:0 131:1 132:0 133:0 134:0 135:0 136:0 137:0 138:1 139:0 140:0 141:1 142:1 143:0 144:0 145:1 146:0 147:0 148:0 149:0 150:1 151:1 152:0 153:0 154:0 155:0 156:0 157:0 158:0 159:1 160:0 161:1 162:0 163:0 164:1 165:0 166:0 167:0 168:1 169:1 170:0 171:0 172:0 173:0 174:1 175:1 176:0 177:0 178:0 179:0 180:0 
0.05754521711413043 0 1:0 2:0 3:0 4:0 5:0 6:0 7:0 8:0 9:0 10:0 11:0 12:0 13:1 14:0 15:0 16:0 17:1 18:0 19:1 20:0 21:0 22:0 23:0 24:0 25:0 26:0 27:0 28:0 29:0 30:0 31:0 32:0 33:0 34:0 35:0 36:0 37:0 38:1 39:0 40:1 41:0 42:0 43:0 44:1 45:0 46:0 47:0 48:0 49:0 50:0 51:0 52:0 53:0 54:0 55:0 56:0 57:0 58:0 59:1 60:0 61:0 62:1 63:0 64:0 65:0 66:0 67:0 68:1 69:0 70:0 71:1 72:0 73:0 74:1 75:0 76:0 77:1 78:0 79:1 80:0 81:0 82:0 83:1 84:0 85:1 86:0 87:0 88:0 89:0 90:1 91:0 92:1 93:0 94:0 95:0 96:1 97:0 98:0 99:0 100:0 101:0 102:1 103:1 104:0 105:0 106:0 107:0 108:1 109:0 110:0 111:0 112:0 113:0 114:1 115:0 116:1 117:0 118:1 119:0 120:0 121:0 122:0 123:0 124:0 125:1 126:0 127:0 128:0 129:0 130:0 131:1 132:0 133:0 134:1 135:0 136:1 137:0 138:0 139:0 140:0 141:0 142:0 143:1 144:0 145:0 146:1 147:0 148:1 149:0 150:0 151:0 152:1 153:0 154:0 155:0 156:1 157:0 158:0 159:0 160:0 161:0 162:0 163:0 164:0 165:1 166:0 167:0 168:1 169:0 170:1 171:0 172:0 173:1 174:0 175:1 176:0 177:0 178:0 179:0 180:1 
0.9541648936688215 0.2025674350374923 1:1 2:0 3:0 4:1 5:0 6:0 7:1 8:0 9:0 10:0 11:1 12:0 13:0 14:0 15:1 16:0 17:1 18:0 19:0 20:0 21:0 22:1 23:0 24:0 25:1 26:0 27:0 28:0 29:0 30:0 31:0 32:0 33:0 34:0 35:0 36:0 37:0 38:0 39:0 40:1 41:0 42:0 43:1 44:0 45:0 46:0 47:1 48:0 49:1 50:0 51:0 52:0 53:1 54:0 55:0 56:0 57:0 58:0 59:0 60:0 61:1 62:0 63:0 64:0 65:0 66:0 67:0 68:0 69:0 70:0 71:0 72:0 73:0 74:0 75:0 76:0 77:1 78:0 79:0 80:0 81:0 82:0 83:0 84:0 85:1 86:0 87:0 88:0 89:0 90:1 91:0 92:0 93:0 94:0 95:0 96:0 97:0 98:0 99:0 100:0 101:1 102:0 103:0 104:1 105:0 106:0 107:1 108:0 109:1 110:0 111:0 112:0 113:0 114:1 115:1 116:0 117:0 118:1 119:0 120:0 121:0 122:0 123:1 124:1 125:0 126:0 127:0 128:0 129:1 130:0 131:0 132:1 133:0 134:0 135:0 136:0 137:1 138:0 139:0 140:0 141:1 142:0 143:1 144:0 145:0 146:1 147:0 148:1 149:0 150:0 151:0 152:0 153:0 154:0 155:0 156:0 157:0 158:0 159:1 160:0 161:0 162:0 163:0 164:0 165:0 166:0 167:0 168:1 169:1 170:0 171:0 172:1 173:0 174:0 175:0 176:0 177:1 178:1 179:0 180:0 
0 0.7581432012560363 1:0 2:1 3:0 4:0 5:0 6:0 7:0 8:0 9:0 10:0 11:0 12:0 13:0 14:0 15:1 16:0 17:0 18:1 19:0 20:1 21:0 22:0 23:0 24:0 25:0 26:1 27:0 28:1 29:0 30:0 31:0 32:1 33:0 34:0 35:0 36:0 37:0 38:0 39:0 40:0 41:1 42:0 43:0 44:0 45:0 46:0 47:0 48:0 49:0 50:0 51:1 52:0 53:1 54:0 55:0 56:1 57:0 58:0 59:0 60:0 61:0 62:0 63:0 64:0 65:0 66:0 67:0 68:0 69:0 70:0 71:0 72:1 73:0 74:0 75:0 76:0 77:0 78:0 79:0 80:0 81:0 82:0 83:1 84:0 85:1 86:0 87:0 88:0 89:0 90:1 91:0 92:0 93:1 94:1 95:0 96:0 97:0 98:0 99:1 100:0 101:0 102:0 103:0 104:0 105:1 106:0 107:0 108:0 109:1 110:0 111:0 112:0 113:1 114:0 115:1 116:0 117:0 118:0 119:1 120:0 121:0 122:1 123:0 124:0 125:0 126:0 127:0 128:0 129:0 130:1 131:0 132:0 133:1 134:0 135:0 136:1 137:0 138:0 139:0 140:1 141:0 142:1 143:0 144:0 145:1 146:0 147:0 148:0 149:0 150:0 151:0 152:0 153:1 154:1 155:0 156:0 157:0 158:0 159:1 160:1 161:0 162:0 163:1 164:0 165:0 166:0 167:0 168:1 169:0 170:1 171:0 172:1 173:0 174:0 175:0 176:0 177:1 178:0 179:0 180:0 
0.07013779065706099 0 1:0 2:1 3:0 4:0 5:1 6:0 7:0 8:1 9:0 10:0 11:1 12:0 13:1 14:0 15:0 16:0 17:0 18:0 19:0 20:1 21:0 22:1 23:0 24:0 25:0 26:1 27:0 28:0 29:1 30:0 31:1 32:0 33:0 34:0 35:0 36:1 37:0 38:1 39:0 40:0 41:0 42:0 43:0 44:1 45:0 46:0 47:1 48:0 49:0 50:1 51:0 52:0 53:1 54:0 55:0 56:1 57:0 58:0 59:1 60:0 61:0 62:0 63:0 64:0 65:0 66:0 67:0 68:1 69:0 70:0 71:0 72:0 73:0 74:1 75:0 76:0 77:1 78:0 79:0 80:1 81:0 82:0 83:1 84:0 85:1 86:0 87:0 88:0 89:0 90:1 91:1 92:0 93:0 94:0 95:0 96:0 97:0 98:1 99:0 100:1 101:0 102:0 103:0 104:1 105:0 106:0 107:0 108:0 109:0 110:0 111:1 112:0 113:0 114:1 115:0 116:1 117:0 118:1 119:0 120:0 121:1 122:0 123:0 124:0 125:0 126:1 127:0 128:0 129:0 130:0 131:0 132:1 133:0 134:0 135:1 136:0 137:0 138:0 139:0 140:0 141:0 142:0 143:0 144:0 145:0 146:0 147:0 148:1 149:0 150:0 151:0 152:0 153:0 154:1 155:0 156:0 157:0 158:0 159:0 160:0 161:1 162:0 163:0 164:0 165:1 166:0 167:1 168:0 169:1 170:0 171:0 172:0 173:0 174:0 175:0 176:1 177:0 178:0 179:0 180:1 
1.237044884829649 0.8834332393805459 1:0 2:0 3:1 4:1 5:0 6:0 7:0 8:0 9:0 10:0 11:0 12:0 13:0 14:1 15:0 16:0 17:1 18:0 19:0 20:0 21:0 22:1 23:0 24:0 25:0 26:1 27:0 28:1 29:0 30:0 31:0 32:0 33:1 34:0 35:1 36:0 37:0 38:1 39:0 40:0 41:0 42:0 43:0 44:0 45:0 46:0 47:0 48:1 49:0 50:1 51:0 52:0 53:1 54:0 55:0 56:0 57:0 58:0 59:0 60:1 61:0 62:1 63:0 64:0 65:0 66:0 67:0 68:1 69:0 70:0 71:0 72:0 73:0 74:1 75:0 76:0 77:0 78:0 79:1 80:0 81:0 82:1 83:0 84:0 85:1 86:0 87:0 88:0 89:0 90:1 91:0 92:0 93:1 94:0 95:1 96:0 97:1 98:0 99:0 100:1 101:0 102:0 103:0 104:1 105:0 106:0 107:0 108:0 109:0 110:1 111:0 112:0 113:0 114:0 115:1 116:0 117:0 118:0 119:0 120:1 121:1 122:0 123:0 124:0 125:1 126:0 127:1 128:0 129:0 130:0 131:0 132:0 133:0 134:1 135:0 136:0 137:0 138:1 139:0 140:1 141:0 142:0 143:0 144:1 145:0 146:0 147:0 148:0 149:1 150:0 151:0 152:1 153:0 154:1 155:0 156:0 157:1 158:0 159:0 160:0 161:1 162:0 163:1 164:0 165:0 166:1 167:0 168:0 169:0 170:1 171:0 172:0 173:1 174:0 175:0 176:0 177:1 178:0 179:0 180:0 
0.164439508800114 0.5835789983287615 1:1 2:0 3:0 4:1 5:0 6:0 7:1 8:0 9:0 10:0 11:0 12:0 13:0 14:1 15:0 16:0 17:1 18:0 19:1 20:0 21:0 22:0 23:1 24:0 25:0 26:1 27:0 28:0 29:0 30:0 31:0 32:0 33:1 34:0 35:1 36:0 37:0 38:1 39:0 40:0 41:1 42:0 43:0 44:1 45:0 46:1 47:0 48:0 49:0 50:0 51:0 52:0 53:1 54:0 55:0 56:1 57:0 58:0 59:0 60:0 61:0 62:1 63:0 64:0 65:0 66:0 67:0 68:0 69:1 70:0 71:0 72:0 73:0 74:0 75:0 76:0 77:1 78:0 79:0 80:1 81:0 82:0 83:1 84:0 85:1 86:0 87:0 88:0 89:0 90:1 91:0 92:0 93:1 94:0 95:0 96:0 97:0 98:0 99:1 100:1 101:0 102:0 103:0 104:0 105:0 106:0 107:1 108:0 109:0 110:1 111:0 112:0 113:0 114:0 115:1 116:0 117:0 118:0 119:0 120:1 121:0 122:0 123:1 124:0 125:0 126:0 127:0 128:0 129:1 130:0 131:0 132:1 133:1 134:0 135:0 136:0 137:0 138:1 139:0 140:0 141:1 142:0 143:1 144:0 145:0 146:1 147:0 148:0 149:0 150:1 151:1 152:0 153:0 154:1 155:0 156:0 157:1 158:0 159:0 160:0 161:0 162:1 163:0 164:0 165:0 166:1 167:0 168:0 169:0 170:1 171:0 172:1 173:0 174:0 175:0 176:0 177:0 178:0 179:0 180:1 
0.8455246371725464 0.4477621687237402 1:0 2:1 3:0 4:0 5:1 6:0 7:0 8:0 9:1 10:1 11:0 12:0 13:0 14:0 15:1 16:0 17:0 18:0 19:0 20:1 21:0 22:1 23:0 24:0 25:0 26:1 27:0 28:0 29:0 30:0 31:0 32:1 33:0 34:0 35:1 36:0 37:0 38:0 39:0 40:0 41:0 42:1 43:0 44:0 45:0 46:0 47:1 48:0 49:1 50:0 51:0 52:0 53:1 54:0 55:0 56:0 57:0 58:0 59:0 60:0 61:1 62:0 63:0 64:0 65:1 66:0 67:0 68:1 69:0 70:0 71:1 72:0 73:0 74:0 75:0 76:0 77:0 78:1 79:1 80:0 81:0 82:0 83:1 84:0 85:1 86:0 87:0 88:0 89:0 90:1 91:0 92:0 93:1 94:0 95:1 96:0 97:0 98:1 99:0 100:0 101:0 102:0 103:1 104:0 105:0 106:0 107:0 108:1 109:1 110:0 111:0 112:0 113:1 114:0 115:0 116:0 117:0 118:0 119:1 120:0 121:0 122:1 123:0 124:0 125:1 126:0 127:0 128:0 129:1 130:1 131:0 132:0 133:0 134:0 135:1 136:0 137:0 138:1 139:0 140:1 141:0 142:0 143:0 144:0 145:0 146:0 147:0 148:0 149:1 150:0 151:0 152:1 153:0 154:0 155:0 156:0 157:0 158:1 159:0 160:0 161:0 162:0 163:0 164:0 165:0 166:0 167:0 168:0 169:0 170:0 171:1 172:0 173:0 174:1 175:0 176:1 177:0 178:0 179:1 180:0 
0.7271183143073546 0.04934602399990583 1:0 2:1 3:0 4:0 5:0 6:0 7:0 8:0 9:1 10:0 11:1 12:0 13:0 14:1 15:0 16:0 17:0 18:0 19:0 20:1 21:0 22:0 23:1 24:0 25:0 26:1 27:0 28:0 29:0 30:1 31:0 32:1 33:0 34:0 35:0 36:0 37:0 38:0 39:0 40:0 41:0 42:0 43:0 44:0 45:1 46:0 47:0 48:0 49:0 50:0 51:1 52:0 53:0 54:0 55:0 56:0 57:1 58:0 59:1 60:0 61:0 62:1 63:0 64:0 65:1 66:0 67:0 68:1 69:0 70:0 71:0 72:1 73:0 74:1 75:0 76:0 77:0 78:0 79:0 80:1 81:0 82:0 83:1 84:0 85:1 86:0 87:0 88:0 89:0 90:1 91:0 92:1 93:0 94:1 95:0 96:0 97:0 98:0 99:1 100:0 101:1 102:0 103:0 104:1 105:0 106:0 107:0 108:0 109:0 110:1 111:0 112:0 113:1 114:0 115:0 116:1 117:0 118:0 119:0 120:1 121:0 122:1 123:0 124:0 125:0 126:1 127:1 128:0 129:0 130:0 131:1 132:0 133:0 134:0 135:1 136:1 137:0 138:0 139:0 140:0 141:0 142:0 143:0 144:1 145:0 146:1 147:0 148:0 149:1 150:0 151:0 152:1 153:0 154:0 155:1 156:0 157:0 158:0 159:0 160:0 161:1 162:0 163:1 164:0 165:0 166:1 167:0 168:0 169:0 170:1 171:0 172:0 173:0 174:1 175:0 176:0 177:0 178:0 179:0 180:0 
1.241492147032755 1.5456287668137 1:0 2:1 3:0 4:0 5:1 6:0 7:0 8:0 9:0 10:0 11:0 12:1 13:1 14:0 15:0 16:0 17:0 18:1 19:0 20:1 21:0 22:1 23:0 24:0 25:0 26:1 27:0 28:1 29:0 30:0 31:0 32:0 33:1 34:1 35:0 36:0 37:0 38:1 39:0 40:0 41:0 42:1 43:0 44:0 45:1 46:0 47:1 48:0 49:0 50:0 51:0 52:0 53:0 54:1 55:0 56:0 57:0 58:0 59:0 60:0 61:0 62:1 63:0 64:0 65:0 66:0 67:0 68:1 69:0 70:0 71:0 72:0 73:0 74:0 75:0 76:0 77:0 78:0 79:0 80:1 81:0 82:1 83:0 84:0 85:1 86:0 87:0 88:0 89:0 90:1 91:0 92:0 93:1 94:0 95:0 96:0 97:0 98:0 99:0 100:1 101:0 102:0 103:0 104:1 105:0 106:1 107:0 108:0 109:1 110:0 111:0 112:0 113:0 114:1 115:0 116:1 117:0 118:0 119:1 120:0 121:0 122:0 123:0 124:0 125:0 126:1 127:1 128:0 129:0 130:0 131:0 132:0 133:0 134:0 135:1 136:1 137:0 138:0 139:1 140:0 141:0 142:0 143:0 144:1 145:0 146:0 147:1 148:0 149:0 150:1 151:1 152:0 153:0 154:1 155:0 156:0 157:1 158:0 159:0 160:0 161:1 162:0 163:0 164:0 165:1 166:1 167:0 168:0 169:0 170:0 171:1 172:0 173:0 174:1 175:0 176:0 177:1 178:0 179:0 180:1 
0.2975863182579617 0.6226519771854654 1:0 2:0 3:0 4:0 5:1 6:0 7:0 8:1 9:0 10:0 11:0 12:0 13:0 14:1 15:0 16:1 17:0 18:0 19:0 20:0 21:0 22:0 23:0 24:1 25:0 26:1 27:0 28:1 29:0 30:0 31:0 32:0 33:0 34:0 35:1 36:0 37:0 38:1 39:0 40:1 41:0 42:0 43:0 44:1 45:0 46:0 47:1 48:0 49:0 50:1 51:0 52:0 53:1 54:0 55:0 56:1 57:0 58:0 59:0 60:0 61:0 62:0 63:0 64:0 65:1 66:0 67:0 68:1 69:0 70:0 71:0 72:0 73:0 74:1 75:0 76:0 77:1 78:0 79:0 80:1 81:0 82:0 83:1 84:0 85:1 86:0 87:0 88:0 89:0 90:1 91:0 92:0 93:1 94:1 95:0 96:0 97:1 98:0 99:0 100:0 101:0 102:0 103:1 104:0 105:0 106:0 107:0 108:1 109:0 110:1 111:0 112:0 113:1 114:0 115:1 116:0 117:0 118:0 119:0 120:1 121:0 122:0 123:1 124:0 125:0 126:0 127:0 128:1 129:0 130:0 131:0 132:0 133:0 134:0 135:1 136:0 137:0 138:1 139:0 140:1 141:0 142:0 143:0 144:0 145:0 146:0 147:1 148:0 149:0 150:1 151:0 152:0 153:1 154:0 155:0 156:0 157:0 158:1 159:0 160:0 161:0 162:1 163:0 164:0 165:1 166:0 167:1 168:0 169:1 170:0 171:0 172:0 173:1 174:0 175:1 176:0 177:0 178:1 179:0 180:0 
1.135233422358499 0 1:1 2:0 3:0 4:1 5:0 6:0 7:0 8:0 9:1 10:1 11:0 12:0 13:0 14:1 15:0 16:0 17:0 18:0 19:0 20:0 21:0 22:1 23:0 24:0 25:0 26:0 27:0 28:1 29:0 30:0 31:0 32:0 33:0 34:0 35:0 36:0 37:0 38:0 39:0 40:0 41:0 42:1 43:0 44:0 45:0 46:0 47:1 48:0 49:0 50:1 51:0 52:0 53:0 54:0 55:0 56:0 57:0 58:0 59:0 60:0 61:0 62:0 63:0 64:0 65:0 66:1 67:0 68:0 69:0 70:0 71:0 72:0 73:0 74:0 75:0 76:0 77:0 78:0 79:0 80:0 81:0 82:0 83:1 84:0 85:1 86:0 87:0 88:0 89:0 90:1 91:0 92:1 93:0 94:0 95:1 96:0 97:0 98:0 99:0 100:1 101:0 102:0 103:0 104:1 105:0 106:0 107:1 108:0 109:1 110:0 111:0 112:0 113:0 114:0 115:0 116:0 117:1 118:1 119:0 120:0 121:0 122:0 123:1 124:1 125:0 126:0 127:1 128:0 129:0 130:0 131:0 132:0 133:1 134:0 135:0 136:1 137:0 138:0 139:0 140:0 141:1 142:1 143:0 144:0 145:0 146:0 147:1 148:1 149:0 150:0 151:1 152:0 153:0 154:1 155:0 156:0 157:0 158:0 159:1 160:1 161:0 162:0 163:1 164:0 165:0 166:1 167:0 168:0 169:1 170:0 171:0 172:0 173:0 174:0 175:0 176:0 177:1 178:1 179:0 180:0 
0.2262130186568665 0 1:0 2:0 3:0 4:0 5:0 6:0 7:0 8:0 9:0 10:0 11:0 12:0 13:0 14:1 15:0 16:0 17:0 18:0 19:0 20:0 21:0 22:0 23:0 24:0 25:0 26:1 27:0 28:1 29:0 30:0 31:0 32:0 33:0 34:0 35:0 36:0 37:0 38:0 39:0 40:0 41:0 42:0 43:0 44:0 45:1 46:0 47:0 48:0 49:0 50:1 51:0 52:0 53:0 54:0 55:0 56:0 57:0 58:0 59:0 60:0 61:0 62:1 63:0 64:1 65:0 66:0 67:0 68:1 69:0 70:0 71:1 72:0 73:0 74:0 75:0 76:1 77:0 78:0 79:1 80:0 81:0 82:0 83:1 84:0 85:1 86:0 87:0 88:0 89:0 90:1 91:0 92:1 93:0 94:0 95:0 96:0 97:0 98:1 99:0 100:0 101:1 102:0 103:0 104:0 105:0 106:0 107:0 108:1 109:0 110:0 111:1 112:0 113:0 114:1 115:1 116:0 117:0 118:1 119:0 120:0 121:1 122:0 123:0 124:0 125:1 126:0 127:0 128:0 129:1 130:0 131:0 132:0 133:0 134:0 135:1 136:1 137:0 138:0 139:0 140:0 141:0 142:0 143:0 144:1 145:0 146:0 147:1 148:0 149:0 150:0 151:0 152:0 153:1 154:1 155:0 156:0 157:0 158:0 159:0 160:0 161:0 162:0 163:1 164:0 165:0 166:0 167:0 168:0 169:0 170:0 171:0 172:0 173:1 174:0 175:0 176:0 177:0 178:0 179:0 180:1 
0.263577196654974 0.483905010462916 1:0 2:0 3:0 4:0 5:1 6:0 7:1 8:0 9:0 10:0 11:1 12:0 13:0 14:0 15:1 16:0 17:1 18:0 19:1 20:0 21:0 22:0 23:0 24:0 25:0 26:1 27:0 28:0 29:1 30:0 31:0 32:0 33:0 34:0 35:1 36:0 37:0 38:0 39:0 40:0 41:0 42:1 43:0 44:1 45:0 46:0 47:0 48:0 49:0 50:0 51:0 52:0 53:0 54:0 55:0 56:1 57:0 58:0 59:1 60:0 61:0 62:0 63:0 64:0 65:1 66:0 67:0 68:0 69:0 70:0 71:1 72:0 73:0 74:0 75:0 76:0 77:0 78:0 79:0 80:1 81:0 82:0 83:1 84:0 85:1 86:0 87:0 88:0 89:0 90:1 91:1 92:0 93:0 94:0 95:1 96:0 97:1 98:0 99:0 100:1 101:0 102:0 103:0 104:0 105:1 106:0 107:0 108:0 109:1 110:0 111:0 112:0 113:1 114:0 115:0 116:0 117:0 118:1 119:0 120:0 121:0 122:1 123:0 124:0 125:1 126:0 127:0 128:0 129:1 130:1 131:0 132:0 133:0 134:0 135:1 136:0 137:0 138:0 139:0 140:1 141:0 142:1 143:0 144:0 145:1 146:0 147:0 148:0 149:0 150:0 151:0 152:1 153:0 154:0 155:0 156:0 157:0 158:0 159:0 160:0 161:1 162:0 163:0 164:0 165:1 166:0 167:1 168:0 169:1 170:0 171:0 172:0 173:1 174:0 175:1 176:0 177:0 178:0 179:1 180:0 
0.8870983312356667 0.3458499851371607 1:0 2:0 3:0 4:1 5:0 6:0 7:1 8:0 9:0 10:0 11:1 12:0 13:0 14:1 15:0 16:1 17:0 18:0 19:1 20:0 21:0 22:0 23:0 24:1 25:0 26:0 27:0 28:1 29:0 30:0 31:1 32:0 33:0 34:0 35:1 36:0 37:0 38:0 39:1 40:1 41:0 42:0 43:0 44:1 45:0 46:0 47:0 48:0 49:0 50:1 51:0 52:0 53:0 54:0 55:0 56:0 57:0 58:1 59:0 60:0 61:1 62:0 63:0 64:0 65:0 66:0 67:0 68:1 69:0 70:0 71:1 72:0 73:0 74:0 75:0 76:0 77:0 78:0 79:1 80:0 81:0 82:0 83:1 84:0 85:1 86:0 87:0 88:0 89:0 90:1 91:1 92:0 93:0 94:0 95:0 96:0 97:0 98:0 99:1 100:0 101:0 102:1 103:0 104:0 105:1 106:1 107:0 108:0 109:1 110:0 111:0 112:1 113:0 114:0 115:0 116:0 117:1 118:0 119:0 120:1 121:0 122:0 123:1 124:0 125:1 126:0 127:0 128:0 129:0 130:0 131:1 132:0 133:0 134:1 135:0 136:0 137:0 138:0 139:0 140:0 141:0 142:0 143:1 144:0 145:1 146:0 147:0 148:1 149:0 150:0 151:0 152:0 153:1 154:0 155:0 156:0 157:1 158:0 159:0 160:0 161:0 162:0 163:0 164:0 165:1 166:0 167:1 168:0 169:0 170:1 171:0 172:0 173:0 174:0 175:0 176:0 177:1 178:0 179:0 180:1 
0.3333102656212784 1.481658597010342 1:0 2:0 3:1 4:0 5:0 6:1 7:0 8:0 9:1 10:0 11:1 12:0 13:0 14:1 15:0 16:0 17:1 18:0 19:0 20:1 21:0 22:0 23:0 24:0 25:0 26:1 27:0 28:0 29:0 30:0 31:0 32:0 33:1 34:1 35:0 36:0 37:0 38:0 39:0 40:0 41:1 42:0 43:1 44:0 45:0 46:0 47:1 48:0 49:0 50:1 51:0 52:0 53:0 54:0 55:0 56:1 57:0 58:0 59:1 60:0 61:1 62:0 63:0 64:0 65:1 66:0 67:0 68:0 69:0 70:0 71:1 72:0 73:0 74:1 75:0 76:0 77:0 78:0 79:1 80:0 81:0 82:0 83:0 84:0 85:1 86:0 87:0 88:0 89:0 90:1 91:0 92:0 93:1 94:0 95:0 96:0 97:1 98:0 99:0 100:0 101:0 102:0 103:0 104:0 105:1 106:1 107:0 108:0 109:0 110:0 111:1 112:1 113:0 114:0 115:0 116:1 117:0 118:1 119:0 120:0 121:0 122:0 123:1 124:1 125:0 126:0 127:0 128:0 129:1 130:0 131:1 132:0 133:0 134:0 135:0 136:0 137:0 138:1 139:0 140:0 141:1 142:0 143:1 144:0 145:0 146:1 147:0 148:1 149:0 150:0 151:0 152:0 153:0 154:0 155:0 156:1 157:0 158:1 159:0 160:0 161:0 162:1 163:0 164:1 165:0 166:0 167:1 168:0 169:1 170:0 171:0 172:0 173:0 174:1 175:0 176:0 177:0 178:0 179:1 180:0 
0.1099473593616446 0.04746264118039143 1:1 2:0 3:0 4:0 5:1 6:0 7:0 8:0 9:0 10:0 11:0 12:1 13:0 14:0 15:0 16:0 17:1 18:0 19:1 20:0 21:0 22:1 23:0 24:0 25:1 26:0 27:0 28:0 29:1 30:0 31:0 32:0 33:0 34:0 35:0 36:1 37:0 38:0 39:0 40:0 41:0 42:0 43:0 44:1 45:0 46:0 47:0 48:0 49:0 50:0 51:0 52:0 53:0 54:1 55:0 56:0 57:0 58:0 59:1 60:0 61:1 62:0 63:0 64:1 65:0 66:0 67:0 68:0 69:0 70:0 71:1 72:0 73:0 74:0 75:0 76:0 77:1 78:0 79:1 80:0 81:0 82:0 83:1 84:0 85:1 86:0 87:0 88:0 89:0 90:1 91:0 92:0 93:1 94:0 95:1 96:0 97:0 98:0 99:0 100:0 101:1 102:0 103:0 104:1 105:0 106:0 107:0 108:0 109:0 110:0 111:1 112:0 113:0 114:1 115:0 116:0 117:0 118:0 119:0 120:0 121:0 122:0 123:1 124:0 125:0 126:0 127:0 128:1 129:0 130:0 131:0 132:0 133:1 134:0 135:0 136:0 137:1 138:0 139:0 140:1 141:0 142:0 143:1 144:0 145:1 146:0 147:0 148:0 149:0 150:0 151:0 152:0 153:1 154:0 155:0 156:1 157:1 158:0 159:0 160:0 161:1 162:0 163:0 164:1 165:0 166:0 167:1 168:0 169:1 170:0 171:0 172:0 173:0 174:1 175:1 176:0 177:0 178:0 179:0 180:1 
1.43240690512333 0.7125622050686479 1:0 2:0 3:1 4:1 5:0 6:0 7:0 8:0 9:1 10:0 11:0 12:0 13:1 14:0 15:0 16:0 17:0 18:0 19:0 20:0 21:1 22:0 23:0 24:1 25:1 26:0 27:0 28:0 29:0 30:0 31:0 32:0 33:0 34:0 35:0 36:0 37:0 38:1 39:0 40:1 41:0 42:0 43:0 44:1 45:0 46:1 47:0 48:0 49:0 50:0 51:0 52:0 53:0 54:0 55:0 56:1 57:0 58:0 59:0 60:0 61:1 62:0 63:0 64:1 65:0 66:0 67:0 68:1 69:0 70:1 71:0 72:0 73:0 74:1 75:0 76:1 77:0 78:0 79:0 80:0 81:0 82:0 83:0 84:0 85:1 86:0 87:0 88:0 89:0 90:1 91:1 92:0 93:0 94:1 95:0 96:0 97:0 98:0 99:1 100:0 101:1 102:0 103:0 104:0 105:0 106:0 107:0 108:1 109:0 110:1 111:0 112:1 113:0 114:0 115:0 116:0 117:1 118:0 119:0 120:1 121:1 122:0 123:0 124:0 125:0 126:0 127:0 128:0 129:1 130:0 131:1 132:0 133:0 134:0 135:0 136:0 137:0 138:1 139:1 140:0 141:0 142:1 143:0 144:0 145:1 146:0 147:0 148:0 149:0 150:0 151:0 152:0 153:0 154:0 155:0 156:1 157:0 158:1 159:0 160:1 161:0 162:0 163:1 164:0 165:0 166:0 167:0 168:1 169:0 170:0 171:1 172:0 173:1 174:0 175:0 176:0 177:0 178:0 179:0 180:1 
0.7933576222663286 0.5927171835682844 1:0 2:0 3:1 4:0 5:1 6:0 7:0 8:0 9:0 10:0 11:1 12:0 13:0 14:0 15:0 16:0 17:1 18:0 19:1 20:0 21:0 22:1 23:0 24:0 25:0 26:1 27:0 28:0 29:0 30:0 31:0 32:1 33:0 34:0 35:1 36:0 37:0 38:0 39:0 40:0 41:1 42:0 43:0 44:1 45:0 46:1 47:0 48:0 49:1 50:0 51:0 52:0 53:0 54:0 55:0 56:0 57:0 58:0 59:0 60:1 61:0 62:1 63:0 64:0 65:0 66:1 67:0 68:0 69:1 70:0 71:0 72:1 73:0 74:0 75:0 76:0 77:0 78:0 79:0 80:1 81:0 82:0 83:1 84:0 85:1 86:0 87:0 88:0 89:0 90:1 91:0 92:0 93:1 94:0 95:1 96:0 97:0 98:1 99:0 100:1 101:0 102:0 103:0 104:0 105:0 106:0 107:1 108:0 109:0 110:1 111:0 112:0 113:0 114:1 115:0 116:1 117:0 118:0 119:0 120:1 121:0 122:0 123:1 124:1 125:0 126:0 127:1 128:0 129:0 130:0 131:1 132:0 133:0 134:0 135:0 136:0 137:1 138:0 139:0 140:0 141:1 142:1 143:0 144:0 145:0 146:0 147:1 148:0 149:0 150:1 151:1 152:0 153:0 154:0 155:0 156:1 157:0 158:0 159:0 160:0 161:1 162:0 163:0 164:0 165:1 166:0 167:1 168:0 169:0 170:1 171:0 172:1 173:0 174:0 175:0 176:1 177:0 178:0 179:1 180:0 
0.5950672974773267 1.209176792621901 1:0 2:0 3:0 4:1 5:0 6:0 7:1 8:0 9:0 10:0 11:1 12:0 13:0 14:1 15:0 16:1 17:0 18:0 19:0 20:0 21:0 22:0 23:1 24:0 25:0 26:0 27:0 28:0 29:1 30:0 31:0 32:0 33:0 34:0 35:1 36:0 37:0 38:1 39:0 40:0 41:1 42:0 43:0 44:0 45:0 46:0 47:1 48:0 49:0 50:0 51:0 52:0 53:0 54:0 55:1 56:0 57:0 58:1 59:0 60:0 61:0 62:1 63:0 64:0 65:0 66:0 67:0 68:1 69:0 70:0 71:1 72:0 73:0 74:1 75:0 76:0 77:1 78:0 79:0 80:0 81:0 82:0 83:0 84:0 85:1 86:0 87:0 88:0 89:0 90:1 91:0 92:0 93:1 94:0 95:0 96:0 97:1 98:0 99:0 100:0 101:0 102:0 103:0 104:0 105:0 106:0 107:0 108:0 109:0 110:0 111:1 112:0 113:1 114:0 115:0 116:0 117:0 118:0 119:0 120:1 121:1 122:0 123:0 124:0 125:1 126:0 127:0 128:1 129:0 130:0 131:0 132:0 133:0 134:0 135:1 136:0 137:0 138:0 139:0 140:0 141:0 142:0 143:0 144:0 145:0 146:0 147:1 148:1 149:0 150:0 151:0 152:1 153:0 154:0 155:1 156:0 157:0 158:1 159:0 160:0 161:0 162:0 163:0 164:0 165:1 166:0 167:0 168:0 169:0 170:0 171:1 172:1 173:0 174:0 175:0 176:0 177:0 178:0 179:1 180:0 
0.9391523289707838 1.162740598944068 1:1 2:0 3:0 4:0 5:0 6:0 7:0 8:0 9:1 10:0 11:0 12:1 13:0 14:1 15:0 16:0 17:1 18:0 19:0 20:1 21:0 22:0 23:1 24:0 25:0 26:0 27:0 28:0 29:0 30:0 31:0 32:1 33:0 34:0 35:1 36:0 37:0 38:0 39:0 40:0 41:1 42:0 43:0 44:1 45:0 46:0 47:0 48:0 49:0 50:0 51:0 52:0 53:0 54:0 55:0 56:0 57:1 58:0 59:1 60:0 61:0 62:0 63:0 64:0 65:0 66:1 67:0 68:0 69:0 70:0 71:0 72:1 73:0 74:1 75:0 76:0 77:1 78:0 79:0 80:1 81:0 82:0 83:1 84:0 85:1 86:0 87:0 88:0 89:0 90:1 91:0 92:0 93:1 94:1 95:0 96:0 97:0 98:0 99:1 100:1 101:0 102:0 103:0 104:1 105:0 106:1 107:0 108:0 109:0 110:0 111:1 112:0 113:0 114:0 115:0 116:0 117:1 118:0 119:0 120:0 121:0 122:0 123:0 124:0 125:0 126:1 127:0 128:0 129:1 130:1 131:0 132:0 133:0 134:1 135:0 136:1 137:0 138:0 139:0 140:0 141:0 142:0 143:0 144:1 145:0 146:1 147:0 148:0 149:0 150:0 151:0 152:1 153:0 154:0 155:1 156:0 157:0 158:0 159:1 160:0 161:0 162:1 163:0 164:0 165:1 166:1 167:0 168:0 169:0 170:0 171:0 172:0 173:0 174:1 175:0 176:1 177:0 178:0 179:1 180:0 
0.0214847315235061 0 1:0 2:1 3:0 4:1 5:0 6:0 7:0 8:0 9:0 10:1 11:0 12:0 13:0 14:1 15:0 16:0 17:0 18:0 19:0 20:0 21:0 22:0 23:0 24:1 25:0 26:0 27:1 28:0 29:1 30:0 31:0 32:0 33:0 34:0 35:1 36:0 37:0 38:0 39:0 40:1 41:0 42:0 43:0 44:0 45:0 46:0 47:0 48:0 49:0 50:1 51:0 52:0 53:0 54:0 55:0 56:0 57:1 58:0 59:1 60:0 61:0 62:0 63:0 64:0 65:0 66:0 67:0 68:1 69:0 70:0 71:0 72:0 73:0 74:1 75:0 76:0 77:0 78:0 79:1 80:0 81:0 82:0 83:1 84:0 85:1 86:0 87:0 88:0 89:0 90:1 91:0 92:0 93:1 94:0 95:1 96:0 97:0 98:0 99:0 100:0 101:0 102:1 103:0 104:0 105:0 106:0 107:0 108:1 109:0 110:0 111:1 112:1 113:0 114:0 115:0 116:1 117:0 118:1 119:0 120:0 121:0 122:0 123:0 124:1 125:0 126:0 127:0 128:1 129:0 130:0 131:0 132:0 133:0 134:1 135:0 136:1 137:0 138:0 139:1 140:0 141:0 142:0 143:0 144:1 145:1 146:0 147:0 148:0 149:1 150:0 151:1 152:0 153:0 154:0 155:0 156:1 157:1 158:0 159:0 160:0 161:0 162:1 163:0 164:1 165:0 166:0 167:0 168:1 169:0 170:0 171:1 172:0 173:1 174:0 175:0 176:0 177:0 178:0 179:0 180:1 
0.117119910342757 0.1624935312075724 1:0 2:1 3:0 4:0 5:0 6:0 7:0 8:1 9:0 10:0 11:1 12:0 13:0 14:0 15:0 16:0 17:0 18:1 19:1 20:0 21:0 22:0 23:0 24:1 25:1 26:0 27:0 28:0 29:1 30:0 31:0 32:1 33:0 34:0 35:0 36:0 37:0 38:0 39:0 40:0 41:1 42:0 43:1 44:0 45:0 46:0 47:0 48:0 49:0 50:1 51:0 52:1 53:0 54:0 55:0 56:1 57:0 58:0 59:0 60:0 61:0 62:0 63:1 64:0 65:0 66:0 67:0 68:0 69:1 70:0 71:1 72:0 73:0 74:1 75:0 76:0 77:0 78:0 79:0 80:1 81:0 82:0 83:1 84:0 85:1 86:0 87:0 88:0 89:0 90:1 91:0 92:0 93:1 94:0 95:0 96:0 97:0 98:1 99:0 100:0 101:0 102:0 103:0 104:1 105:0 106:1 107:0 108:0 109:1 110:0 111:0 112:0 113:0 114:1 115:1 116:0 117:0 118:0 119:0 120:1 121:0 122:1 123:0 124:0 125:0 126:0 127:0 128:0 129:1 130:0 131:0 132:0 133:0 134:0 135:0 136:0 137:1 138:0 139:0 140:0 141:0 142:0 143:0 144:1 145:0 146:1 147:0 148:0 149:0 150:0 151:0 152:1 153:0 154:0 155:1 156:0 157:0 158:1 159:0 160:0 161:0 162:0 163:0 164:1 165:0 166:1 167:0 168:0 169:0 170:0 171:1 172:0 173:0 174:0 175:0 176:1 177:0 178:1 179:0 180:0 
0.2516672928967403 0 1:0 2:0 3:1 4:0 5:1 6:0 7:0 8:0 9:0 10:0 11:1 12:0 13:0 14:0 15:0 16:0 17:1 18:0 19:1 20:0 21:0 22:0 23:1 24:0 25:1 26:0 27:0 28:0 29:0 30:1 31:0 32:1 33:0 34:0 35:1 36:0 37:0 38:0 39:0 40:0 41:0 42:0 43:0 44:1 45:0 46:0 47:0 48:0 49:0 50:1 51:0 52:0 53:0 54:0 55:0 56:1 57:0 58:0 59:1 60:0 61:0 62:1 63:0 64:0 65:1 66:0 67:1 68:0 69:0 70:0 71:1 72:0 73:0 74:1 75:0 76:0 77:1 78:0 79:0 80:0 81:1 82:0 83:1 84:0 85:1 86:0 87:0 88:0 89:0 90:1 91:1 92:0 93:0 94:1 95:0 96:0 97:0 98:0 99:1 100:0 101:0 102:1 103:1 104:0 105:0 106:0 107:0 108:1 109:1 110:0 111:0 112:1 113:0 114:0 115:0 116:0 117:0 118:1 119:0 120:0 121:1 122:0 123:0 124:0 125:0 126:1 127:1 128:0 129:0 130:1 131:0 132:0 133:0 134:0 135:0 136:0 137:0 138:1 139:1 140:0 141:0 142:1 143:0 144:0 145:1 146:0 147:0 148:1 149:0 150:0 151:0 152:0 153:1 154:0 155:0 156:1 157:0 158:0 159:0 160:0 161:1 162:0 163:1 164:0 165:0 166:0 167:0 168:0 169:1 170:0 171:0 172:0 173:0 174:1 175:1 176:0 177:0 178:1 179:0 180:0 
0.853626733716794 0.223108062398068 1:0 2:1 3:0 4:1 5:0 6:0 7:0 8:1 9:0 10:0 11:0 12:0 13:0 14:1 15:0 16:1 17:0 18:0 19:0 20:1 21:0 22:0 23:0 24:1 25:1 26:0 27:0 28:0 29:0 30:1 31:0 32:0 33:0 34:0 35:0 36:1 37:0 38:0 39:0 40:0 41:1 42:0 43:0 44:0 45:0 46:0 47:0 48:0 49:0 50:0 51:1 52:0 53:1 54:0 55:0 56:0 57:0 58:0 59:1 60:0 61:0 62:0 63:0 64:0 65:1 66:0 67:0 68:1 69:0 70:0 71:0 72:0 73:0 74:0 75:0 76:0 77:0 78:1 79:1 80:0 81:0 82:0 83:1 84:0 85:1 86:0 87:0 88:0 89:0 90:1 91:0 92:0 93:0 94:1 95:0 96:0 97:0 98:0 99:0 100:0 101:0 102:1 103:0 104:0 105:0 106:0 107:0 108:1 109:0 110:0 111:1 112:0 113:0 114:1 115:1 116:0 117:0 118:1 119:0 120:0 121:0 122:0 123:1 124:0 125:1 126:0 127:0 128:1 129:0 130:0 131:1 132:0 133:1 134:0 135:0 136:1 137:0 138:0 139:0 140:0 141:1 142:1 143:0 144:0 145:1 146:0 147:0 148:0 149:0 150:0 151:0 152:1 153:0 154:0 155:1 156:0 157:0 158:0 159:1 160:0 161:0 162:1 163:0 164:1 165:0 166:1 167:0 168:0 169:1 170:0 171:0 172:1 173:0 174:0 175:0 176:1 177:0 178:0 179:1 180:0 
0.9113755319335347 1.360235587185019 1:1 2:0 3:0 4:1 5:0 6:0 7:0 8:0 9:0 10:0 11:0 12:0 13:1 14:0 15:0 16:1 17:0 18:0 19:1 20:0 21:0 22:1 23:0 24:0 25:0 26:0 27:1 28:0 29:0 30:0 31:0 32:0 33:0 34:1 35:0 36:0 37:1 38:0 39:0 40:1 41:0 42:0 43:0 44:0 45:0 46:1 47:0 48:0 49:1 50:0 51:0 52:0 53:1 54:0 55:0 56:0 57:0 58:0 59:0 60:0 61:1 62:0 63:0 64:0 65:0 66:0 67:0 68:1 69:0 70:0 71:1 72:0 73:0 74:0 75:0 76:0 77:0 78:0 79:1 80:0 81:0 82:0 83:1 84:0 85:1 86:0 87:0 88:0 89:0 90:1 91:0 92:0 93:1 94:0 95:0 96:0 97:0 98:0 99:1 100:1 101:0 102:0 103:0 104:1 105:0 106:0 107:1 108:0 109:0 110:0 111:0 112:0 113:0 114:1 115:0 116:0 117:1 118:0 119:0 120:0 121:1 122:0 123:0 124:0 125:1 126:0 127:0 128:0 129:0 130:0 131:0 132:1 133:0 134:1 135:0 136:0 137:0 138:0 139:0 140:0 141:0 142:0 143:1 144:0 145:1 146:0 147:0 148:0 149:0 150:0 151:0 152:0 153:1 154:0 155:0 156:0 157:1 158:0 159:0 160:0 161:0 162:0 163:0 164:0 165:1 166:0 167:0 168:0 169:0 170:1 171:0 172:0 173:1 174:0 175:0 176:1 177:0 178:0 179:1 180:0 
0.5765989270873634 0 1:0 2:0 3:0 4:0 5:0 6:1 7:0 8:0 9:1 10:1 11:0 12:0 13:1 14:0 15:0 16:0 17:1 18:0 19:1 20:0 21:0 22:1 23:0 24:0 25:0 26:1 27:0 28:0 29:1 30:0 31:0 32:0 33:0 34:0 35:1 36:0 37:0 38:0 39:0 40:0 41:1 42:0 43:0 44:0 45:0 46:0 47:1 48:0 49:0 50:0 51:0 52:1 53:0 54:0 55:0 56:1 57:0 58:1 59:0 60:0 61:1 62:0 63:0 64:0 65:0 66:0 67:0 68:1 69:0 70:0 71:1 72:0 73:0 74:1 75:0 76:0 77:0 78:0 79:0 80:1 81:0 82:0 83:1 84:0 85:1 86:0 87:0 88:0 89:0 90:1 91:1 92:0 93:0 94:0 95:0 96:0 97:0 98:1 99:0 100:0 101:0 102:0 103:0 104:0 105:0 106:0 107:1 108:0 109:0 110:0 111:1 112:0 113:1 114:0 115:1 116:0 117:0 118:1 119:0 120:0 121:1 122:0 123:0 124:0 125:0 126:0 127:1 128:0 129:0 130:0 131:1 132:0 133:0 134:0 135:0 136:0 137:0 138:1 139:0 140:0 141:0 142:0 143:0 144:1 145:0 146:0 147:1 148:1 149:0 150:0 151:0 152:1 153:0 154:1 155:0 156:0 157:1 158:0 159:0 160:0 161:0 162:0 163:0 164:0 165:1 166:0 167:1 168:0 169:0 170:1 171:0 172:0 173:1 174:0 175:0 176:0 177:1 178:0 179:1 180:0 
0.3051899312464731 0 1:0 2:0 3:0 4:0 5:0 6:1 7:0 8:0 9:0 10:0 11:0 12:1 13:0 14:0 15:1 16:0 17:0 18:0 19:1 20:0 21:0 22:0 23:0 24:0 25:0 26:1 27:0 28:0 29:0 30:0 31:0 32:1 33:0 34:0 35:0 36:0 37:0 38:0 39:0 40:0 41:0 42:0 43:0 44:1 45:0 46:0 47:0 48:0 49:0 50:1 51:0 52:1 53:0 54:0 55:0 56:0 57:0 58:0 59:1 60:0 61:0 62:0 63:0 64:0 65:0 66:0 67:0 68:0 69:0 70:0 71:1 72:0 73:0 74:1 75:0 76:0 77:1 78:0 79:0 80:0 81:0 82:0 83:1 84:0 85:1 86:0 87:0 88:0 89:0 90:1 91:0 92:0 93:0 94:0 95:0 96:1 97:1 98:0 99:0 100:0 101:0 102:0 103:0 104:1 105:0 106:0 107:0 108:0 109:0 110:0 111:1 112:0 113:0 114:0 115:1 116:0 117:0 118:0 119:1 120:0 121:0 122:1 123:0 124:1 125:0 126:0 127:0 128:0 129:0 130:0 131:0 132:1 133:0 134:0 135:0 136:0 137:0 138:0 139:0 140:0 141:0 142:0 143:1 144:0 145:1 146:0 147:0 148:0 149:1 150:0 151:1 152:0 153:0 154:0 155:1 156:0 157:0 158:1 159:0 160:1 161:0 162:0 163:0 164:0 165:1 166:0 167:0 168:0 169:0 170:0 171:1 172:0 173:0 174:1 175:0 176:0 177:0 178:0 179:0 180:0 
0.4346847226928458 0 1:0 2:0 3:0 4:0 5:1 6:0 7:0 8:0 9:0 10:0 11:1 12:0 13:1 14:0 15:0 16:0 17:1 18:0 19:0 20:0 21:0 22:1 23:0 24:0 25:0 26:0 27:1 28:0 29:0 30:1 31:0 32:1 33:0 34:0 35:1 36:0 37:0 38:1 39:0 40:0 41:0 42:0 43:0 44:0 45:0 46:0 47:1 48:0 49:0 50:0 51:0 52:0 53:0 54:0 55:0 56:1 57:0 58:0 59:1 60:0 61:0 62:0 63:0 64:0 65:0 66:0 67:0 68:1 69:0 70:0 71:1 72:0 73:0 74:1 75:0 76:0 77:1 78:0 79:1 80:0 81:0 82:1 83:0 84:0 85:1 86:0 87:0 88:0 89:0 90:1 91:0 92:1 93:0 94:0 95:0 96:0 97:0 98:0 99:0 100:0 101:0 102:1 103:0 104:1 105:0 106:0 107:0 108:0 109:0 110:1 111:0 112:0 113:1 114:0 115:1 116:0 117:0 118:0 119:0 120:1 121:0 122:0 123:1 124:0 125:1 126:0 127:0 128:0 129:0 130:0 131:0 132:1 133:0 134:0 135:1 136:1 137:0 138:0 139:0 140:0 141:0 142:1 143:0 144:0 145:0 146:1 147:0 148:1 149:0 150:0 151:1 152:0 153:0 154:0 155:0 156:1 157:0 158:0 159:1 160:0 161:0 162:1 163:0 164:0 165:1 166:0 167:1 168:0 169:0 170:0 171:1 172:0 173:0 174:1 175:0 176:0 177:1 178:0 179:0 180:0 
0.4703457835570925 0 1:0 2:0 3:0 4:1 5:0 6:0 7:0 8:1 9:0 10:1 11:0 12:0 13:0 14:1 15:0 16:1 17:0 18:0 19:1 20:0 21:0 22:0 23:0 24:0 25:0 26:1 27:0 28:0 29:0 30:0 31:0 32:0 33:0 34:0 35:0 36:0 37:0 38:1 39:0 40:0 41:1 42:0 43:0 44:0 45:0 46:0 47:0 48:0 49:0 50:1 51:0 52:0 53:0 54:0 55:0 56:0 57:1 58:0 59:0 60:0 61:0 62:0 63:1 64:0 65:0 66:0 67:0 68:1 69:0 70:0 71:1 72:0 73:0 74:0 75:0 76:0 77:0 78:0 79:0 80:1 81:0 82:0 83:1 84:0 85:1 86:0 87:0 88:0 89:0 90:1 91:1 92:0 93:0 94:1 95:0 96:0 97:0 98:1 99:0 100:0 101:1 102:0 103:0 104:0 105:0 106:0 107:1 108:0 109:0 110:1 111:0 112:0 113:0 114:0 115:0 116:1 117:0 118:0 119:1 120:0 121:0 122:0 123:0 124:0 125:1 126:0 127:0 128:1 129:0 130:0 131:0 132:0 133:0 134:0 135:0 136:0 137:0 138:0 139:0 140:0 141:1 142:1 143:0 144:0 145:0 146:0 147:1 148:0 149:0 150:1 151:0 152:0 153:0 154:0 155:0 156:0 157:0 158:1 159:0 160:0 161:0 162:1 163:1 164:0 165:0 166:1 167:0 168:0 169:0 170:1 171:0 172:0 173:1 174:0 175:0 176:0 177:0 178:0 179:0 180:1 
0.1569591412762251 0.9675830825895413 1:1 2:0 3:0 4:0 5:1 6:0 7:0 8:0 9:0 10:0 11:1 12:0 13:1 14:0 15:0 16:0 17:1 18:0 19:0 20:1 21:0 22:0 23:0 24:0 25:0 26:0 27:0 28:0 29:0 30:1 31:0 32:0 33:0 34:0 35:1 36:0 37:0 38:1 39:0 40:0 41:1 42:0 43:0 44:1 45:0 46:0 47:1 48:0 49:0 50:0 51:0 52:0 53:0 54:0 55:0 56:1 57:0 58:0 59:0 60:0 61:0 62:1 63:0 64:0 65:1 66:0 67:1 68:0 69:0 70:0 71:0 72:0 73:0 74:0 75:0 76:1 77:0 78:0 79:0 80:0 81:0 82:0 83:1 84:0 85:1 86:0 87:0 88:0 89:0 90:1 91:0 92:0 93:1 94:0 95:0 96:0 97:0 98:0 99:0 100:0 101:0 102:1 103:0 104:0 105:1 106:0 107:1 108:0 109:0 110:1 111:0 112:0 113:1 114:0 115:1 116:0 117:0 118:0 119:0 120:0 121:1 122:0 123:0 124:1 125:0 126:0 127:1 128:0 129:0 130:0 131:0 132:1 133:0 134:1 135:0 136:0 137:1 138:0 139:0 140:1 141:0 142:0 143:0 144:0 145:0 146:1 147:0 148:0 149:0 150:0 151:0 152:0 153:1 154:0 155:1 156:0 157:1 158:0 159:0 160:0 161:1 162:0 163:0 164:0 165:0 166:0 167:0 168:1 169:1 170:0 171:0 172:0 173:0 174:1 175:1 176:0 177:0 178:1 179:0 180:0 
0.03564207814542829 0.7257668444426373 1:0 2:1 3:0 4:0 5:1 6:0 7:0 8:0 9:1 10:0 11:0 12:1 13:1 14:0 15:0 16:0 17:0 18:0 19:0 20:1 21:0 22:1 23:0 24:0 25:0 26:0 27:0 28:0 29:0 30:0 31:0 32:1 33:0 34:1 35:0 36:0 37:0 38:0 39:0 40:0 41:0 42:1 43:1 44:0 45:0 46:0 47:1 48:0 49:0 50:1 51:0 52:0 53:0 54:0 55:0 56:0 57:0 58:0 59:0 60:0 61:0 62:1 63:0 64:0 65:0 66:0 67:0 68:1 69:0 70:0 71:0 72:0 73:0 74:0 75:0 76:0 77:0 78:1 79:0 80:1 81:0 82:0 83:1 84:0 85:1 86:0 87:0 88:0 89:0 90:1 91:0 92:0 93:1 94:0 95:0 96:0 97:0 98:0 99:0 100:0 101:1 102:0 103:0 104:1 105:0 106:0 107:0 108:0 109:0 110:0 111:1 112:0 113:0 114:1 115:1 116:0 117:0 118:0 119:0 120:0 121:0 122:0 123:1 124:0 125:1 126:0 127:0 128:1 129:0 130:0 131:0 132:0 133:1 134:0 135:0 136:0 137:0 138:0 139:0 140:0 141:1 142:0 143:1 144:0 145:0 146:0 147:0 148:0 149:0 150:1 151:1 152:0 153:0 154:0 155:0 156:1 157:0 158:1 159:0 160:1 161:0 162:0 163:0 164:1 165:0 166:1 167:0 168:0 169:1 170:0 171:0 172:0 173:0 174:1 175:0 176:0 177:0 178:0 179:0 180:0 
0.3388277757073933 0 1:0 2:0 3:0 4:1 5:0 6:0 7:1 8:0 9:0 10:0 11:0 12:0 13:0 14:0 15:1 16:1 17:0 18:0 19:0 20:0 21:0 22:0 23:1 24:0 25:0 26:1 27:0 28:0 29:0 30:0 31:0 32:0 33:1 34:0 35:0 36:0 37:0 38:1 39:0 40:0 41:1 42:0 43:0 44:0 45:0 46:0 47:0 48:0 49:0 50:0 51:0 52:0 53:0 54:0 55:0 56:1 57:0 58:0 59:0 60:0 61:1 62:0 63:0 64:0 65:0 66:0 67:0 68:0 69:0 70:0 71:0 72:0 73:0 74:0 75:0 76:0 77:1 78:0 79:1 80:0 81:0 82:0 83:1 84:0 85:1 86:0 87:0 88:0 89:0 90:1 91:0 92:1 93:0 94:0 95:1 96:0 97:0 98:0 99:0 100:0 101:1 102:0 103:0 104:0 105:0 106:0 107:1 108:0 109:0 110:1 111:0 112:0 113:0 114:0 115:0 116:1 117:0 118:0 119:1 120:0 121:0 122:0 123:0 124:0 125:1 126:0 127:0 128:1 129:0 130:0 131:1 132:0 133:1 134:0 135:0 136:0 137:0 138:1 139:0 140:0 141:0 142:0 143:0 144:0 145:0 146:1 147:0 148:0 149:0 150:0 151:0 152:1 153:0 154:0 155:1 156:0 157:0 158:0 159:0 160:0 161:1 162:0 163:0 164:0 165:0 166:0 167:0 168:1 169:0 170:0 171:1 172:1 173:0 174:0 175:0 176:0 177:0 178:0 179:1 180:0 
1.173535873912629 0.9949396218357761 1:0 2:0 3:1 4:1 5:0 6:0 7:0 8:0 9:1 10:0 11:0 12:1 13:0 14:0 15:1 16:1 17:0 18:0 19:0 20:1 21:0 22:0 23:0 24:0 25:0 26:0 27:1 28:1 29:0 30:0 31:1 32:0 33:0 34:0 35:0 36:1 37:0 38:1 39:0 40:0 41:1 42:0 43:0 44:1 45:0 46:1 47:0 48:0 49:0 50:0 51:1 52:0 53:0 54:0 55:0 56:1 57:0 58:1 59:0 60:0 61:0 62:0 63:0 64:0 65:0 66:1 67:0 68:1 69:0 70:0 71:1 72:0 73:0 74:1 75:0 76:0 77:0 78:0 79:1 80:0 81:0 82:0 83:1 84:0 85:1 86:0 87:0 88:0 89:0 90:1 91:0 92:0 93:1 94:1 95:0 96:0 97:0 98:0 99:1 100:1 101:0 102:0 103:0 104:0 105:0 106:0 107:1 108:0 109:0 110:1 111:0 112:0 113:0 114:1 115:0 116:0 117:0 118:0 119:0 120:1 121:1 122:0 123:0 124:0 125:0 126:1 127:0 128:0 129:0 130:0 131:0 132:0 133:0 134:0 135:1 136:0 137:1 138:0 139:1 140:0 141:0 142:0 143:0 144:1 145:0 146:0 147:1 148:0 149:1 150:0 151:0 152:0 153:0 154:0 155:1 156:0 157:1 158:0 159:0 160:0 161:0 162:1 163:0 164:1 165:0 166:0 167:0 168:0 169:0 170:0 171:0 172:0 173:1 174:0 175:1 176:0 177:0 178:0 179:0 180:1 
0 0.03233014861811825 1:0 2:0 3:1 4:0 5:0 6:0 7:0 8:1 9:0 10:0 11:0 12:0 13:0 14:1 15:0 16:0 17:0 18:0 19:0 20:1 21:0 22:0 23:0 24:0 25:0 26:1 27:0 28:0 29:0 30:0 31:0 32:1 33:0 34:0 35:0 36:0 37:0 38:1 39:0 40:0 41:0 42:0 43:0 44:1 45:0 46:0 47:0 48:0 49:0 50:1 51:0 52:0 53:0 54:0 55:0 56:1 57:0 58:0 59:0 60:0 61:0 62:0 63:0 64:0 65:0 66:0 67:0 68:1 69:0 70:0 71:0 72:0 73:0 74:1 75:0 76:0 77:0 78:0 79:0 80:0 81:1 82:0 83:1 84:0 85:1 86:0 87:0 88:0 89:0 90:1 91:0 92:0 93:1 94:0 95:0 96:0 97:0 98:0 99:0 100:0 101:1 102:0 103:0 104:0 105:0 106:0 107:1 108:0 109:0 110:1 111:0 112:0 113:1 114:0 115:0 116:1 117:0 118:1 119:0 120:0 121:0 122:0 123:0 124:0 125:0 126:1 127:1 128:0 129:0 130:0 131:1 132:0 133:1 134:0 135:0 136:0 137:1 138:0 139:0 140:1 141:0 142:1 143:0 144:0 145:0 146:1 147:0 148:0 149:1 150:0 151:0 152:0 153:0 154:0 155:0 156:1 157:1 158:0 159:0 160:1 161:0 162:0 163:0 164:1 165:0 166:0 167:0 168:1 169:0 170:0 171:0 172:0 173:1 174:0 175:0 176:0 177:0 178:0 179:1 180:0 
0.4230629773917227 0.1628546052049986 1:0 2:1 3:0 4:0 5:1 6:0 7:0 8:0 9:0 10:0 11:1 12:0 13:0 14:1 15:0 16:0 17:0 18:0 19:0 20:1 21:0 22:1 23:0 24:0 25:0 26:1 27:0 28:0 29:0 30:0 31:0 32:0 33:0 34:0 35:0 36:0 37:0 38:0 39:0 40:0 41:0 42:1 43:0 44:1 45:0 46:0 47:1 48:0 49:0 50:1 51:0 52:0 53:1 54:0 55:0 56:0 57:0 58:0 59:0 60:1 61:0 62:0 63:0 64:0 65:1 66:0 67:1 68:0 69:0 70:0 71:1 72:0 73:0 74:1 75:0 76:0 77:0 78:0 79:0 80:0 81:0 82:0 83:0 84:0 85:1 86:0 87:0 88:0 89:0 90:1 91:0 92:0 93:1 94:1 95:0 96:0 97:1 98:0 99:0 100:0 101:0 102:1 103:0 104:0 105:0 106:1 107:0 108:0 109:1 110:0 111:0 112:1 113:0 114:0 115:1 116:0 117:0 118:0 119:0 120:1 121:0 122:0 123:1 124:0 125:1 126:0 127:0 128:1 129:0 130:0 131:0 132:0 133:1 134:0 135:0 136:0 137:1 138:0 139:1 140:0 141:0 142:1 143:0 144:0 145:0 146:0 147:1 148:0 149:1 150:0 151:0 152:1 153:0 154:0 155:1 156:0 157:1 158:0 159:0 160:0 161:0 162:1 163:1 164:0 165:0 166:0 167:0 168:0 169:0 170:0 171:0 172:0 173:0 174:1 175:0 176:1 177:0 178:0 179:1 180:0 
0.7626155641581444 0.1238043570028594 1:1 2:0 3:0 4:0 5:0 6:0 7:0 8:0 9:1 10:0 11:1 12:0 13:0 14:0 15:0 16:0 17:0 18:1 19:1 20:0 21:0 22:0 23:1 24:0 25:0 26:1 27:0 28:1 29:0 30:0 31:0 32:1 33:0 34:0 35:0 36:0 37:0 38:0 39:0 40:0 41:1 42:0 43:0 44:1 45:0 46:0 47:1 48:0 49:0 50:0 51:0 52:0 53:1 54:0 55:0 56:0 57:0 58:0 59:0 60:0 61:0 62:1 63:0 64:0 65:0 66:0 67:0 68:1 69:0 70:0 71:0 72:0 73:0 74:0 75:1 76:1 77:0 78:0 79:0 80:0 81:1 82:0 83:1 84:0 85:1 86:0 87:0 88:0 89:0 90:1 91:0 92:0 93:0 94:0 95:0 96:1 97:0 98:0 99:0 100:0 101:0 102:1 103:1 104:0 105:0 106:0 107:1 108:0 109:0 110:0 111:0 112:0 113:0 114:0 115:0 116:1 117:0 118:1 119:0 120:0 121:0 122:1 123:0 124:0 125:1 126:0 127:0 128:0 129:1 130:1 131:0 132:0 133:1 134:0 135:0 136:0 137:0 138:1 139:1 140:0 141:0 142:0 143:1 144:0 145:0 146:1 147:0 148:1 149:0 150:0 151:0 152:0 153:1 154:1 155:0 156:0 157:0 158:1 159:0 160:0 161:1 162:0 163:0 164:0 165:1 166:0 167:1 168:0 169:1 170:0 171:0 172:0 173:0 174:1 175:0 176:0 177:1 178:0 179:0 180:0 
0.3919393507052976 0.09678763612702616 1:0 2:1 3:0 4:0 5:0 6:0 7:0 8:0 9:1 10:0 11:0 12:1 13:0 14:0 15:0 16:0 17:0 18:1 19:0 20:0 21:0 22:0 23:0 24:1 25:1 26:0 27:0 28:1 29:0 30:0 31:0 32:0 33:0 34:0 35:0 36:1 37:0 38:0 39:1 40:0 41:1 42:0 43:1 44:0 45:0 46:0 47:0 48:0 49:0 50:0 51:0 52:0 53:1 54:0 55:0 56:0 57:0 58:0 59:1 60:0 61:0 62:0 63:0 64:0 65:0 66:0 67:0 68:0 69:0 70:0 71:0 72:0 73:0 74:0 75:0 76:0 77:0 78:0 79:0 80:0 81:1 82:0 83:1 84:0 85:1 86:0 87:0 88:0 89:0 90:1 91:1 92:0 93:0 94:0 95:1 96:0 97:1 98:0 99:0 100:0 101:0 102:1 103:1 104:0 105:0 106:0 107:0 108:1 109:0 110:0 111:1 112:1 113:0 114:0 115:0 116:0 117:1 118:0 119:1 120:0 121:0 122:0 123:0 124:0 125:0 126:1 127:1 128:0 129:0 130:1 131:0 132:0 133:0 134:1 135:0 136:0 137:1 138:0 139:0 140:0 141:1 142:0 143:1 144:0 145:0 146:0 147:1 148:1 149:0 150:0 151:0 152:0 153:1 154:0 155:0 156:1 157:0 158:0 159:0 160:0 161:0 162:1 163:0 164:0 165:1 166:0 167:1 168:0 169:0 170:1 171:0 172:1 173:0 174:0 175:0 176:1 177:0 178:0 179:1 180:0 
0.1002639942408657 0.1476916206192641 1:1 2:0 3:0 4:0 5:0 6:0 7:0 8:1 9:0 10:0 11:0 12:0 13:0 14:1 15:0 16:1 17:0 18:0 19:0 20:1 21:0 22:0 23:0 24:0 25:0 26:1 27:0 28:0 29:0 30:0 31:0 32:1 33:0 34:0 35:0 36:0 37:0 38:1 39:0 40:0 41:1 42:0 43:0 44:1 45:0 46:0 47:0 48:0 49:0 50:0 51:1 52:0 53:1 54:0 55:0 56:0 57:0 58:0 59:0 60:0 61:0 62:0 63:0 64:0 65:0 66:0 67:1 68:0 69:0 70:0 71:1 72:0 73:0 74:1 75:0 76:0 77:1 78:0 79:0 80:0 81:0 82:0 83:0 84:0 85:1 86:0 87:0 88:0 89:0 90:1 91:0 92:0 93:1 94:0 95:0 96:1 97:0 98:0 99:0 100:0 101:0 102:1 103:1 104:0 105:0 106:0 107:0 108:0 109:0 110:0 111:0 112:0 113:1 114:0 115:0 116:0 117:0 118:0 119:0 120:1 121:0 122:0 123:1 124:0 125:0 126:1 127:0 128:0 129:1 130:0 131:0 132:1 133:0 134:1 135:0 136:0 137:1 138:0 139:0 140:1 141:0 142:1 143:0 144:0 145:0 146:1 147:0 148:0 149:0 150:0 151:0 152:0 153:0 154:0 155:0 156:1 157:0 158:0 159:0 160:0 161:1 162:0 163:0 164:0 165:0 166:0 167:0 168:1 169:0 170:0 171:0 172:1 173:0 174:0 175:1 176:0 177:0 178:0 179:0 180:0 
0.2297541016760145 0.4681019547179754 1:1 2:0 3:0 4:0 5:1 6:0 7:1 8:0 9:0 10:0 11:1 12:0 13:0 14:0 15:0 16:0 17:0 18:1 19:0 20:1 21:0 22:0 23:1 24:0 25:1 26:0 27:0 28:0 29:0 30:0 31:0 32:0 33:1 34:0 35:0 36:0 37:0 38:0 39:0 40:0 41:1 42:0 43:0 44:0 45:0 46:0 47:0 48:1 49:0 50:1 51:0 52:0 53:1 54:0 55:0 56:1 57:0 58:0 59:0 60:0 61:0 62:0 63:1 64:0 65:0 66:0 67:0 68:1 69:0 70:0 71:1 72:0 73:0 74:0 75:0 76:0 77:1 78:0 79:1 80:0 81:0 82:0 83:1 84:0 85:1 86:0 87:0 88:0 89:0 90:1 91:0 92:0 93:1 94:0 95:0 96:1 97:1 98:0 99:0 100:0 101:0 102:1 103:0 104:1 105:0 106:0 107:0 108:0 109:0 110:1 111:0 112:1 113:0 114:0 115:0 116:0 117:1 118:0 119:1 120:0 121:0 122:1 123:0 124:0 125:1 126:0 127:0 128:0 129:1 130:0 131:1 132:0 133:0 134:0 135:0 136:0 137:0 138:1 139:0 140:0 141:1 142:1 143:0 144:0 145:0 146:1 147:0 148:0 149:0 150:0 151:0 152:0 153:0 154:1 155:0 156:0 157:0 158:0 159:0 160:1 161:0 162:0 163:1 164:0 165:0 166:0 167:0 168:0 169:0 170:0 171:1 172:0 173:1 174:0 175:0 176:1 177:0 178:1 179:0 180:0 
0.652387516336716 0 1:1 2:0 3:0 4:1 5:0 6:0 7:1 8:0 9:0 10:1 11:0 12:0 13:1 14:0 15:0 16:0 17:0 18:0 19:0 20:0 21:1 22:1 23:0 24:0 25:0 26:0 27:0 28:0 29:0 30:0 31:0 32:0 33:1 34:0 35:0 36:0 37:1 38:0 39:0 40:0 41:0 42:0 43:0 44:0 45:0 46:0 47:0 48:0 49:0 50:1 51:0 52:0 53:1 54:0 55:0 56:0 57:0 58:0 59:0 60:0 61:0 62:0 63:0 64:0 65:1 66:0 67:0 68:1 69:0 70:0 71:0 72:0 73:0 74:1 75:0 76:0 77:0 78:0 79:0 80:1 81:0 82:0 83:1 84:0 85:1 86:0 87:0 88:0 89:0 90:1 91:1 92:0 93:0 94:0 95:1 96:0 97:0 98:0 99:0 100:0 101:1 102:0 103:0 104:0 105:0 106:0 107:0 108:1 109:1 110:0 111:0 112:0 113:0 114:1 115:0 116:0 117:1 118:1 119:0 120:0 121:0 122:0 123:0 124:0 125:0 126:0 127:0 128:1 129:0 130:0 131:1 132:0 133:0 134:0 135:0 136:0 137:0 138:1 139:0 140:0 141:0 142:0 143:0 144:0 145:0 146:1 147:0 148:0 149:1 150:0 151:0 152:0 153:0 154:0 155:0 156:1 157:0 158:0 159:0 160:1 161:0 162:0 163:0 164:1 165:0 166:1 167:0 168:0 169:0 170:0 171:0 172:1 173:0 174:0 175:1 176:0 177:0 178:1 179:0 180:0 
1.084321002631538 0.4270411383614416 1:0 2:0 3:0 4:1 5:0 6:0 7:1 8:0 9:0 10:0 11:0 12:0 13:1 14:0 15:0 16:1 17:0 18:0 19:0 20:0 21:0 22:1 23:0 24:0 25:0 26:0 27:1 28:0 29:1 30:0 31:0 32:0 33:0 34:0 35:0 36:1 37:0 38:0 39:0 40:0 41:0 42:0 43:0 44:0 45:0 46:0 47:1 48:0 49:0 50:0 51:0 52:0 53:1 54:0 55:0 56:0 57:0 58:0 59:0 60:1 61:0 62:0 63:0 64:0 65:0 66:0 67:0 68:0 69:1 70:0 71:0 72:0 73:0 74:0 75:0 76:0 77:0 78:0 79:1 80:0 81:0 82:1 83:0 84:0 85:1 86:0 87:0 88:0 89:0 90:1 91:0 92:0 93:1 94:0 95:1 96:0 97:1 98:0 99:0 100:0 101:1 102:0 103:0 104:0 105:0 106:1 107:0 108:0 109:0 110:1 111:0 112:1 113:0 114:0 115:1 116:0 117:0 118:1 119:0 120:0 121:0 122:0 123:0 124:1 125:0 126:0 127:0 128:1 129:0 130:0 131:0 132:0 133:0 134:0 135:1 136:0 137:0 138:0 139:0 140:0 141:1 142:0 143:0 144:1 145:0 146:1 147:0 148:1 149:0 150:0 151:0 152:0 153:1 154:0 155:1 156:0 157:1 158:0 159:0 160:0 161:0 162:0 163:1 164:0 165:0 166:0 167:0 168:0 169:1 170:0 171:0 172:1 173:0 174:0 175:0 176:0 177:0 178:0 179:0 180:0 
0.4033535414381951 0 1:0 2:1 3:0 4:0 5:1 6:0 7:1 8:0 9:0 10:0 11:1 12:0 13:0 14:0 15:0 16:0 17:1 18:0 19:0 20:0 21:0 22:1 23:0 24:0 25:0 26:0 27:0 28:0 29:0 30:0 31:0 32:0 33:0 34:0 35:0 36:1 37:0 38:1 39:0 40:1 41:0 42:0 43:0 44:0 45:0 46:0 47:0 48:0 49:0 50:0 51:0 52:0 53:0 54:0 55:0 56:0 57:1 58:0 59:0 60:0 61:0 62:0 63:0 64:0 65:0 66:1 67:0 68:1 69:0 70:1 71:0 72:0 73:0 74:0 75:0 76:0 77:0 78:0 79:0 80:0 81:0 82:0 83:1 84:0 85:1 86:0 87:0 88:0 89:0 90:1 91:1 92:0 93:0 94:0 95:0 96:1 97:0 98:0 99:1 100:1 101:0 102:0 103:1 104:0 105:0 106:0 107:1 108:0 109:1 110:0 111:0 112:0 113:0 114:0 115:0 116:1 117:0 118:1 119:0 120:0 121:1 122:0 123:0 124:0 125:0 126:1 127:1 128:0 129:0 130:1 131:0 132:0 133:1 134:0 135:0 136:0 137:0 138:0 139:0 140:1 141:0 142:1 143:0 144:0 145:0 146:0 147:0 148:0 149:0 150:1 151:1 152:0 153:0 154:1 155:0 156:0 157:0 158:1 159:0 160:1 161:0 162:0 163:1 164:0 165:0 166:0 167:1 168:0 169:0 170:0 171:0 172:0 173:0 174:0 175:0 176:0 177:0 178:0 179:0 180:1 
0.192662501274586 0.02120206897834593 1:0 2:0 3:0 4:0 5:1 6:0 7:0 8:1 9:0 10:0 11:0 12:0 13:0 14:1 15:0 16:1 17:0 18:0 19:0 20:1 21:0 22:0 23:0 24:0 25:0 26:0 27:1 28:0 29:1 30:0 31:0 32:1 33:0 34:0 35:0 36:0 37:0 38:0 39:1 40:0 41:0 42:0 43:0 44:1 45:0 46:0 47:1 48:0 49:0 50:1 51:0 52:0 53:1 54:0 55:0 56:0 57:0 58:0 59:0 60:0 61:0 62:1 63:0 64:0 65:1 66:0 67:0 68:1 69:0 70:0 71:0 72:0 73:0 74:1 75:0 76:0 77:1 78:0 79:0 80:0 81:0 82:0 83:1 84:0 85:1 86:0 87:0 88:0 89:0 90:1 91:1 92:0 93:0 94:0 95:0 96:0 97:0 98:1 99:0 100:1 101:0 102:0 103:0 104:0 105:0 106:0 107:0 108:0 109:0 110:0 111:1 112:0 113:1 114:0 115:0 116:0 117:0 118:0 119:1 120:0 121:0 122:1 123:0 124:0 125:0 126:0 127:0 128:1 129:0 130:0 131:1 132:0 133:0 134:0 135:0 136:0 137:0 138:1 139:1 140:0 141:0 142:0 143:0 144:1 145:0 146:1 147:0 148:0 149:0 150:1 151:0 152:1 153:0 154:1 155:0 156:0 157:1 158:0 159:0 160:0 161:0 162:1 163:0 164:0 165:0 166:1 167:0 168:0 169:0 170:1 171:0 172:0 173:0 174:0 175:0 176:1 177:0 178:0 179:1 180:0 
0.03500622436010509 0 1:0 2:0 3:1 4:0 5:0 6:1 7:0 8:0 9:1 10:0 11:1 12:0 13:0 14:0 15:1 16:0 17:0 18:1 19:0 20:0 21:1 22:0 23:0 24:0 25:0 26:1 27:0 28:0 29:0 30:0 31:0 32:1 33:0 34:1 35:0 36:0 37:0 38:0 39:1 40:0 41:1 42:0 43:0 44:1 45:0 46:0 47:1 48:0 49:0 50:1 51:0 52:0 53:0 54:0 55:0 56:1 57:0 58:0 59:1 60:0 61:0 62:0 63:0 64:0 65:1 66:0 67:0 68:0 69:1 70:0 71:1 72:0 73:0 74:1 75:0 76:0 77:1 78:0 79:0 80:1 81:0 82:0 83:1 84:0 85:1 86:0 87:0 88:0 89:0 90:1 91:0 92:0 93:1 94:0 95:1 96:0 97:0 98:0 99:0 100:0 101:1 102:0 103:0 104:1 105:0 106:0 107:1 108:0 109:1 110:0 111:0 112:0 113:1 114:0 115:0 116:0 117:0 118:0 119:1 120:0 121:0 122:1 123:0 124:1 125:0 126:0 127:0 128:0 129:0 130:0 131:0 132:1 133:1 134:0 135:0 136:1 137:0 138:0 139:0 140:0 141:1 142:0 143:0 144:0 145:1 146:0 147:0 148:0 149:0 150:0 151:0 152:0 153:0 154:0 155:0 156:0 157:0 158:1 159:0 160:0 161:0 162:0 163:0 164:0 165:0 166:0 167:1 168:0 169:1 170:0 171:0 172:0 173:1 174:0 175:1 176:0 177:0 178:0 179:0 180:0 
0.8861914353241241 0.8467583859463231 1:0 2:0 3:1 4:0 5:0 6:1 7:0 8:1 9:0 10:0 11:1 12:0 13:0 14:0 15:0 16:0 17:0 18:1 19:1 20:0 21:0 22:0 23:1 24:0 25:0 26:0 27:0 28:0 29:0 30:0 31:0 32:1 33:0 34:0 35:0 36:0 37:1 38:0 39:0 40:0 41:0 42:1 43:0 44:1 45:0 46:0 47:1 48:0 49:1 50:0 51:0 52:0 53:1 54:0 55:0 56:0 57:1 58:0 59:0 60:1 61:0 62:0 63:1 64:0 65:0 66:0 67:0 68:1 69:0 70:0 71:0 72:0 73:0 74:1 75:0 76:0 77:1 78:0 79:0 80:0 81:1 82:0 83:1 84:0 85:1 86:0 87:0 88:0 89:0 90:1 91:0 92:0 93:0 94:0 95:0 96:0 97:0 98:0 99:1 100:0 101:0 102:1 103:0 104:1 105:0 106:0 107:1 108:0 109:0 110:1 111:0 112:1 113:0 114:0 115:0 116:0 117:1 118:0 119:1 120:0 121:0 122:0 123:1 124:0 125:1 126:0 127:0 128:0 129:0 130:0 131:0 132:0 133:0 134:1 135:0 136:0 137:0 138:1 139:0 140:0 141:1 142:0 143:0 144:1 145:0 146:1 147:0 148:0 149:1 150:0 151:0 152:0 153:1 154:0 155:0 156:1 157:0 158:0 159:0 160:0 161:0 162:1 163:0 164:0 165:0 166:0 167:0 168:0 169:0 170:1 171:0 172:1 173:0 174:0 175:0 176:1 177:0 178:0 179:0 180:1 
0 0.3010997234158007 1:0 2:0 3:0 4:0 5:1 6:0 7:0 8:0 9:0 10:0 11:0 12:1 13:1 14:0 15:0 16:0 17:0 18:0 19:0 20:0 21:1 22:1 23:0 24:0 25:0 26:1 27:0 28:0 29:0 30:0 31:1 32:0 33:0 34:0 35:0 36:0 37:0 38:0 39:1 40:0 41:1 42:0 43:1 44:0 45:0 46:0 47:1 48:0 49:0 50:0 51:0 52:0 53:1 54:0 55:0 56:1 57:0 58:0 59:0 60:0 61:0 62:0 63:0 64:0 65:1 66:0 67:0 68:1 69:0 70:0 71:0 72:0 73:0 74:1 75:0 76:0 77:1 78:0 79:0 80:0 81:0 82:0 83:1 84:0 85:1 86:0 87:0 88:0 89:0 90:1 91:0 92:0 93:1 94:0 95:0 96:0 97:0 98:0 99:1 100:0 101:0 102:1 103:1 104:0 105:0 106:0 107:0 108:0 109:1 110:0 111:0 112:1 113:0 114:0 115:0 116:1 117:0 118:0 119:0 120:0 121:0 122:1 123:0 124:1 125:0 126:0 127:0 128:0 129:0 130:0 131:1 132:0 133:0 134:1 135:0 136:0 137:0 138:0 139:0 140:0 141:0 142:1 143:0 144:0 145:1 146:0 147:0 148:0 149:1 150:0 151:1 152:0 153:0 154:0 155:0 156:1 157:0 158:0 159:1 160:1 161:0 162:0 163:0 164:0 165:1 166:1 167:0 168:0 169:0 170:0 171:1 172:0 173:0 174:0 175:0 176:1 177:0 178:0 179:0 180:1 
1.292746919180743 0.1853131788271663 1:0 2:1 3:0 4:0 5:1 6:0 7:0 8:0 9:0 10:0 11:0 12:1 13:1 14:0 15:0 16:0 17:1 18:0 19:0 20:0 21:0 22:0 23:1 24:0 25:0 26:0 27:0 28:0 29:1 30:0 31:1 32:0 33:0 34:0 35:0 36:1 37:0 38:1 39:0 40:0 41:1 42:0 43:0 44:0 45:0 46:0 47:0 48:1 49:0 50:0 51:1 52:0 53:1 54:0 55:0 56:0 57:0 58:1 59:0 60:0 61:0 62:0 63:0 64:0 65:1 66:0 67:0 68:0 69:0 70:0 71:0 72:1 73:0 74:0 75:0 76:0 77:0 78:0 79:0 80:1 81:0 82:0 83:0 84:0 85:1 86:0 87:0 88:0 89:0 90:1 91:1 92:0 93:0 94:1 95:0 96:0 97:0 98:0 99:0 100:0 101:0 102:1 103:0 104:0 105:0 106:0 107:1 108:0 109:0 110:1 111:0 112:0 113:0 114:0 115:0 116:0 117:1 118:0 119:1 120:0 121:0 122:1 123:0 124:0 125:0 126:0 127:0 128:0 129:1 130:0 131:0 132:1 133:0 134:1 135:0 136:0 137:0 138:0 139:0 140:0 141:1 142:0 143:0 144:0 145:0 146:0 147:1 148:0 149:0 150:1 151:0 152:1 153:0 154:0 155:0 156:0 157:0 158:0 159:0 160:0 161:1 162:0 163:0 164:0 165:0 166:0 167:1 168:0 169:0 170:1 171:0 172:0 173:0 174:0 175:0 176:0 177:1 178:0 179:0 180:0 
0.990314825258707 1.271267574955474 1:1 2:0 3:0 4:0 5:0 6:1 7:0 8:1 9:0 10:0 11:1 12:0 13:0 14:0 15:0 16:0 17:0 18:1 19:0 20:0 21:1 22:0 23:0 24:1 25:0 26:1 27:0 28:0 29:0 30:0 31:0 32:0 33:1 34:1 35:0 36:0 37:0 38:1 39:0 40:0 41:1 42:0 43:0 44:1 45:0 46:0 47:1 48:0 49:1 50:0 51:0 52:0 53:1 54:0 55:0 56:0 57:1 58:0 59:0 60:0 61:0 62:1 63:0 64:0 65:0 66:0 67:0 68:0 69:1 70:0 71:0 72:1 73:0 74:1 75:0 76:0 77:1 78:0 79:1 80:0 81:0 82:0 83:1 84:0 85:1 86:0 87:0 88:0 89:0 90:1 91:0 92:0 93:1 94:0 95:1 96:0 97:0 98:1 99:0 100:0 101:1 102:0 103:0 104:0 105:1 106:0 107:1 108:0 109:0 110:0 111:1 112:0 113:0 114:0 115:0 116:0 117:1 118:0 119:1 120:0 121:0 122:0 123:0 124:0 125:0 126:1 127:0 128:1 129:0 130:0 131:1 132:0 133:0 134:1 135:0 136:0 137:1 138:0 139:0 140:0 141:1 142:0 143:0 144:1 145:1 146:0 147:0 148:1 149:0 150:0 151:0 152:0 153:1 154:0 155:0 156:0 157:0 158:1 159:0 160:0 161:0 162:0 163:1 164:0 165:0 166:0 167:0 168:0 169:0 170:0 171:1 172:0 173:1 174:0 175:0 176:0 177:1 178:0 179:0 180:0 
0.3193921226134746 0.1587910422992317 1:0 2:1 3:0 4:0 5:0 6:1 7:0 8:1 9:0 10:0 11:1 12:0 13:0 14:1 15:0 16:0 17:0 18:0 19:1 20:0 21:0 22:1 23:0 24:0 25:0 26:1 27:0 28:0 29:0 30:1 31:0 32:1 33:0 34:0 35:0 36:1 37:0 38:0 39:1 40:0 41:1 42:0 43:0 44:1 45:0 46:0 47:1 48:0 49:0 50:1 51:0 52:0 53:1 54:0 55:0 56:0 57:0 58:0 59:1 60:0 61:0 62:0 63:1 64:0 65:1 66:0 67:0 68:1 69:0 70:0 71:1 72:0 73:0 74:1 75:0 76:0 77:0 78:0 79:0 80:0 81:1 82:0 83:1 84:0 85:1 86:0 87:0 88:0 89:0 90:1 91:0 92:1 93:0 94:0 95:1 96:0 97:0 98:0 99:0 100:1 101:0 102:0 103:1 104:0 105:0 106:0 107:0 108:0 109:0 110:0 111:1 112:0 113:0 114:1 115:0 116:1 117:0 118:1 119:0 120:0 121:0 122:1 123:0 124:0 125:0 126:0 127:0 128:1 129:0 130:0 131:0 132:1 133:1 134:0 135:0 136:0 137:0 138:1 139:0 140:0 141:0 142:0 143:0 144:1 145:0 146:1 147:0 148:0 149:1 150:0 151:0 152:1 153:0 154:1 155:0 156:0 157:0 158:0 159:0 160:0 161:0 162:1 163:0 164:0 165:1 166:1 167:0 168:0 169:1 170:0 171:0 172:0 173:0 174:1 175:0 176:0 177:0 178:0 179:0 180:1 
1.150925165013194 0.2860957295617029 1:0 2:0 3:1 4:0 5:0 6:0 7:0 8:0 9:1 10:1 11:0 12:0 13:0 14:0 15:1 16:0 17:0 18:0 19:0 20:1 21:0 22:1 23:0 24:0 25:0 26:1 27:0 28:0 29:1 30:0 31:0 32:0 33:0 34:0 35:0 36:1 37:0 38:0 39:0 40:0 41:0 42:1 43:1 44:0 45:0 46:0 47:1 48:0 49:0 50:1 51:0 52:1 53:0 54:0 55:0 56:1 57:0 58:0 59:0 60:0 61:0 62:1 63:0 64:0 65:0 66:0 67:0 68:0 69:0 70:0 71:0 72:1 73:0 74:0 75:0 76:0 77:0 78:0 79:0 80:0 81:0 82:0 83:1 84:0 85:1 86:0 87:0 88:0 89:0 90:1 91:0 92:0 93:1 94:1 95:0 96:0 97:0 98:0 99:0 100:0 101:0 102:1 103:1 104:0 105:0 106:0 107:0 108:0 109:1 110:0 111:0 112:1 113:0 114:0 115:0 116:0 117:1 118:0 119:0 120:1 121:1 122:0 123:0 124:0 125:0 126:0 127:0 128:0 129:1 130:0 131:1 132:0 133:0 134:1 135:0 136:0 137:0 138:0 139:0 140:0 141:0 142:0 143:1 144:0 145:0 146:0 147:0 148:1 149:0 150:0 151:0 152:0 153:0 154:0 155:0 156:1 157:0 158:0 159:0 160:0 161:0 162:1 163:0 164:0 165:1 166:0 167:1 168:0 169:1 170:0 171:0 172:0 173:0 174:1 175:1 176:0 177:0 178:0 179:1 180:0 
0.5412098629995504 0.3269857400965571 1:0 2:0 3:0 4:0 5:0 6:0 7:0 8:0 9:1 10:0 11:0 12:0 13:0 14:0 15:0 16:0 17:1 18:0 19:0 20:1 21:0 22:0 23:1 24:0 25:1 26:0 27:0 28:1 29:0 30:0 31:0 32:1 33:0 34:0 35:1 36:0 37:0 38:1 39:0 40:0 41:1 42:0 43:0 44:0 45:0 46:0 47:0 48:0 49:0 50:0 51:0 52:0 53:1 54:0 55:0 56:0 57:0 58:0 59:0 60:0 61:0 62:1 63:0 64:0 65:1 66:0 67:0 68:1 69:0 70:0 71:0 72:0 73:0 74:0 75:0 76:0 77:1 78:0 79:0 80:1 81:0 82:0 83:1 84:0 85:1 86:0 87:0 88:0 89:0 90:1 91:0 92:0 93:1 94:0 95:0 96:1 97:0 98:0 99:1 100:0 101:1 102:0 103:0 104:0 105:0 106:0 107:0 108:1 109:0 110:1 111:0 112:0 113:1 114:0 115:0 116:0 117:1 118:0 119:0 120:1 121:0 122:0 123:1 124:1 125:0 126:0 127:0 128:0 129:1 130:0 131:0 132:1 133:0 134:1 135:0 136:0 137:0 138:0 139:1 140:0 141:0 142:0 143:0 144:0 145:0 146:1 147:0 148:1 149:0 150:0 151:1 152:0 153:0 154:1 155:0 156:0 157:1 158:0 159:0 160:0 161:0 162:1 163:0 164:0 165:1 166:1 167:0 168:0 169:0 170:0 171:0 172:0 173:1 174:0 175:0 176:0 177:1 178:0 179:1 180:0 
0.5222296761490357 0 1:1 2:0 3:0 4:1 5:0 6:0 7:1 8:0 9:0 10:0 11:0 12:0 13:1 14:0 15:0 16:0 17:0 18:0 19:0 20:0 21:0 22:0 23:0 24:0 25:0 26:0 27:0 28:0 29:1 30:0 31:1 32:0 33:0 34:0 35:0 36:0 37:0 38:1 39:0 40:0 41:1 42:0 43:0 44:1 45:0 46:0 47:0 48:0 49:1 50:0 51:0 52:0 53:0 54:0 55:0 56:0 57:0 58:0 59:0 60:0 61:1 62:0 63:0 64:0 65:0 66:0 67:0 68:0 69:0 70:0 71:0 72:0 73:0 74:1 75:0 76:0 77:0 78:0 79:1 80:0 81:0 82:0 83:1 84:0 85:1 86:0 87:0 88:0 89:0 90:1 91:0 92:0 93:0 94:0 95:0 96:1 97:0 98:1 99:0 100:0 101:0 102:0 103:1 104:0 105:0 106:0 107:1 108:0 109:1 110:0 111:0 112:1 113:0 114:0 115:0 116:0 117:0 118:0 119:0 120:1 121:1 122:0 123:0 124:1 125:0 126:0 127:1 128:0 129:0 130:1 131:0 132:0 133:1 134:0 135:0 136:0 137:0 138:1 139:1 140:0 141:0 142:1 143:0 144:0 145:0 146:0 147:1 148:0 149:0 150:1 151:0 152:0 153:1 154:0 155:0 156:0 157:0 158:0 159:1 160:1 161:0 162:0 163:0 164:0 165:1 166:1 167:0 168:0 169:1 170:0 171:0 172:0 173:0 174:1 175:1 176:0 177:0 178:0 179:0 180:1 
0.9048791561961248 1.114585411733193 1:0 2:1 3:0 4:1 5:0 6:0 7:0 8:0 9:1 10:0 11:1 12:0 13:0 14:0 15:0 16:0 17:0 18:1 19:1 20:0 21:0 22:0 23:1 24:0 25:0 26:0 27:0 28:0 29:1 30:0 31:0 32:1 33:0 34:0 35:1 36:0 37:1 38:0 39:0 40:0 41:0 42:1 43:1 44:0 45:0 46:0 47:0 48:1 49:0 50:0 51:0 52:0 53:1 54:0 55:0 56:1 57:0 58:1 59:0 60:0 61:0 62:1 63:0 64:0 65:0 66:0 67:0 68:1 69:0 70:0 71:1 72:0 73:0 74:1 75:0 76:0 77:0 78:0 79:0 80:0 81:1 82:0 83:0 84:0 85:1 86:0 87:0 88:0 89:0 90:1 91:0 92:0 93:1 94:0 95:0 96:0 97:0 98:1 99:0 100:0 101:0 102:1 103:0 104:0 105:1 106:0 107:0 108:1 109:0 110:1 111:0 112:1 113:0 114:0 115:0 116:0 117:1 118:0 119:1 120:0 121:1 122:0 123:0 124:0 125:0 126:1 127:0 128:0 129:1 130:0 131:1 132:0 133:0 134:1 135:0 136:0 137:0 138:1 139:0 140:0 141:0 142:1 143:0 144:0 145:0 146:0 147:1 148:1 149:0 150:0 151:1 152:0 153:0 154:0 155:0 156:1 157:0 158:0 159:0 160:0 161:1 162:0 163:0 164:0 165:0 166:0 167:0 168:1 169:0 170:0 171:1 172:0 173:1 174:0 175:1 176:0 177:0 178:0 179:0 180:1 
0.7880805008347823 1.881797803997053 1:0 2:0 3:1 4:0 5:0 6:0 7:1 8:0 9:0 10:0 11:0 12:0 13:1 14:0 15:0 16:1 17:0 18:0 19:0 20:1 21:0 22:0 23:1 24:0 25:0 26:1 27:0 28:0 29:0 30:0 31:0 32:0 33:1 34:0 35:1 36:0 37:0 38:0 39:1 40:1 41:0 42:0 43:0 44:0 45:0 46:0 47:0 48:1 49:0 50:1 51:0 52:0 53:1 54:0 55:0 56:0 57:0 58:0 59:0 60:1 61:0 62:0 63:0 64:1 65:0 66:0 67:0 68:0 69:0 70:0 71:1 72:0 73:0 74:0 75:0 76:1 77:0 78:0 79:1 80:0 81:0 82:0 83:1 84:0 85:1 86:0 87:0 88:0 89:0 90:1 91:0 92:0 93:1 94:0 95:0 96:0 97:0 98:0 99:1 100:1 101:0 102:0 103:0 104:0 105:1 106:1 107:0 108:0 109:0 110:0 111:1 112:0 113:1 114:0 115:1 116:0 117:0 118:0 119:1 120:0 121:1 122:0 123:0 124:0 125:0 126:1 127:0 128:0 129:0 130:1 131:0 132:0 133:1 134:0 135:0 136:0 137:0 138:1 139:0 140:0 141:1 142:1 143:0 144:0 145:0 146:1 147:0 148:0 149:0 150:0 151:1 152:0 153:0 154:0 155:0 156:0 157:0 158:0 159:0 160:0 161:0 162:1 163:0 164:1 165:0 166:0 167:0 168:0 169:1 170:0 171:0 172:0 173:0 174:0 175:0 176:0 177:1 178:0 179:0 180:1 
0.9149961328805594 0.1450027286710847 1:1 2:0 3:0 4:0 5:1 6:0 7:1 8:0 9:0 10:1 11:0 12:0 13:1 14:0 15:0 16:1 17:0 18:0 19:0 20:1 21:0 22:0 23:0 24:0 25:0 26:0 27:0 28:0 29:0 30:0 31:0 32:0 33:0 34:0 35:1 36:0 37:0 38:1 39:0 40:0 41:1 42:0 43:0 44:0 45:0 46:0 47:0 48:0 49:0 50:0 51:0 52:0 53:0 54:0 55:0 56:0 57:0 58:0 59:1 60:0 61:1 62:0 63:0 64:1 65:0 66:0 67:0 68:0 69:0 70:0 71:1 72:0 73:0 74:0 75:0 76:1 77:0 78:0 79:1 80:0 81:0 82:0 83:0 84:0 85:1 86:0 87:0 88:0 89:0 90:1 91:0 92:0 93:0 94:1 95:0 96:0 97:0 98:1 99:0 100:0 101:0 102:1 103:0 104:0 105:1 106:0 107:1 108:0 109:1 110:0 111:0 112:0 113:0 114:1 115:0 116:1 117:0 118:0 119:0 120:0 121:0 122:0 123:1 124:0 125:1 126:0 127:0 128:0 129:0 130:1 131:0 132:0 133:0 134:0 135:0 136:0 137:0 138:0 139:0 140:0 141:1 142:0 143:1 144:0 145:0 146:0 147:0 148:0 149:0 150:0 151:1 152:0 153:0 154:0 155:0 156:0 157:0 158:0 159:1 160:0 161:0 162:1 163:0 164:1 165:0 166:0 167:1 168:0 169:0 170:0 171:0 172:0 173:0 174:1 175:0 176:0 177:1 178:1 179:0 180:0 
1.602803071662925 0.8292623878444582 1:0 2:1 3:0 4:0 5:0 6:0 7:0 8:0 9:0 10:0 11:0 12:0 13:0 14:1 15:0 16:0 17:0 18:0 19:0 20:1 21:0 22:0 23:1 24:0 25:1 26:0 27:0 28:1 29:0 30:0 31:1 32:0 33:0 34:0 35:1 36:0 37:1 38:0 39:0 40:0 41:0 42:0 43:1 44:0 45:0 46:1 47:0 48:0 49:1 50:0 51:0 52:1 53:0 54:0 55:0 56:0 57:0 58:1 59:0 60:0 61:0 62:0 63:0 64:0 65:0 66:0 67:0 68:0 69:0 70:0 71:1 72:0 73:0 74:0 75:0 76:0 77:0 78:0 79:1 80:0 81:0 82:0 83:0 84:0 85:1 86:0 87:0 88:0 89:0 90:1 91:0 92:1 93:0 94:0 95:0 96:0 97:1 98:0 99:0 100:0 101:1 102:0 103:0 104:1 105:0 106:0 107:0 108:0 109:0 110:0 111:1 112:0 113:1 114:0 115:0 116:1 117:0 118:0 119:0 120:0 121:0 122:0 123:0 124:0 125:0 126:0 127:0 128:1 129:0 130:0 131:0 132:0 133:0 134:0 135:1 136:0 137:0 138:1 139:1 140:0 141:0 142:1 143:0 144:0 145:0 146:0 147:1 148:1 149:0 150:0 151:1 152:0 153:0 154:0 155:1 156:0 157:0 158:0 159:0 160:0 161:0 162:0 163:0 164:0 165:0 166:0 167:0 168:1 169:0 170:1 171:0 172:0 173:1 174:0 175:1 176:0 177:0 178:0 179:0 180:0 
0.6898666625240126 1.055411941904401 1:0 2:1 3:0 4:0 5:0 6:0 7:0 8:0 9:0 10:0 11:0 12:1 13:1 14:0 15:0 16:0 17:0 18:1 19:0 20:1 21:0 22:0 23:1 24:0 25:0 26:1 27:0 28:0 29:0 30:0 31:0 32:0 33:1 34:0 35:1 36:0 37:0 38:1 39:0 40:0 41:0 42:0 43:0 44:0 45:0 46:0 47:0 48:1 49:0 50:0 51:0 52:0 53:0 54:1 55:0 56:1 57:0 58:0 59:1 60:0 61:0 62:0 63:0 64:0 65:1 66:0 67:0 68:1 69:0 70:0 71:0 72:0 73:0 74:0 75:1 76:0 77:1 78:0 79:1 80:0 81:0 82:0 83:1 84:0 85:1 86:0 87:0 88:0 89:0 90:1 91:0 92:0 93:1 94:0 95:0 96:1 97:1 98:0 99:0 100:1 101:0 102:0 103:0 104:0 105:0 106:0 107:0 108:1 109:0 110:1 111:0 112:0 113:0 114:0 115:0 116:0 117:1 118:0 119:0 120:1 121:0 122:1 123:0 124:1 125:0 126:0 127:0 128:0 129:1 130:0 131:0 132:1 133:1 134:0 135:0 136:0 137:0 138:0 139:1 140:0 141:0 142:1 143:0 144:0 145:0 146:0 147:1 148:0 149:0 150:1 151:1 152:0 153:0 154:0 155:0 156:1 157:0 158:1 159:0 160:0 161:0 162:1 163:0 164:1 165:0 166:0 167:1 168:0 169:1 170:0 171:0 172:0 173:0 174:1 175:0 176:1 177:0 178:0 179:0 180:0 
1.117137658043934 0.848798850135028 1:1 2:0 3:0 4:0 5:0 6:1 7:0 8:0 9:1 10:0 11:0 12:0 13:0 14:0 15:0 16:0 17:0 18:0 19:0 20:0 21:0 22:1 23:0 24:0 25:0 26:1 27:0 28:0 29:0 30:1 31:1 32:0 33:0 34:0 35:0 36:0 37:0 38:0 39:0 40:1 41:0 42:0 43:0 44:0 45:0 46:0 47:0 48:1 49:0 50:0 51:0 52:1 53:0 54:0 55:0 56:0 57:0 58:0 59:0 60:1 61:1 62:0 63:0 64:0 65:0 66:0 67:0 68:0 69:0 70:1 71:0 72:0 73:0 74:1 75:0 76:0 77:0 78:0 79:0 80:0 81:1 82:0 83:1 84:0 85:1 86:0 87:0 88:0 89:0 90:1 91:0 92:0 93:1 94:0 95:0 96:0 97:1 98:0 99:0 100:0 101:0 102:1 103:0 104:1 105:0 106:0 107:0 108:1 109:0 110:1 111:0 112:0 113:0 114:0 115:0 116:0 117:1 118:0 119:0 120:1 121:0 122:0 123:0 124:1 125:0 126:0 127:0 128:0 129:0 130:1 131:0 132:0 133:0 134:0 135:0 136:0 137:0 138:1 139:0 140:0 141:1 142:0 143:0 144:0 145:0 146:1 147:0 148:1 149:0 150:0 151:1 152:0 153:0 154:1 155:0 156:0 157:0 158:0 159:0 160:0 161:0 162:1 163:1 164:0 165:0 166:1 167:0 168:0 169:0 170:0 171:0 172:0 173:0 174:1 175:1 176:0 177:0 178:1 179:0 180:0 
0.352467614936892 0.5163063791668486 1:0 2:0 3:0 4:0 5:0 6:1 7:0 8:0 9:1 10:0 11:1 12:0 13:0 14:1 15:0 16:0 17:1 18:0 19:0 20:0 21:0 22:0 23:0 24:1 25:1 26:0 27:0 28:0 29:1 30:0 31:0 32:0 33:0 34:0 35:1 36:0 37:1 38:0 39:0 40:1 41:0 42:0 43:0 44:0 45:1 46:0 47:1 48:0 49:0 50:1 51:0 52:0 53:0 54:0 55:0 56:1 57:0 58:0 59:0 60:0 61:0 62:0 63:0 64:0 65:0 66:1 67:0 68:1 69:0 70:0 71:1 72:0 73:0 74:0 75:0 76:0 77:0 78:0 79:0 80:1 81:0 82:0 83:1 84:0 85:1 86:0 87:0 88:0 89:0 90:1 91:0 92:0 93:0 94:0 95:0 96:0 97:0 98:1 99:0 100:0 101:1 102:0 103:0 104:0 105:1 106:0 107:0 108:1 109:1 110:0 111:0 112:1 113:0 114:0 115:0 116:1 117:0 118:0 119:0 120:0 121:0 122:0 123:1 124:0 125:1 126:0 127:1 128:0 129:0 130:0 131:0 132:0 133:0 134:0 135:1 136:0 137:1 138:0 139:0 140:0 141:0 142:0 143:1 144:0 145:1 146:0 147:0 148:0 149:1 150:0 151:0 152:1 153:0 154:1 155:0 156:0 157:0 158:1 159:0 160:0 161:1 162:0 163:1 164:0 165:0 166:0 167:0 168:0 169:0 170:1 171:0 172:0 173:0 174:0 175:0 176:0 177:1 178:0 179:1 180:0 
0.372100517242677 0 1:0 2:0 3:0 4:1 5:0 6:0 7:1 8:0 9:0 10:1 11:0 12:0 13:0 14:0 15:0 16:0 17:1 18:0 19:0 20:0 21:0 22:0 23:0 24:0 25:0 26:1 27:0 28:0 29:0 30:0 31:1 32:0 33:0 34:0 35:0 36:1 37:0 38:1 39:0 40:0 41:0 42:0 43:0 44:1 45:0 46:0 47:0 48:0 49:1 50:0 51:0 52:0 53:0 54:0 55:0 56:0 57:0 58:0 59:0 60:0 61:0 62:0 63:0 64:1 65:0 66:0 67:0 68:0 69:0 70:0 71:0 72:0 73:0 74:0 75:0 76:0 77:1 78:0 79:1 80:0 81:0 82:0 83:1 84:0 85:1 86:0 87:0 88:0 89:0 90:1 91:1 92:0 93:0 94:0 95:0 96:0 97:0 98:0 99:0 100:0 101:1 102:0 103:1 104:0 105:0 106:0 107:0 108:0 109:0 110:0 111:0 112:0 113:0 114:0 115:1 116:0 117:0 118:0 119:0 120:0 121:0 122:0 123:1 124:1 125:0 126:0 127:0 128:0 129:1 130:1 131:0 132:0 133:0 134:0 135:0 136:1 137:0 138:0 139:0 140:0 141:1 142:0 143:1 144:0 145:1 146:0 147:0 148:1 149:0 150:0 151:0 152:0 153:1 154:1 155:0 156:0 157:1 158:0 159:0 160:0 161:0 162:1 163:0 164:0 165:1 166:0 167:1 168:0 169:1 170:0 171:0 172:0 173:0 174:0 175:0 176:1 177:0 178:0 179:1 180:0 
0.504370422385041 0.1446444051463628 1:0 2:0 3:1 4:0 5:0 6:1 7:0 8:0 9:1 10:0 11:0 12:1 13:0 14:1 15:0 16:0 17:1 18:0 19:0 20:0 21:0 22:0 23:0 24:1 25:1 26:0 27:0 28:0 29:0 30:0 31:0 32:0 33:1 34:0 35:0 36:1 37:1 38:0 39:0 40:0 41:1 42:0 43:0 44:0 45:0 46:0 47:0 48:1 49:0 50:0 51:0 52:0 53:1 54:0 55:0 56:1 57:0 58:0 59:1 60:0 61:0 62:1 63:0 64:1 65:0 66:0 67:0 68:0 69:0 70:0 71:1 72:0 73:0 74:1 75:0 76:0 77:0 78:0 79:0 80:0 81:1 82:0 83:1 84:0 85:1 86:0 87:0 88:0 89:0 90:1 91:1 92:0 93:0 94:0 95:0 96:0 97:0 98:0 99:0 100:0 101:0 102:1 103:1 104:0 105:0 106:0 107:0 108:1 109:0 110:0 111:1 112:1 113:0 114:0 115:0 116:0 117:1 118:1 119:0 120:0 121:0 122:0 123:1 124:0 125:1 126:0 127:1 128:0 129:0 130:0 131:1 132:0 133:0 134:1 135:0 136:1 137:0 138:0 139:0 140:1 141:0 142:1 143:0 144:0 145:0 146:0 147:1 148:0 149:0 150:0 151:0 152:0 153:1 154:0 155:0 156:1 157:0 158:0 159:0 160:0 161:1 162:0 163:1 164:0 165:0 166:0 167:1 168:0 169:0 170:1 171:0 172:1 173:0 174:0 175:0 176:1 177:0 178:1 179:0 180:0 
0.08561029113704006 0 1:0 2:1 3:0 4:0 5:0 6:0 7:0 8:0 9:0 10:1 11:0 12:0 13:0 14:1 15:0 16:0 17:0 18:0 19:0 20:0 21:0 22:0 23:0 24:0 25:0 26:0 27:0 28:0 29:0 30:0 31:0 32:0 33:0 34:0 35:0 36:0 37:0 38:0 39:0 40:0 41:1 42:0 43:0 44:0 45:0 46:0 47:1 48:0 49:1 50:0 51:0 52:0 53:0 54:0 55:0 56:0 57:0 58:0 59:1 60:0 61:0 62:0 63:0 64:0 65:1 66:0 67:0 68:1 69:0 70:0 71:0 72:0 73:1 74:0 75:0 76:1 77:0 78:0 79:0 80:1 81:0 82:0 83:1 84:0 85:1 86:0 87:0 88:0 89:0 90:1 91:0 92:0 93:1 94:0 95:1 96:0 97:0 98:0 99:0 100:0 101:0 102:1 103:1 104:0 105:0 106:0 107:1 108:0 109:1 110:0 111:0 112:0 113:0 114:0 115:0 116:0 117:0 118:1 119:0 120:0 121:0 122:0 123:0 124:0 125:0 126:0 127:1 128:0 129:0 130:0 131:0 132:0 133:0 134:1 135:0 136:0 137:0 138:1 139:0 140:0 141:1 142:1 143:0 144:0 145:0 146:1 147:0 148:1 149:0 150:0 151:0 152:1 153:0 154:0 155:0 156:0 157:0 158:0 159:0 160:1 161:0 162:0 163:0 164:0 165:0 166:0 167:0 168:1 169:0 170:0 171:0 172:1 173:0 174:0 175:0 176:0 177:0 178:0 179:1 180:0 
0 0.404098102402892 1:0 2:0 3:0 4:0 5:1 6:0 7:0 8:1 9:0 10:0 11:1 12:0 13:0 14:0 15:0 16:0 17:1 18:0 19:0 20:0 21:0 22:0 23:0 24:1 25:0 26:0 27:0 28:0 29:0 30:0 31:0 32:0 33:1 34:0 35:1 36:0 37:0 38:1 39:0 40:0 41:1 42:0 43:0 44:0 45:0 46:0 47:1 48:0 49:0 50:0 51:0 52:0 53:0 54:1 55:0 56:0 57:1 58:0 59:0 60:0 61:0 62:0 63:0 64:0 65:0 66:0 67:0 68:1 69:0 70:0 71:0 72:0 73:0 74:1 75:0 76:0 77:1 78:0 79:0 80:1 81:0 82:0 83:1 84:0 85:1 86:0 87:0 88:0 89:0 90:1 91:0 92:0 93:1 94:0 95:1 96:0 97:0 98:0 99:0 100:0 101:1 102:0 103:0 104:1 105:0 106:0 107:1 108:0 109:0 110:0 111:1 112:0 113:0 114:1 115:1 116:0 117:0 118:0 119:1 120:0 121:0 122:0 123:1 124:0 125:0 126:0 127:0 128:1 129:0 130:0 131:1 132:0 133:0 134:1 135:0 136:0 137:0 138:0 139:0 140:0 141:1 142:0 143:1 144:0 145:0 146:0 147:0 148:0 149:1 150:0 151:0 152:1 153:0 154:0 155:0 156:0 157:0 158:0 159:1 160:0 161:0 162:1 163:0 164:1 165:0 166:0 167:0 168:0 169:0 170:0 171:0 172:0 173:0 174:0 175:0 176:0 177:0 178:0 179:0 180:1 
